{"learner":{"attributes":{},"feature_names":[],"feature_types":[],"gradient_booster":{"model":{"gbtree_model_param":{"num_parallel_tree":"1","num_trees":"700"},"iteration_indptr":[0,7,14,21,28,35,42,49,56,63,70,77,84,91,98,105,112,119,126,133,140,147,154,161,168,175,182,189,196,203,210,217,224,231,238,245,252,259,266,273,280,287,294,301,308,315,322,329,336,343,350,357,364,371,378,385,392,399,406,413,420,427,434,441,448,455,462,469,476,483,490,497,504,511,518,525,532,539,546,553,560,567,574,581,588,595,602,609,616,623,630,637,644,651,658,665,672,679,686,693,700],"tree_info":[0,1,2,3,4,5,6,0,1,2,3,4,5,6,0,1,2,3,4,5,6,0,1,2,3,4,5,6,0,1,2,3,4,5,6,0,1,2,3,4,5,6,0,1,2,3,4,5,6,0,1,2,3,4,5,6,0,1,2,3,4,5,6,0,1,2,3,4,5,6,0,1,2,3,4,5,6,0,1,2,3,4,5,6,0,1,2,3,4,5,6,0,1,2,3,4,5,6,0,1,2,3,4,5,6,0,1,2,3,4,5,6,0,1,2,3,4,5,6,0,1,2,3,4,5,6,0,1,2,3,4,5,6,0,1,2,3,4,5,6,0,1,2,3,4,5,6,0,1,2,3,4,5,6,0,1,2,3,4,5,6,0,1,2,3,4,5,6,0,1,2,3,4,5,6,0,1,2,3,4,5,6,0,1,2,3,4,5,6,0,1,2,3,4,5,6,0,1,2,3,4,5,6,0,1,2,3,4,5,6,0,1,2,3,4,5,6,0,1,2,3,4,5,6,0,1,2,3,4,5,6,0,1,2,3,4,5,6,0,1,2,3,4,5,6,0,1,2,3,4,5,6,0,1,2,3,4,5,6,0,1,2,3,4,5,6,0,1,2,3,4,5,6,0,1,2,3,4,5,6,0,1,2,3,4,5,6,0,1,2,3,4,5,6,0,1,2,3,4,5,6,0,1,2,3,4,5,6,0,1,2,3,4,5,6,0,1,2,3,4,5,6,0,1,2,3,4,5,6,0,1,2,3,4,5,6,0,1,2,3,4,5,6,0,1,2,3,4,5,6,0,1,2,3,4,5,6,0,1,2,3,4,5,6,0,1,2,3,4,5,6,0,1,2,3,4,5,6,0,1,2,3,4,5,6,0,1,2,3,4,5,6,0,1,2,3,4,5,6,0,1,2,3,4,5,6,0,1,2,3,4,5,6,0,1,2,3,4,5,6,0,1,2,3,4,5,6,0,1,2,3,4,5,6,0,1,2,3,4,5,6,0,1,2,3,4,5,6,0,1,2,3,4,5,6,0,1,2,3,4,5,6,0,1,2,3,4,5,6,0,1,2,3,4,5,6,0,1,2,3,4,5,6,0,1,2,3,4,5,6,0,1,2,3,4,5,6,0,1,2,3,4,5,6,0,1,2,3,4,5,6,0,1,2,3,4,5,6,0,1,2,3,4,5,6,0,1,2,3,4,5,6,0,1,2,3,4,5,6,0,1,2,3,4,5,6,0,1,2,3,4,5,6,0,1,2,3,4,5,6,0,1,2,3,4,5,6,0,1,2,3,4,5,6,0,1,2,3,4,5,6,0,1,2,3,4,5,6,0,1,2,3,4,5,6,0,1,2,3,4,5,6,0,1,2,3,4,5,6,0,1,2,3,4,5,6,0,1,2,3,4,5,6,0,1,2,3,4,5,6,0,1,2,3,4,5,6,0,1,2,3,4,5,6,0,1,2,3,4,5,6,0,1,2,3,4,5,6,0,1,2,3,4,5,6,0,1,2,3,4,5,6,0,1,2,3,4,5,6,0,1,2,3,4,5,6,0,1,2,3,4,5,6,0,1,2,3,4,5,6],"trees":[{"base_weights":[-0E0,2.5158232E-1,-4.3578985E-1,4.5789E-1,-5.620718E-2,-5.245103E-1,4.9606297E-2,7.4163675E-1,-5.5885136E-2,-3.7225735E-1,-5.722642E-2,1.3648337E0,-7.4662924E-2,-5.439309E-2,2.7308175E-3,2.285421E0,3.3796147E-1,-2.2911422E-1,8.952234E-2,3.0097997E0,3.6769073E-2,-5.2666184E-2,9.9567324E-1,3.9072543E-2,-5.461943E-2,3.3724695E-1,1.9388816E-1,1.8494794E-2,2.4052386E-1,-2.5506074E-2,8.952234E-2],"categories":[],"categories_nodes":[],"categories_segments":[],"categories_sizes":[],"default_left":[0,0,0,0,0,0,0,0,0,0,0,0,0,0,0,0,0,0,0,0,0,0,0,0,0,0,0,0,0,0,0],"id":0,"left_children":[1,3,5,7,-1,9,-1,11,-1,13,-1,15,17,-1,-1,19,21,23,-1,25,-1,-1,27,29,-1,-1,-1,-1,-1,-1,-1],"loss_changes":[6.412201E0,6.2396135E0,1.7986021E0,8.63751E0,0E0,2.741766E-2,0E0,1.20255E1,0E0,4.2957932E-1,0E0,1.2256401E1,1.4729964E0,0E0,0E0,9.216187E0,3.777145E0,8.1106126E-1,0E0,7.5613785E-1,0E0,0E0,4.008707E0,1.2837776E0,0E0,0E0,0E0,0E0,0E0,0E0,0E0],"parents":[2147483647,0,0,1,1,2,2,3,3,5,5,7,7,9,9,11,11,12,12,15,15,16,16,17,17,19,19,22,22,23,23],"right_children":[2,4,6,8,-1,10,-1,12,-1,14,-1,16,18,-1,-1,20,22,24,-1,26,-1,-1,28,30,-1,-1,-1,-1,-1,-1,-1],"split_conditions":[1E0,1E0,1E0,1E0,-5.620718E-2,1E0,4.9606297E-2,1E0,-5.5885136E-2,1E0,-5.722642E-2,1E0,1E0,-5.439309E-2,2.7308175E-3,1E0,1E0,1E0,8.952234E-2,1E0,3.6769073E-2,-5.2666184E-2,1E0,1E0,-5.461943E-2,3.3724695E-1,1.9388816E-1,1.8494794E-2,2.4052386E-1,-2.5506074E-2,8.952234E-2],"split_indices":[32,40,105,61,0,29,0,111,0,84,0,15,9,0,0,119,12,26,0,90,0,0,71,89,0,0,0,0,0,0,0],"split_type":[0,0,0,0,0,0,0,0,0,0,0,0,0,0,0,0,0,0,0,0,0,0,0,0,0,0,0,0,0,0,0],"sum_hessian":[5.8285717E1,3.6979595E1,2.1306124E1,2.9632656E1,7.346939E0,1.9591839E1,1.7142859E0,2.3265308E1,6.3673472E0,5.3877554E0,1.42040825E1,1.3224491E1,1.0040817E1,3.9183676E0,1.4693879E0,6.8571434E0,6.3673472E0,8.816327E0,1.2244899E0,4.8979597E0,1.9591838E0,2.6938777E0,3.6734695E0,4.6530614E0,4.1632657E0,3.4285717E0,1.4693879E0,2.4489799E0,1.2244899E0,3.4285717E0,1.2244899E0],"tree_param":{"num_deleted":"0","num_feature":"120","num_nodes":"31","size_leaf_vector":"1"}},{"base_weights":[-1.6956203E-1,-4.6659446E-1,2.5493057E0,-5.220405E-1,1.650231E-1,1.9554654E0,3.3046943E-1,-5.5937356E-1,1.3051568E-2,2.7007875E-1,1.0472441E-1,-5.7951696E-2,-4.1683778E-1,-5.06442E-2,8.952234E-2,1.402157E-2,-5.5571377E-2],"categories":[],"categories_nodes":[],"categories_segments":[],"categories_sizes":[],"default_left":[0,0,0,0,0,0,0,0,0,0,0,0,0,0,0,0,0],"id":1,"left_children":[1,3,5,7,-1,9,-1,11,13,-1,-1,-1,15,-1,-1,-1,-1],"loss_changes":[4.7062504E1,6.164933E0,1.3993225E0,1.0847301E0,0E0,1.7309084E0,0E0,1.5013695E-2,1.5890665E0,0E0,0E0,0E0,5.8755565E-1,0E0,0E0,0E0,0E0],"parents":[2147483647,0,0,1,1,2,2,3,3,5,5,7,7,8,8,12,12],"right_children":[2,4,6,8,-1,10,-1,12,14,-1,-1,-1,16,-1,-1,-1,-1],"split_conditions":[1E0,1E0,1E0,1E0,1.650231E-1,1E0,3.3046943E-1,1E0,1E0,2.7007875E-1,1.0472441E-1,-5.7951696E-2,1E0,-5.06442E-2,8.952234E-2,1.402157E-2,-5.5571377E-2],"split_indices":[10,11,39,0,0,85,0,105,9,0,0,0,83,0,0,0,0],"split_type":[0,0,0,0,0,0,0,0,0,0,0,0,0,0,0,0,0],"sum_hessian":[5.8285717E1,5.2653065E1,5.632653E0,5.1428574E1,1.2244899E0,3.4285717E0,2.2040818E0,4.82449E1,3.1836736E0,1.7142859E0,1.7142859E0,4.1387756E1,6.8571434E0,1.9591838E0,1.2244899E0,1.2244899E0,5.632653E0],"tree_param":{"num_deleted":"0","num_feature":"120","num_nodes":"17","size_leaf_vector":"1"}},{"base_weights":[2.380719E-1,-5.19658E-1,1.2856668E0,-5.7719976E-2,-3.1953105E-1,1.9730955E0,-5.597446E-2,1.1760407E-1,-5.5448122E-2,2.6711478E0,-3.1163236E-1,8.952234E-2,-4.8244473E-2,1.5118076E0,3.2325683E0,1.402157E-2,-5.3122904E-2,1.8494794E-1,2.870682E-1,3.4395725E-1,2.1496062E-1,-4.6379045E-2,8.952234E-2],"categories":[],"categories_nodes":[],"categories_segments":[],"categories_sizes":[],"default_left":[0,0,0,0,0,0,0,0,0,0,0,0,0,0,0,0,0,0,0,0,0,0,0],"id":2,"left_children":[1,3,5,-1,7,9,-1,11,-1,13,15,-1,-1,17,19,-1,-1,21,-1,-1,-1,-1,-1],"loss_changes":[4.648964E1,2.8221703E-1,3.1446125E1,0E0,8.905031E-1,2.899086E1,0E0,1.3881174E0,0E0,8.028267E0,4.6956965E-1,0E0,0E0,8.211285E0,7.554474E-1,0E0,0E0,1.2591894E0,0E0,0E0,0E0,0E0,0E0],"parents":[2147483647,0,0,1,1,2,2,4,4,5,5,7,7,9,9,10,10,13,13,14,14,17,17],"right_children":[2,4,6,-1,8,10,-1,12,-1,14,16,-1,-1,18,20,-1,-1,22,-1,-1,-1,-1,-1],"split_conditions":[1E0,1E0,1E0,-5.7719976E-2,1E0,1E0,-5.597446E-2,1E0,-5.5448122E-2,1E0,1E0,8.952234E-2,-4.8244473E-2,1E0,1E0,1.402157E-2,-5.3122904E-2,1E0,2.870682E-1,3.4395725E-1,2.1496062E-1,-4.6379045E-2,8.952234E-2],"split_indices":[20,32,3,0,80,111,0,6,0,32,88,0,0,15,84,0,0,24,0,0,0,0,0],"split_type":[0,0,0,0,0,0,0,0,0,0,0,0,0,0,0,0,0,0,0,0,0,0,0],"sum_hessian":[5.8285717E1,3.379592E1,2.4489798E1,2.5714287E1,8.081634E0,1.7877552E1,6.6122456E0,2.6938777E0,5.3877554E0,1.3714287E1,4.1632657E0,1.2244899E0,1.4693879E0,4.6530614E0,9.061225E0,1.2244899E0,2.9387758E0,2.4489799E0,2.2040818E0,7.346939E0,1.7142859E0,1.2244899E0,1.2244899E0],"tree_param":{"num_deleted":"0","num_feature":"120","num_nodes":"23","size_leaf_vector":"1"}},{"base_weights":[-6.6797175E-2,-5.8023114E-2,3.4395725E-1],"categories":[],"categories_nodes":[],"categories_segments":[],"categories_sizes":[],"default_left":[0,0,0],"id":3,"left_children":[1,-1,-1],"loss_changes":[1.0502481E2,0E0,0E0],"parents":[2147483647,0,0],"right_children":[2,-1,-1],"split_conditions":[1E0,-5.8023114E-2,3.4395725E-1],"split_indices":[40,0,0],"split_type":[0,0,0],"sum_hessian":[5.8285717E1,5.0938778E1,7.346939E0],"tree_param":{"num_deleted":"0","num_feature":"120","num_nodes":"3","size_leaf_vector":"1"}},{"base_weights":[3.2542188E-2,-5.193016E-1,3.014257E0,-5.7990182E-2,3.1758854E-1,1.3389494E-1,3.4375176E-1,1.0472441E-1,-4.8244473E-2],"categories":[],"categories_nodes":[],"categories_segments":[],"categories_sizes":[],"default_left":[0,0,0,0,0,0,0,0,0],"id":4,"left_children":[1,3,5,-1,7,-1,-1,-1,-1],"loss_changes":[9.647626E1,2.546176E0,5.558243E0,0E0,2.0238438E0,0E0,0E0,0E0,0E0],"parents":[2147483647,0,0,1,1,2,2,4,4],"right_children":[2,4,6,-1,8,-1,-1,-1,-1],"split_conditions":[1E0,1E0,1E0,-5.7990182E-2,1E0,1.3389494E-1,3.4375176E-1,1.0472441E-1,-4.8244473E-2],"split_indices":[61,60,75,0,6,0,0,0,0],"split_type":[0,0,0,0,0,0,0,0,0],"sum_hessian":[5.8285717E1,4.9224495E1,9.061225E0,4.604082E1,3.1836736E0,1.9591838E0,7.1020412E0,1.7142859E0,1.4693879E0],"tree_param":{"num_deleted":"0","num_feature":"120","num_nodes":"9","size_leaf_vector":"1"}},{"base_weights":[4.9669664E-2,-2.66744E-1,2.2310221E0,-5.008791E-1,4.2629984E-1,3.0726235E0,-4.96063E-2,-5.5035156E-1,1.3051568E-2,1.2792606E0,-5.5684533E-2,3.394447E-1,1.9388816E-1,-5.7866216E-2,1.402157E-2,8.952234E-2,-5.06442E-2,2.0093915E0,-5.06442E-2,2.85073E0,-4.6379045E-2,1.9388816E-1,3.3046943E-1],"categories":[],"categories_nodes":[],"categories_segments":[],"categories_sizes":[],"default_left":[0,0,0,0,0,0,0,0,0,0,0,0,0,0,0,0,0,0,0,0,0,0,0],"id":5,"left_children":[1,3,5,7,9,11,-1,13,15,17,-1,-1,-1,-1,-1,-1,-1,19,-1,21,-1,-1,-1],"loss_changes":[4.055432E1,8.310664E0,1.7501686E1,1.0283461E0,1.090645E1,9.001694E-1,0E0,7.3857594E-1,1.5890665E0,9.322758E0,0E0,0E0,0E0,0E0,0E0,0E0,0E0,1.077058E1,0E0,3.9691544E-1,0E0,0E0,0E0],"parents":[2147483647,0,0,1,1,2,2,3,3,4,4,5,5,7,7,8,8,9,9,17,17,19,19],"right_children":[2,4,6,8,10,12,-1,14,16,18,-1,-1,-1,-1,-1,-1,-1,20,-1,22,-1,-1,-1],"split_conditions":[1E0,1E0,1E0,1E0,1E0,1E0,-4.96063E-2,1E0,1E0,1E0,-5.5684533E-2,3.394447E-1,1.9388816E-1,-5.7866216E-2,1.402157E-2,8.952234E-2,-5.06442E-2,1E0,-5.06442E-2,1E0,-4.6379045E-2,1.9388816E-1,3.3046943E-1],"split_indices":[87,118,100,92,101,36,0,106,1,15,0,0,0,0,0,0,0,13,0,88,0,0,0],"split_type":[0,0,0,0,0,0,0,0,0,0,0,0,0,0,0,0,0,0,0,0,0,0,0],"sum_hessian":[5.8285717E1,5.0938778E1,7.346939E0,3.8204082E1,1.27346945E1,5.632653E0,1.7142859E0,3.5020412E1,3.1836736E0,6.8571434E0,5.8775516E0,4.1632657E0,1.4693879E0,3.379592E1,1.2244899E0,1.2244899E0,1.9591838E0,4.8979597E0,1.9591838E0,3.6734695E0,1.2244899E0,1.4693879E0,2.2040818E0],"tree_param":{"num_deleted":"0","num_feature":"120","num_nodes":"23","size_leaf_vector":"1"}},{"base_weights":[-8.392465E-2,-5.591283E-1,2.04665E0,-5.7968903E-2,-3.2639202E-1,3.1758854E-1,2.7681556E0,-5.3511497E-2,1.402157E-2,-4.8244473E-2,1.0472441E-1,3.400181E-1,1.7065144E0,8.952234E-2,2.1496062E-1],"categories":[],"categories_nodes":[],"categories_segments":[],"categories_sizes":[],"default_left":[0,0,0,0,0,0,0,0,0,0,0,0,0,0,0],"id":6,"left_children":[1,3,5,-1,7,9,11,-1,-1,-1,-1,-1,13,-1,-1],"loss_changes":[5.9078697E1,1.1946964E-1,1.2865498E1,0E0,4.8605096E-1,2.0238438E0,3.905861E0,0E0,0E0,0E0,0E0,0E0,5.9544754E-1,0E0,0E0],"parents":[2147483647,0,0,1,1,2,2,4,4,5,5,6,6,12,12],"right_children":[2,4,6,-1,8,10,12,-1,-1,-1,-1,-1,14,-1,-1],"split_conditions":[1E0,1E0,1E0,-5.7968903E-2,1E0,1E0,1E0,-5.3511497E-2,1.402157E-2,-4.8244473E-2,1.0472441E-1,3.400181E-1,1E0,8.952234E-2,2.1496062E-1],"split_indices":[100,117,111,0,36,105,23,0,0,0,0,0,25,0,0],"split_type":[0,0,0,0,0,0,0,0,0,0,0,0,0,0,0],"sum_hessian":[5.8285717E1,4.7755104E1,1.0530613E1,4.3346943E1,4.4081635E0,3.1836736E0,7.346939E0,3.1836736E0,1.2244899E0,1.4693879E0,1.7142859E0,4.4081635E0,2.9387758E0,1.2244899E0,1.7142859E0],"tree_param":{"num_deleted":"0","num_feature":"120","num_nodes":"15","size_leaf_vector":"1"}},{"base_weights":[-0E0,2.3430853E-1,-4.2513934E-1,4.177202E-1,-5.5473026E-2,-5.162829E-1,4.541508E-2,6.601404E-1,-5.51377E-2,-3.6139134E-1,-5.657303E-2,1.1575512E0,-6.857796E-2,-5.3857315E-2,4.6143564E-3,1.8052877E0,3.1468052E-1,-5.4387387E-2,2.2692503E-1,2.262405E0,3.3320934E-2,-5.2440364E-2,9.1410244E-1,-2.4699129E-1,8.4801567E-1,2.5469986E-1,9.02084E-2,1.8199986E-2,2.0324281E-1,-5.090643E-2,1.3731256E-2,-4.5219187E-2,1.8774456E-1],"categories":[],"categories_nodes":[],"categories_segments":[],"categories_sizes":[],"default_left":[0,0,0,0,0,0,0,0,0,0,0,0,0,0,0,0,0,0,0,0,0,0,0,0,0,0,0,0,0,0,0,0,0],"id":7,"left_children":[1,3,5,7,-1,9,-1,11,-1,13,-1,15,17,-1,-1,19,21,-1,23,25,-1,-1,27,29,31,-1,-1,-1,-1,-1,-1,-1,-1],"loss_changes":[5.7816753E0,5.4617553E0,1.676137E0,7.266418E0,0E0,3.0562878E-2,0E0,9.072932E0,0E0,4.349416E-1,0E0,7.796047E0,1.4536663E0,0E0,0E0,5.2264423E0,3.410134E0,0E0,1.8852539E0,1.8400154E0,0E0,0E0,2.983741E0,3.9292577E-1,3.9306264E0,0E0,0E0,0E0,0E0,0E0,0E0,0E0,0E0],"parents":[2147483647,0,0,1,1,2,2,3,3,5,5,7,7,9,9,11,11,12,12,15,15,16,16,18,18,19,19,22,22,23,23,24,24],"right_children":[2,4,6,8,-1,10,-1,12,-1,14,-1,16,18,-1,-1,20,22,-1,24,26,-1,-1,28,30,32,-1,-1,-1,-1,-1,-1,-1,-1],"split_conditions":[1E0,1E0,1E0,1E0,-5.5473026E-2,1E0,4.541508E-2,1E0,-5.51377E-2,1E0,-5.657303E-2,1E0,1E0,-5.3857315E-2,4.6143564E-3,1E0,1E0,-5.4387387E-2,1E0,1E0,3.3320934E-2,-5.2440364E-2,1E0,1E0,1E0,2.5469986E-1,9.02084E-2,1.8199986E-2,2.0324281E-1,-5.090643E-2,1.3731256E-2,-4.5219187E-2,1.8774456E-1],"split_indices":[32,40,105,61,0,29,0,111,0,119,0,15,98,0,0,119,73,0,34,8,0,0,71,22,104,0,0,0,0,0,0,0,0],"split_type":[0,0,0,0,0,0,0,0,0,0,0,0,0,0,0,0,0,0,0,0,0,0,0,0,0,0,0,0,0,0,0,0,0],"sum_hessian":[5.801958E1,3.757499E1,2.0444588E1,3.0629074E1,6.9459167E0,1.8664877E1,1.7797115E0,2.460835E1,6.0207233E0,5.2070956E0,1.3457781E1,1.4671925E1,9.936426E0,3.7778456E0,1.4292501E0,8.164655E0,6.50727E0,3.9068644E0,6.029562E0,6.137262E0,2.0273924E0,2.6472619E0,3.8600082E0,3.362823E0,2.6667392E0,4.942493E0,1.194769E0,2.4571495E0,1.4028587E0,2.1347759E0,1.228047E0,1.1602427E0,1.5064965E0],"tree_param":{"num_deleted":"0","num_feature":"120","num_nodes":"33","size_leaf_vector":"1"}},{"base_weights":[-1.605529E-1,-4.5692313E-1,2.0147185E0,-5.136378E-1,1.3130036E-1,2.660248E-1,1.4329654E0,-5.5233777E-1,1.2747553E-2,1.8793461E0,1.9616848E-2,-5.735564E-2,-4.0801394E-1,1.1926671E-1,-5.1330715E-2,1.2501392E-1,2.4261506E-1,1.7338127E-2,-5.4931726E-2],"categories":[],"categories_nodes":[],"categories_segments":[],"categories_sizes":[],"default_left":[0,0,0,0,0,0,0,0,0,0,0,0,0,0,0,0,0,0,0],"id":8,"left_children":[1,3,5,7,-1,-1,9,11,13,15,-1,-1,17,-1,-1,-1,-1,-1,-1],"loss_changes":[3.6850006E1,5.0582085E0,1.7795849E0,1.0543327E0,0E0,0E0,1.9075756E0,1.8976212E-2,2.166021E0,2.900591E-1,0E0,0E0,6.084461E-1,0E0,0E0,0E0,0E0,0E0,0E0],"parents":[2147483647,0,0,1,1,2,2,3,3,6,6,7,7,8,8,9,9,12,12],"right_children":[2,4,6,8,-1,-1,10,12,14,16,-1,-1,18,-1,-1,-1,-1,-1,-1],"split_conditions":[1E0,1E0,1E0,1E0,1.3130036E-1,2.660248E-1,1E0,1E0,1E0,1E0,1.9616848E-2,-5.735564E-2,1E0,1.1926671E-1,-5.1330715E-2,1.2501392E-1,2.4261506E-1,1.7338127E-2,-5.4931726E-2],"split_indices":[11,10,62,0,0,0,114,1,69,80,0,0,74,0,0,0,0,0,0],"split_type":[0,0,0,0,0,0,0,0,0,0,0,0,0,0,0,0,0,0,0],"sum_hessian":[5.715849E1,5.0414696E1,6.743793E0,4.897291E1,1.4417844E0,2.9458365E0,3.7979562E0,4.5791363E1,3.1815493E0,2.6931474E0,1.1048088E0,3.9058647E1,6.7327147E0,1.0006058E0,2.1809435E0,1.4900528E0,1.2030947E0,1.1735833E0,5.5591316E0],"tree_param":{"num_deleted":"0","num_feature":"120","num_nodes":"19","size_leaf_vector":"1"}},{"base_weights":[2.1805926E-1,-5.112404E-1,1.0852094E0,-5.7080735E-2,-3.0922058E-1,1.580225E0,-5.523575E-2,1.04814835E-1,-5.4745246E-2,2.036029E0,-3.0043963E-1,1.1633765E-1,-4.9692716E-2,1.2603691E0,2.3644009E0,1.5453594E-2,-5.257661E-2,-4.716028E-2,1.8307056E0,2.5056204E-1,9.31144E-2,2.4108617E-2,2.338183E-1],"categories":[],"categories_nodes":[],"categories_segments":[],"categories_sizes":[],"default_left":[0,0,0,0,0,0,0,0,0,0,0,0,0,0,0,0,0,0,0,0,0,0,0],"id":9,"left_children":[1,3,5,-1,7,9,-1,11,-1,13,15,-1,-1,17,19,-1,-1,-1,21,-1,-1,-1,-1],"loss_changes":[3.770757E1,2.829771E-1,2.2280602E1,0E0,8.3460903E-1,1.8235E1,0E0,1.9308757E0,0E0,3.6587448E0,4.6975395E-1,0E0,0E0,5.5055103E0,1.7930145E0,0E0,0E0,0E0,2.9830332E0,0E0,0E0,0E0,0E0],"parents":[2147483647,0,0,1,1,2,2,4,4,5,5,7,7,9,9,10,10,13,13,14,14,18,18],"right_children":[2,4,6,-1,8,10,-1,12,-1,14,16,-1,-1,18,20,-1,-1,-1,22,-1,-1,-1,-1],"split_conditions":[1E0,1E0,1E0,-5.7080735E-2,1E0,1E0,-5.523575E-2,1E0,-5.4745246E-2,1E0,1E0,1.1633765E-1,-4.9692716E-2,1E0,1E0,1.5453594E-2,-5.257661E-2,-4.716028E-2,1E0,2.5056204E-1,9.31144E-2,2.4108617E-2,2.338183E-1],"split_indices":[20,32,3,0,80,111,0,62,0,32,96,0,0,36,92,0,0,0,94,0,0,0,0],"split_type":[0,0,0,0,0,0,0,0,0,0,0,0,0,0,0,0,0,0,0,0,0,0,0],"sum_hessian":[5.934649E1,3.219513E1,2.715136E1,2.434059E1,7.8545394E0,2.089856E1,6.2528E0,2.7359078E0,5.118632E0,1.6857767E1,4.0407925E0,1.0179747E0,1.717933E0,5.2484784E0,1.1609288E1,1.2017847E0,2.8390079E0,1.2610267E0,3.9874518E0,1.0436394E1,1.1728941E0,1.0483053E0,2.9391465E0],"tree_param":{"num_deleted":"0","num_feature":"120","num_nodes":"23","size_leaf_vector":"1"}},{"base_weights":[-6.45578E-2,-5.7409097E-2,2.4716564E-1],"categories":[],"categories_nodes":[],"categories_segments":[],"categories_sizes":[],"default_left":[0,0,0],"id":10,"left_children":[1,-1,-1],"loss_changes":[7.481394E1,0E0,0E0],"parents":[2147483647,0,0],"right_children":[2,-1,-1],"split_conditions":[1E0,-5.7409097E-2,2.4716564E-1],"split_indices":[40,0,0],"split_type":[0,0,0],"sum_hessian":[5.7829777E1,4.8252495E1,9.57728E0],"tree_param":{"num_deleted":"0","num_feature":"120","num_nodes":"3","size_leaf_vector":"1"}},{"base_weights":[2.9681852E-2,-5.108651E-1,2.2458723E0,-5.73813E-2,2.956154E-1,1.8587155E-2,2.4561213E-1,-4.8437603E-2,9.908504E-2],"categories":[],"categories_nodes":[],"categories_segments":[],"categories_sizes":[],"default_left":[0,0,0,0,0,0,0,0,0],"id":11,"left_children":[1,3,5,-1,7,-1,-1,-1,-1],"loss_changes":[7.02508E1,2.430561E0,4.6736984E0,0E0,1.9171759E0,0E0,0E0,0E0,0E0],"parents":[2147483647,0,0,1,1,2,2,4,4],"right_children":[2,4,6,-1,8,-1,-1,-1,-1],"split_conditions":[1E0,1E0,1E0,-5.73813E-2,1E0,1.8587155E-2,2.4561213E-1,-4.8437603E-2,9.908504E-2],"split_indices":[61,60,60,0,109,0,0,0,0],"split_type":[0,0,0,0,0,0,0,0,0],"sum_hessian":[5.8301674E1,4.689534E1,1.1406331E1,4.364183E1,3.2535126E0,1.1178429E0,1.0288488E1,1.4798012E0,1.7737114E0],"tree_param":{"num_deleted":"0","num_feature":"120","num_nodes":"9","size_leaf_vector":"1"}},{"base_weights":[4.638311E-2,-2.5618267E-1,1.7521894E0,-4.9180147E-1,3.888118E-1,2.2855203E0,-4.8893906E-2,-5.4297394E-1,1.3735897E-2,1.0959487E0,-5.5009194E-2,1.5830639E-1,2.5334054E-1,-5.725155E-2,1.3561419E-2,-5.1087994E-2,1.1517481E-1,-4.9702E-2,1.6338074E0,5.629157E-2,2.0021045E0,2.2770894E-1,1.03740394E-1],"categories":[],"categories_nodes":[],"categories_segments":[],"categories_sizes":[],"default_left":[0,0,0,0,0,0,0,0,0,0,0,0,0,0,0,0,0,0,0,0,0,0,0],"id":12,"left_children":[1,3,5,7,9,11,-1,13,15,17,-1,-1,-1,-1,-1,-1,-1,-1,19,-1,21,-1,-1],"loss_changes":[3.0361488E1,7.5796757E0,1.0891155E1,9.9910927E-1,8.902173E0,4.4400024E-1,0E0,7.203913E-1,2.0794964E0,6.7438164E0,0E0,0E0,0E0,0E0,0E0,0E0,0E0,0E0,1.9122143E0,0E0,5.453167E-1,0E0,0E0],"parents":[2147483647,0,0,1,1,2,2,3,3,4,4,5,5,7,7,8,8,9,9,18,18,20,20],"right_children":[2,4,6,8,10,12,-1,14,16,18,-1,-1,-1,-1,-1,-1,-1,-1,20,-1,22,-1,-1],"split_conditions":[1E0,1E0,1E0,1E0,1E0,1E0,-4.8893906E-2,1E0,1E0,1E0,-5.5009194E-2,1.5830639E-1,2.5334054E-1,-5.725155E-2,1.3561419E-2,-5.1087994E-2,1.1517481E-1,-4.9702E-2,1E0,5.629157E-2,1E0,2.2770894E-1,1.03740394E-1],"split_indices":[87,118,100,92,101,32,0,106,88,80,0,0,0,0,0,0,0,0,82,0,36,0,0],"split_type":[0,0,0,0,0,0,0,0,0,0,0,0,0,0,0,0,0,0,0,0,0,0,0],"sum_hessian":[5.834974E1,4.9581608E1,8.768132E0,3.64464E1,1.313521E1,7.117088E0,1.6510446E0,3.326917E1,3.1772294E0,7.543552E0,5.591658E0,2.154293E0,4.962795E0,3.203745E1,1.2317193E0,2.1522787E0,1.0249507E0,1.859113E0,5.684439E0,1.58887E0,4.095569E0,3.000567E0,1.095002E0],"tree_param":{"num_deleted":"0","num_feature":"120","num_nodes":"23","size_leaf_vector":"1"}},{"base_weights":[-7.9101115E-2,-5.522356E-1,1.6489568E0,-5.7348944E-2,-3.311173E-1,-5.0728876E-2,2.0687246E0,-5.3353924E-2,1.3744074E-2,1.1750326E0,2.3523131E-1,1.6209163E-1,2.6970012E-2],"categories":[],"categories_nodes":[],"categories_segments":[],"categories_sizes":[],"default_left":[0,0,0,0,0,0,0,0,0,0,0,0,0],"id":13,"left_children":[1,3,5,-1,7,-1,9,-1,-1,11,-1,-1,-1],"loss_changes":[4.7195343E1,1.0417175E-1,1.1477379E1,0E0,4.8657262E-1,0E0,2.014557E0,0E0,0E0,8.9648294E-1,0E0,0E0,0E0],"parents":[2147483647,0,0,1,1,2,2,4,4,6,6,9,9],"right_children":[2,4,6,-1,8,-1,10,-1,-1,12,-1,-1,-1],"split_conditions":[1E0,1E0,1E0,-5.7348944E-2,1E0,-5.0728876E-2,1E0,-5.3353924E-2,1.3744074E-2,1E0,2.3523131E-1,1.6209163E-1,2.6970012E-2],"split_indices":[101,117,107,0,36,0,103,0,0,23,0,0,0],"split_type":[0,0,0,0,0,0,0,0,0,0,0,0,0],"sum_hessian":[5.7646744E1,4.5354733E1,1.229201E1,4.0819557E1,4.5351763E0,1.9607971E0,1.0331214E1,3.306351E0,1.2288253E0,2.6974664E0,7.633747E0,1.680372E0,1.0170944E0],"tree_param":{"num_deleted":"0","num_feature":"120","num_nodes":"13","size_leaf_vector":"1"}},{"base_weights":[1.2003762E-3,2.1849188E-1,-4.142137E-1,3.8295498E-1,-5.4781426E-2,-5.079651E-1,4.169882E-2,5.931427E-1,-5.4429468E-2,-3.5001928E-1,-5.5937327E-2,1.0068814E0,-6.5345235E-2,-5.321453E-2,5.316495E-3,1.5045065E0,2.9019552E-1,-5.3745765E-2,2.1078017E-1,1.9904628E0,5.594151E-1,-5.178794E-2,8.138603E-1,-2.3696132E-1,7.523559E-1,2.1178181E-1,1.1361232E-1,1.2836848E-1,-4.776203E-2,-0E0,1.4649868E-1,1.3926746E-2,-5.0295748E-2,-4.4528004E-2,1.5707189E-1],"categories":[],"categories_nodes":[],"categories_segments":[],"categories_sizes":[],"default_left":[0,0,0,0,0,0,0,0,0,0,0,0,0,0,0,0,0,0,0,0,0,0,0,0,0,0,0,0,0,0,0,0,0,0,0],"id":14,"left_children":[1,3,5,7,-1,9,-1,11,-1,13,-1,15,17,-1,-1,19,21,-1,23,25,27,-1,29,31,33,-1,-1,-1,-1,-1,-1,-1,-1,-1,-1],"loss_changes":[5.1929836E0,4.8027067E0,1.563411E0,6.1786213E0,0E0,3.428173E-2,0E0,7.1363087E0,0E0,4.2697668E-1,0E0,5.468416E0,1.3431032E0,0E0,0E0,3.9106903E0,2.9264517E0,0E0,1.5790808E0,9.131241E-2,2.674117E0,0E0,2.3450887E0,3.8195065E-1,3.0666919E0,0E0,0E0,0E0,0E0,0E0,0E0,0E0,0E0,0E0,0E0],"parents":[2147483647,0,0,1,1,2,2,3,3,5,5,7,7,9,9,11,11,12,12,15,15,16,16,18,18,19,19,20,20,22,22,23,23,24,24],"right_children":[2,4,6,8,-1,10,-1,12,-1,14,-1,16,18,-1,-1,20,22,-1,24,26,28,-1,30,32,34,-1,-1,-1,-1,-1,-1,-1,-1,-1,-1],"split_conditions":[1E0,1E0,1E0,1E0,-5.4781426E-2,1E0,4.169882E-2,1E0,-5.4429468E-2,1E0,-5.5937327E-2,1E0,1E0,-5.321453E-2,5.316495E-3,1E0,1E0,-5.3745765E-2,1E0,1E0,1E0,-5.178794E-2,1E0,1E0,1E0,2.1178181E-1,1.1361232E-1,1.2836848E-1,-4.776203E-2,-0E0,1.4649868E-1,1.3926746E-2,-5.0295748E-2,-4.4528004E-2,1.5707189E-1],"split_indices":[32,40,105,61,0,29,0,111,0,119,0,15,98,0,0,90,12,0,34,93,119,0,62,112,104,0,0,0,0,0,0,0,0,0,0],"split_type":[0,0,0,0,0,0,0,0,0,0,0,0,0,0,0,0,0,0,0,0,0,0,0,0,0,0,0,0,0,0,0,0,0,0,0],"sum_hessian":[5.7546387E1,3.7972275E1,1.957411E1,3.1411354E1,6.560921E0,1.7733177E1,1.8409331E0,2.5724123E1,5.6872315E0,5.023895E0,1.2709283E1,1.585876E1,9.865363E0,3.6094685E0,1.4144264E0,9.2126045E0,6.6461554E0,3.7393782E0,6.125984E0,5.9412537E0,3.2713513E0,2.5387366E0,4.107419E0,3.2832196E0,2.8427649E0,4.939926E0,1.0013275E0,1.9689047E0,1.3024465E0,1.8162236E0,2.2911952E0,1.2238652E0,2.0593545E0,1.1228786E0,1.7198863E0],"tree_param":{"num_deleted":"0","num_feature":"120","num_nodes":"35","size_leaf_vector":"1"}},{"base_weights":[-1.524175E-1,-4.4721013E-1,1.6506938E0,-5.4597235E-1,4.8648685E-1,2.0830317E-1,1.2221498E0,-5.679456E-2,-3.9248446E-1,2.2607422E-1,-5.276928E-2,1.5529156E0,1.8174177E-2,1.6796103E-2,-5.4244336E-2,1.0116049E-1,2.0376115E-1],"categories":[],"categories_nodes":[],"categories_segments":[],"categories_sizes":[],"default_left":[0,0,0,0,0,0,0,0,0,0,0,0,0,0,0,0,0],"id":15,"left_children":[1,3,5,7,9,-1,11,-1,13,-1,-1,15,-1,-1,-1,-1,-1],"loss_changes":[2.9714527E1,4.4817085E0,8.6768913E-1,2.9309273E-2,8.518362E0,0E0,1.2767034E0,0E0,5.824139E-1,0E0,0E0,3.2158852E-1,0E0,0E0,0E0,0E0,0E0],"parents":[2147483647,0,0,1,1,2,2,3,3,4,4,6,6,8,8,11,11],"right_children":[2,4,6,8,10,-1,12,-1,14,-1,-1,16,-1,-1,-1,-1,-1],"split_conditions":[1E0,1E0,1E0,1E0,1E0,2.0830317E-1,1E0,-5.679456E-2,1E0,2.2607422E-1,-5.276928E-2,1E0,1.8174177E-2,1.6796103E-2,-5.4244336E-2,1.0116049E-1,2.0376115E-1],"split_indices":[11,0,62,105,72,0,114,0,83,0,0,96,0,0,0,0,0],"split_type":[0,0,0,0,0,0,0,0,0,0,0,0,0,0,0,0,0],"sum_hessian":[5.588983E1,4.814862E1,7.7412133E0,4.3677265E1,4.471356E0,3.545203E0,4.1960106E0,3.7401363E1,6.2759E0,1.6174313E0,2.8539245E0,3.0735073E0,1.1225032E0,1.1814777E0,5.0944223E0,1.6952586E0,1.3782487E0],"tree_param":{"num_deleted":"0","num_feature":"120","num_nodes":"17","size_leaf_vector":"1"}},{"base_weights":[2.0141028E-1,-5.0323534E-1,9.4375664E-1,-5.649353E-2,-2.989873E-1,1.3278906E0,-5.4568686E-2,9.669002E-2,-5.409295E-2,1.6586938E0,-2.878367E-1,1.0625054E-1,-4.9285706E-2,1.7416869E0,1.8620793E-2,1.6151575E-2,-5.189785E-2,1.1263201E0,1.8901942E0,4.230679E-2,1.6351059E-1,1.3820366E0,2.020775E-1,1.3447742E-2,1.9800632E-1],"categories":[],"categories_nodes":[],"categories_segments":[],"categories_sizes":[],"default_left":[0,0,0,0,0,0,0,0,0,0,0,0,0,0,0,0,0,0,0,0,0,0,0,0,0],"id":16,"left_children":[1,3,5,-1,7,9,-1,11,-1,13,15,-1,-1,17,-1,-1,-1,19,21,-1,-1,23,-1,-1,-1],"loss_changes":[3.1450483E1,2.842536E-1,1.6913157E1,0E0,7.889693E-1,1.2677551E1,0E0,1.736887E0,0E0,2.1537971E0,4.602091E-1,0E0,0E0,1.1626015E0,0E0,0E0,0E0,1.1370087E0,3.4299088E-1,0E0,0E0,2.3272696E0,0E0,0E0,0E0],"parents":[2147483647,0,0,1,1,2,2,4,4,5,5,7,7,9,9,10,10,13,13,17,17,18,18,21,21],"right_children":[2,4,6,-1,8,10,-1,12,-1,14,16,-1,-1,18,-1,-1,-1,20,22,-1,-1,24,-1,-1,-1],"split_conditions":[1E0,1E0,1E0,-5.649353E-2,1E0,1E0,-5.4568686E-2,1E0,-5.409295E-2,1E0,1E0,1.0625054E-1,-4.9285706E-2,1E0,1.8620793E-2,1.6151575E-2,-5.189785E-2,1E0,1E0,4.230679E-2,1.6351059E-1,1E0,2.020775E-1,1.3447742E-2,1.9800632E-1],"split_indices":[20,32,3,0,80,111,0,18,0,117,94,0,0,28,0,0,0,31,81,0,0,99,0,0,0],"split_type":[0,0,0,0,0,0,0,0,0,0,0,0,0,0,0,0,0,0,0,0,0,0,0,0,0],"sum_hessian":[5.984928E1,3.065173E1,2.9197552E1,2.3028894E1,7.6228356E0,2.3273262E1,5.924291E0,2.7584019E0,4.864434E0,1.9367252E1,3.9060085E0,1.0794346E0,1.6789672E0,1.8252312E1,1.1149417E0,1.1900238E0,2.7159846E0,3.8462934E0,1.4406017E1,1.7739745E0,2.0723188E0,3.33847E0,1.1067548E1,1.1756396E0,2.16283E0],"tree_param":{"num_deleted":"0","num_feature":"120","num_nodes":"25","size_leaf_vector":"1"}},{"base_weights":[-6.267218E-2,-5.683976E-2,1.9552319E-1],"categories":[],"categories_nodes":[],"categories_segments":[],"categories_sizes":[],"default_left":[0,0,0],"id":17,"left_children":[1,-1,-1],"loss_changes":[5.8216824E1,0E0,0E0],"parents":[2147483647,0,0],"right_children":[2,-1,-1],"split_conditions":[1E0,-5.683976E-2,1.9552319E-1],"split_indices":[40,0,0],"split_type":[0,0,0],"sum_hessian":[5.6974045E1,4.5653736E1,1.1320312E1],"tree_param":{"num_deleted":"0","num_feature":"120","num_nodes":"3","size_leaf_vector":"1"}},{"base_weights":[2.7163468E-2,-5.0271374E-1,1.8038596E0,-5.681103E-2,2.737035E-1,1.41831655E-2,1.9543878E0,-4.802195E-2,9.03003E-2,1.10767975E-1,2.0126393E-1],"categories":[],"categories_nodes":[],"categories_segments":[],"categories_sizes":[],"default_left":[0,0,0,0,0,0,0,0,0,0,0],"id":18,"left_children":[1,3,5,-1,7,-1,9,-1,-1,-1,-1],"loss_changes":[5.4841084E1,2.3158998E0,3.113453E0,0E0,1.7097411E0,0E0,6.764984E-2,0E0,0E0,0E0,0E0],"parents":[2147483647,0,0,1,1,2,2,4,4,6,6],"right_children":[2,4,6,-1,8,-1,10,-1,-1,-1,-1],"split_conditions":[1E0,1E0,1E0,-5.681103E-2,1E0,1.41831655E-2,1E0,-4.802195E-2,9.03003E-2,1.10767975E-1,2.0126393E-1],"split_indices":[61,60,65,0,78,0,79,0,0,0,0],"split_type":[0,0,0,0,0,0,0,0,0,0,0],"sum_hessian":[5.7918377E1,4.462496E1,1.3293412E1,4.1301796E1,3.3231666E0,1.1752841E0,1.2118128E1,1.4503633E0,1.8728034E0,1.0193754E0,1.1098753E1],"tree_param":{"num_deleted":"0","num_feature":"120","num_nodes":"11","size_leaf_vector":"1"}},{"base_weights":[4.4047546E-2,-2.4610256E-1,1.45466E0,-4.8282954E-1,3.5702232E-1,1.8363729E0,-4.8106574E-2,-5.3579783E-1,1.4827762E-2,9.5363504E-1,-5.431391E-2,1.9296604E0,1.01411276E-1,-5.667009E-2,1.3303555E-2,-5.0268788E-2,1.0123668E-1,1.4018642E0,-4.9800485E-2,1.1298635E-1,2.0238481E-1,1.8210887E0,-4.44239E-2,1.2462784E-1,2.1063672E-1],"categories":[],"categories_nodes":[],"categories_segments":[],"categories_sizes":[],"default_left":[0,0,0,0,0,0,0,0,0,0,0,0,0,0,0,0,0,0,0,0,0,0,0,0,0],"id":19,"left_children":[1,3,5,7,9,11,-1,13,15,17,-1,19,-1,-1,-1,-1,-1,21,-1,-1,-1,23,-1,-1,-1],"loss_changes":[2.3951065E1,6.9179935E0,7.606325E0,9.704237E-1,7.3628736E0,1.5499496E-1,0E0,7.049465E-1,1.7869089E0,5.5244813E0,0E0,8.3351135E-3,0E0,0E0,0E0,0E0,0E0,5.154786E0,0E0,0E0,0E0,2.6500893E-1,0E0,0E0,0E0],"parents":[2147483647,0,0,1,1,2,2,3,3,4,4,5,5,7,7,8,8,9,9,11,11,17,17,21,21],"right_children":[2,4,6,8,10,12,-1,14,16,18,-1,20,-1,-1,-1,-1,-1,22,-1,-1,-1,24,-1,-1,-1],"split_conditions":[1E0,1E0,1E0,1E0,1E0,1E0,-4.8106574E-2,1E0,1E0,1E0,-5.431391E-2,1E0,1.01411276E-1,-5.667009E-2,1.3303555E-2,-5.0268788E-2,1.0123668E-1,1E0,-4.9800485E-2,1.1298635E-1,2.0238481E-1,1E0,-4.44239E-2,1.2462784E-1,2.1063672E-1],"split_indices":[87,118,100,92,101,57,0,106,88,15,0,90,0,0,0,0,0,13,0,0,0,88,0,0,0],"split_type":[0,0,0,0,0,0,0,0,0,0,0,0,0,0,0,0,0,0,0,0,0,0,0,0,0],"sum_hessian":[5.803591E1,4.8144657E1,9.891254E0,3.4707634E1,1.3437024E1,8.309472E0,1.5817822E0,3.1543562E1,3.1640706E0,8.144277E0,5.292747E0,7.232618E0,1.0768538E0,3.0307983E1,1.2355778E0,2.0499387E0,1.1141319E0,6.2780824E0,1.8661941E0,1.0107874E0,6.221831E0,5.1615005E0,1.1165823E0,2.0063286E0,3.1551716E0],"tree_param":{"num_deleted":"0","num_feature":"120","num_nodes":"25","size_leaf_vector":"1"}},{"base_weights":[-7.5066485E-2,-5.454757E-1,1.3763267E0,-5.6766152E-2,-3.200106E-1,-5.007837E-2,1.683853E0,-5.2687336E-2,1.3469714E-2,8.328103E-2,1.8316734E0,1.970284E-1,1.0223559E-1],"categories":[],"categories_nodes":[],"categories_segments":[],"categories_sizes":[],"default_left":[0,0,0,0,0,0,0,0,0,0,0,0,0],"id":20,"left_children":[1,3,5,-1,7,-1,9,-1,-1,-1,11,-1,-1],"loss_changes":[3.8824505E1,1.08551025E-1,8.225609E0,0E0,4.6885875E-1,0E0,1.0919571E0,0E0,0E0,0E0,6.2667847E-1,0E0,0E0],"parents":[2147483647,0,0,1,1,2,2,4,4,6,6,10,10],"right_children":[2,4,6,-1,8,-1,10,-1,-1,-1,12,-1,-1],"split_conditions":[1E0,1E0,1E0,-5.6766152E-2,1E0,-5.007837E-2,1E0,-5.2687336E-2,1.3469714E-2,8.328103E-2,1E0,1.970284E-1,1.0223559E-1],"split_indices":[101,117,107,0,36,0,111,0,0,0,87,0,0],"split_type":[0,0,0,0,0,0,0,0,0,0,0,0,0],"sum_hessian":[5.6776726E1,4.2978374E1,1.3798352E1,3.858619E1,4.392185E0,1.8877425E0,1.1910609E1,3.1590648E0,1.2331203E0,1.9609224E0,9.949687E0,8.266828E0,1.6828592E0],"tree_param":{"num_deleted":"0","num_feature":"120","num_nodes":"13","size_leaf_vector":"1"}},{"base_weights":[2.4365422E-3,2.0601115E-1,-4.041456E-1,3.5520908E-1,-5.4116298E-2,-5.00233E-1,3.7896074E-2,5.404235E-1,-5.3738184E-2,-3.3913133E-1,-5.5369228E-2,9.021582E-1,-6.992128E-2,-5.2703638E-2,6.8383254E-3,1.1611379E0,-9.323829E-3,-2.1824788E-1,7.9216085E-2,1.5130496E0,4.5565644E-1,-5.187107E-2,1.0353559E-1,-4.1320142E-1,5.19678E-2,1.790401E-1,8.135162E-2,-1.0905009E-2,1.0612773E-1,-4.699571E-3,-5.4651428E-2],"categories":[],"categories_nodes":[],"categories_segments":[],"categories_sizes":[],"default_left":[0,0,0,0,0,0,0,0,0,0,0,0,0,0,0,0,0,0,0,0,0,0,0,0,0,0,0,0,0,0,0],"id":21,"left_children":[1,3,5,7,-1,9,-1,11,-1,13,-1,15,17,-1,-1,19,21,23,-1,25,27,-1,-1,29,-1,-1,-1,-1,-1,-1,-1],"loss_changes":[4.704677E0,4.2588935E0,1.4517875E0,5.3216867E0,0E0,3.8126945E-2,0E0,5.974289E0,0E0,4.2876416E-1,0E0,4.0927305E0,1.226902E0,0E0,0E0,3.012413E0,1.9928243E0,1.2525448E0,0E0,1.2765083E0,1.6910129E0,0E0,0E0,2.7935553E-1,0E0,0E0,0E0,0E0,0E0,0E0,0E0],"parents":[2147483647,0,0,1,1,2,2,3,3,5,5,7,7,9,9,11,11,12,12,15,15,16,16,17,17,19,19,20,20,23,23],"right_children":[2,4,6,8,-1,10,-1,12,-1,14,-1,16,18,-1,-1,20,22,24,-1,26,28,-1,-1,30,-1,-1,-1,-1,-1,-1,-1],"split_conditions":[1E0,1E0,1E0,1E0,-5.4116298E-2,1E0,3.7896074E-2,1E0,-5.3738184E-2,1E0,-5.5369228E-2,1E0,1E0,-5.2703638E-2,6.8383254E-3,1E0,1E0,1E0,7.9216085E-2,1E0,1E0,-5.187107E-2,1.0353559E-1,1E0,5.19678E-2,1.790401E-1,8.135162E-2,-1.0905009E-2,1.0612773E-1,-4.699571E-3,-5.4651428E-2],"split_indices":[32,40,105,61,0,29,0,86,0,84,0,111,73,0,0,8,23,9,0,82,85,0,0,82,0,0,0,0,0,0,0],"split_type":[0,0,0,0,0,0,0,0,0,0,0,0,0,0,0,0,0,0,0,0,0,0,0,0,0,0,0,0,0,0,0],"sum_hessian":[5.687929E1,3.809867E1,1.878062E1,3.191257E1,6.186099E0,1.6873995E1,1.9066257E0,2.655404E1,5.35853E0,4.85331E0,1.2020685E1,1.6745481E1,9.808559E0,3.4695573E0,1.3837527E0,1.3104435E1,3.6410472E0,8.531366E0,1.277193E0,8.572195E0,4.53224E0,2.5457888E0,1.0952585E0,6.890482E0,1.6408846E0,5.924393E0,2.6478016E0,2.3023267E0,2.2299132E0,2.0752397E0,4.8152423E0],"tree_param":{"num_deleted":"0","num_feature":"120","num_nodes":"31","size_leaf_vector":"1"}},{"base_weights":[-1.4520094E-1,-4.3826243E-1,1.4087269E0,-5.3998893E-1,4.6363032E-1,1.0913919E0,1.789286E-1,-5.635264E-2,-3.8473648E-1,1.9072987E-1,-5.1819336E-2,7.4868757E-1,1.6911349E-1,-5.3652193E-2,2.4058035E-2,1.2196523E-1,6.374469E-4],"categories":[],"categories_nodes":[],"categories_segments":[],"categories_sizes":[],"default_left":[0,0,0,0,0,0,0,0,0,0,0,0,0,0,0,0,0],"id":22,"left_children":[1,3,5,7,9,11,-1,-1,13,-1,-1,15,-1,-1,-1,-1,-1],"loss_changes":[2.4813646E1,4.2564955E0,5.58548E-1,3.520775E-2,6.7870626E0,6.7849636E-1,0E0,0E0,6.442789E-1,0E0,0E0,1.112014E0,0E0,0E0,0E0,0E0,0E0],"parents":[2147483647,0,0,1,1,2,2,3,3,4,4,5,5,8,8,11,11],"right_children":[2,4,6,8,10,12,-1,-1,14,-1,-1,16,-1,-1,-1,-1,-1],"split_conditions":[1E0,1E0,1E0,1E0,1E0,1E0,1.789286E-1,-5.635264E-2,1E0,1.9072987E-1,-5.1819336E-2,1E0,1.6911349E-1,-5.3652193E-2,2.4058035E-2,1.2196523E-1,6.374469E-4],"split_indices":[10,0,39,58,74,79,0,0,97,0,0,85,0,0,0,0,0],"split_type":[0,0,0,0,0,0,0,0,0,0,0,0,0,0,0,0,0],"sum_hessian":[5.4465546E1,4.5938053E1,8.527493E0,4.141749E1,4.5205646E0,5.004211E0,3.5232818E0,3.517725E1,6.240236E0,1.8329682E0,2.6875966E0,3.4337022E0,1.5705085E0,5.1614885E0,1.0787476E0,1.979059E0,1.4546432E0],"tree_param":{"num_deleted":"0","num_feature":"120","num_nodes":"17","size_leaf_vector":"1"}},{"base_weights":[1.8773967E-1,-4.9555132E-1,8.3892053E-1,-5.5931825E-2,-2.9041907E-1,1.150396E0,-5.3898323E-2,8.339965E-2,-5.3473122E-2,1.4080099E0,-2.760264E-1,9.786505E-2,-4.9110044E-2,9.21078E-1,1.5952219E0,1.5535778E-2,-5.1162817E-2,-4.694924E-2,1.2904714E0,1.6646324E-1,7.3818706E-2,1.0743647E-2,1.6277183E0,9.681706E-2,1.816569E-1],"categories":[],"categories_nodes":[],"categories_segments":[],"categories_sizes":[],"default_left":[0,0,0,0,0,0,0,0,0,0,0,0,0,0,0,0,0,0,0,0,0,0,0,0,0],"id":23,"left_children":[1,3,5,-1,7,9,-1,11,-1,13,15,-1,-1,17,19,-1,-1,-1,21,-1,-1,-1,23,-1,-1],"loss_changes":[2.6751764E1,2.8130198E-1,1.3346222E1,0E0,7.35892E-1,9.419739E0,0E0,1.5856935E0,0E0,1.5557289E0,4.381532E-1,0E0,0E0,3.3985229E0,5.4102325E-1,0E0,0E0,0E0,1.8404007E0,0E0,0E0,0E0,3.0078888E-2,0E0,0E0],"parents":[2147483647,0,0,1,1,2,2,4,4,5,5,7,7,9,9,10,10,13,13,14,14,18,18,22,22],"right_children":[2,4,6,-1,8,10,-1,12,-1,14,16,-1,-1,18,20,-1,-1,-1,22,-1,-1,-1,24,-1,-1],"split_conditions":[1E0,1E0,1E0,-5.5931825E-2,1E0,1E0,-5.3898323E-2,1E0,-5.3473122E-2,1E0,1E0,9.786505E-2,-4.9110044E-2,1E0,1E0,1.5535778E-2,-5.1162817E-2,-4.694924E-2,1E0,1.6646324E-1,7.3818706E-2,1.0743647E-2,1E0,9.681706E-2,1.816569E-1],"split_indices":[20,32,3,0,80,111,0,3,0,32,94,0,0,36,92,0,0,0,82,0,0,0,22,0,0],"split_type":[0,0,0,0,0,0,0,0,0,0,0,0,0,0,0,0,0,0,0,0,0,0,0,0,0],"sum_hessian":[5.9853012E1,2.9143139E1,3.0709871E1,2.1728514E1,7.4146256E0,2.5120468E1,5.5894027E0,2.794836E0,4.6197896E0,2.1338163E1,3.782306E0,1.1329937E0,1.6618423E0,6.238415E0,1.5099748E1,1.1981397E0,2.5841663E0,1.2468549E0,4.99156E0,1.3773346E1,1.3264024E0,1.2023139E0,3.7892458E0,1.0977197E0,2.6915262E0],"tree_param":{"num_deleted":"0","num_feature":"120","num_nodes":"25","size_leaf_vector":"1"}},{"base_weights":[-6.131878E-2,-5.6310154E-2,1.6306975E-1],"categories":[],"categories_nodes":[],"categories_segments":[],"categories_sizes":[],"default_left":[0,0,0],"id":24,"left_children":[1,-1,-1],"loss_changes":[4.744494E1,0E0,0E0],"parents":[2147483647,0,0],"right_children":[2,-1,-1],"split_conditions":[1E0,-5.6310154E-2,1.6306975E-1],"split_indices":[40,0,0],"split_type":[0,0,0],"sum_hessian":[5.5799297E1,4.313349E1,1.2665807E1],"tree_param":{"num_deleted":"0","num_feature":"120","num_nodes":"3","size_leaf_vector":"1"}},{"base_weights":[2.509154E-2,-4.9485415E-1,1.5200518E0,-5.6278408E-2,2.531701E-1,1.2026638E-2,1.6345865E0,8.31727E-2,-4.7705494E-2,1.6867645E-1,8.970596E-2],"categories":[],"categories_nodes":[],"categories_segments":[],"categories_sizes":[],"default_left":[0,0,0,0,0,0,0,0,0,0,0],"id":25,"left_children":[1,3,5,-1,7,-1,9,-1,-1,-1,-1],"loss_changes":[4.468858E1,2.2054071E0,2.1858292E0,0E0,1.5477612E0,0E0,1.15737915E-1,0E0,0E0,0E0,0E0],"parents":[2147483647,0,0,1,1,2,2,4,4,6,6],"right_children":[2,4,6,-1,8,-1,10,-1,-1,-1,-1],"split_conditions":[1E0,1E0,1E0,-5.6278408E-2,1E0,1.2026638E-2,1E0,8.31727E-2,-4.7705494E-2,1.6867645E-1,8.970596E-2],"split_indices":[61,60,60,0,113,0,81,0,0,0,0],"split_type":[0,0,0,0,0,0,0,0,0,0,0],"sum_hessian":[5.7163532E1,4.241251E1,1.4751022E1,3.9026836E1,3.3856738E0,1.1972255E0,1.3553797E1,1.9576628E0,1.428011E0,1.2411428E1,1.1423683E0],"tree_param":{"num_deleted":"0","num_feature":"120","num_nodes":"11","size_leaf_vector":"1"}},{"base_weights":[4.1724984E-2,-2.371204E-1,1.2488445E0,-4.741514E-1,3.3032012E-1,1.5464357E0,-4.7485497E-2,-5.2891916E-1,1.5263318E-2,8.454385E-1,-5.3635385E-2,1.6693716E-1,1.0556467E0,-5.61318E-2,1.3496793E-2,9.116037E-2,-4.9578827E-2,1.2069256E0,-4.886542E-2,1.7114302E-2,1.7236726E-1,1.5257604E0,-4.3273933E-2,8.4777236E-2,1.6571099E-1],"categories":[],"categories_nodes":[],"categories_segments":[],"categories_sizes":[],"default_left":[0,0,0,0,0,0,0,0,0,0,0,0,0,0,0,0,0,0,0,0,0,0,0,0,0],"id":26,"left_children":[1,3,5,7,9,11,-1,13,15,17,-1,-1,19,-1,-1,-1,-1,21,-1,-1,-1,23,-1,-1,-1],"loss_changes":[1.9486437E1,6.315215E0,5.758463E0,9.400978E-1,6.193867E0,1.151638E-1,0E0,6.95035E-1,1.5743115E0,4.3292966E0,0E0,0E0,1.1441855E0,0E0,0E0,0E0,0E0,3.8022137E0,0E0,0E0,0E0,1.3278484E-1,0E0,0E0,0E0],"parents":[2147483647,0,0,1,1,2,2,3,3,4,4,5,5,7,7,8,8,9,9,12,12,17,17,21,21],"right_children":[2,4,6,8,10,12,-1,14,16,18,-1,-1,20,-1,-1,-1,-1,22,-1,-1,-1,24,-1,-1,-1],"split_conditions":[1E0,1E0,1E0,1E0,1E0,1E0,-4.7485497E-2,1E0,1E0,1E0,-5.3635385E-2,1.6693716E-1,1E0,-5.61318E-2,1.3496793E-2,9.116037E-2,-4.9578827E-2,1E0,-4.886542E-2,1.7114302E-2,1.7236726E-1,1E0,-4.3273933E-2,8.4777236E-2,1.6571099E-1],"split_indices":[87,118,100,92,101,36,0,106,16,15,0,0,92,0,0,0,0,13,0,0,0,86,0,0,0],"split_type":[0,0,0,0,0,0,0,0,0,0,0,0,0,0,0,0,0,0,0,0,0,0,0,0,0],"sum_hessian":[5.7403473E1,4.6629536E1,1.0773937E1,3.3026424E1,1.3603112E1,9.245953E0,1.5279851E0,2.9879072E1,3.14735E0,8.605915E0,4.9971976E0,7.0389085E0,2.2070441E0,2.8647121E1,1.2319508E0,1.1854572E0,1.9618927E0,6.837663E0,1.7682515E0,1.0681148E0,1.1389294E0,5.781399E0,1.0562648E0,1.1828135E0,4.598585E0],"tree_param":{"num_deleted":"0","num_feature":"120","num_nodes":"25","size_leaf_vector":"1"}},{"base_weights":[-7.136114E-2,-5.390163E-1,1.1849061E0,-5.6223642E-2,-3.0871266E-1,-4.937067E-2,1.4246699E0,-5.203056E-2,1.3251103E-2,8.698614E-1,1.582085E0,1.1740619E-1,1.7882878E-2,1.717218E-1,1.2018807E0,5.90205E-2,1.6364463E-1],"categories":[],"categories_nodes":[],"categories_segments":[],"categories_sizes":[],"default_left":[0,0,0,0,0,0,0,0,0,0,0,0,0,0,0,0,0],"id":27,"left_children":[1,3,5,-1,7,-1,9,-1,-1,11,13,-1,-1,-1,15,-1,-1],"loss_changes":[3.276494E1,1.1356735E-1,6.2417736E0,0E0,4.5180842E-1,0E0,7.7812386E-1,0E0,0E0,5.3752565E-1,2.0227432E-2,0E0,0E0,0E0,5.2436495E-1,0E0,0E0],"parents":[2147483647,0,0,1,1,2,2,4,4,6,6,9,9,10,10,14,14],"right_children":[2,4,6,-1,8,-1,10,-1,-1,12,14,-1,-1,-1,16,-1,-1],"split_conditions":[1E0,1E0,1E0,-5.6223642E-2,1E0,-4.937067E-2,1E0,-5.203056E-2,1.3251103E-2,1E0,1E0,1.1740619E-1,1.7882878E-2,1.717218E-1,1E0,5.90205E-2,1.6364463E-1],"split_indices":[101,117,107,0,36,0,103,0,0,23,89,0,0,0,37,0,0],"split_type":[0,0,0,0,0,0,0,0,0,0,0,0,0,0,0,0,0],"sum_hessian":[5.5671352E1,4.066878E1,1.5002571E1,3.6418575E1,4.2502055E0,1.8096962E0,1.3192875E1,3.0136843E0,1.2365212E0,3.2005196E0,9.992355E0,2.0732436E0,1.1272761E0,6.918646E0,3.07371E0,1.4702208E0,1.603489E0],"tree_param":{"num_deleted":"0","num_feature":"120","num_nodes":"17","size_leaf_vector":"1"}},{"base_weights":[3.91576E-3,1.9490659E-1,-3.9371747E-1,3.307614E-1,-5.345857E-2,-4.9235824E-1,3.466803E-2,4.953939E-1,-5.307029E-2,-3.2843393E-1,-5.4805525E-2,8.0682063E-1,-6.298663E-2,-5.2134257E-2,7.487684E-3,1.0243343E0,-8.392308E-3,1.6587034E-1,-5.2746214E-2,1.3115277E0,4.162434E-1,-5.143174E-2,9.4884746E-2,5.4819435E-1,-5.056082E-2,1.5339227E-1,7.263002E-2,7.649154E-2,-4.6593394E-2,-7.1163103E-3,1.23232774E-1],"categories":[],"categories_nodes":[],"categories_segments":[],"categories_sizes":[],"default_left":[0,0,0,0,0,0,0,0,0,0,0,0,0,0,0,0,0,0,0,0,0,0,0,0,0,0,0,0,0,0,0],"id":28,"left_children":[1,3,5,7,-1,9,-1,11,-1,13,-1,15,17,-1,-1,19,21,23,-1,25,27,-1,-1,29,-1,-1,-1,-1,-1,-1,-1],"loss_changes":[4.251041E0,3.7790174E0,1.3519232E0,4.6101336E0,0E0,4.1464806E-2,0E0,4.8276286E0,0E0,4.213171E-1,0E0,3.2322903E0,1.0817477E0,0E0,0E0,2.222968E0,1.8069024E0,1.692006E0,0E0,8.823185E-1,1.5293795E0,0E0,0E0,1.9312772E0,0E0,0E0,0E0,0E0,0E0,0E0,0E0],"parents":[2147483647,0,0,1,1,2,2,3,3,5,5,7,7,9,9,11,11,12,12,15,15,16,16,17,17,19,19,20,20,23,23],"right_children":[2,4,6,8,-1,10,-1,12,-1,14,-1,16,18,-1,-1,20,22,24,-1,26,28,-1,-1,30,-1,-1,-1,-1,-1,-1,-1],"split_conditions":[1E0,1E0,1E0,1E0,-5.345857E-2,1E0,3.466803E-2,1E0,-5.307029E-2,1E0,-5.4805525E-2,1E0,1E0,-5.2134257E-2,7.487684E-3,1E0,1E0,1E0,-5.2746214E-2,1E0,1E0,-5.143174E-2,9.4884746E-2,1E0,-5.056082E-2,1.5339227E-1,7.263002E-2,7.649154E-2,-4.6593394E-2,-7.1163103E-3,1.23232774E-1],"split_indices":[32,40,105,61,0,29,0,86,0,119,0,111,108,0,0,8,34,35,0,82,95,0,0,31,0,0,0,0,0,0,0],"split_type":[0,0,0,0,0,0,0,0,0,0,0,0,0,0,0,0,0,0,0,0,0,0,0,0,0,0,0,0,0,0,0],"sum_hessian":[5.603652E1,3.8058678E1,1.7977839E1,3.2245308E1,5.813369E0,1.6013037E1,1.9648015E0,2.7204832E1,5.040478E0,4.6912165E0,1.132182E1,1.755079E1,9.654041E0,3.3212857E0,1.369931E0,1.3930811E1,3.6199787E0,6.3662477E0,3.2877939E0,9.271752E0,4.6590586E0,2.466899E0,1.1530797E0,4.1631393E0,2.203108E0,6.4773035E0,2.7944493E0,3.4300234E0,1.2290351E0,2.15532E0,2.0078197E0],"tree_param":{"num_deleted":"0","num_feature":"120","num_nodes":"31","size_leaf_vector":"1"}},{"base_weights":[-1.3859837E-1,-4.297825E-1,1.2301753E0,-5.337629E-1,4.2827004E-1,2.0235045E-2,1.3441992E0,-5.5797275E-2,-3.68683E-1,1.6107681E-1,-5.1019996E-2,2.1072807E-2,1.484559E-1,1.7981637E-2,-5.3009477E-2],"categories":[],"categories_nodes":[],"categories_segments":[],"categories_sizes":[],"default_left":[0,0,0,0,0,0,0,0,0,0,0,0,0,0,0],"id":29,"left_children":[1,3,5,7,9,-1,11,-1,13,-1,-1,-1,-1,-1,-1],"loss_changes":[2.1096943E1,3.9446268E0,9.037132E-1,4.3618202E-2,5.3965583E0,0E0,1.1089315E0,0E0,5.618486E-1,0E0,0E0,0E0,0E0,0E0,0E0],"parents":[2147483647,0,0,1,1,2,2,3,3,4,4,6,6,8,8],"right_children":[2,4,6,8,10,-1,12,-1,14,-1,-1,-1,-1,-1,-1],"split_conditions":[1E0,1E0,1E0,1E0,1E0,2.0235045E-2,1E0,-5.5797275E-2,1E0,1.6107681E-1,-5.1019996E-2,2.1072807E-2,1.484559E-1,1.7981637E-2,-5.3009477E-2],"split_indices":[10,0,14,105,74,0,5,0,83,0,0,0,0,0,0],"split_type":[0,0,0,0,0,0,0,0,0,0,0,0,0,0,0],"sum_hessian":[5.29004E1,4.3737602E1,9.162798E0,3.9147923E1,4.5896792E0,1.0302726E0,8.132525E0,3.340511E1,5.742811E0,2.0462575E0,2.543422E0,1.0021652E0,7.1303606E0,1.1622815E0,4.5805297E0],"tree_param":{"num_deleted":"0","num_feature":"120","num_nodes":"15","size_leaf_vector":"1"}},{"base_weights":[1.758221E-1,-4.8819897E-1,7.578022E-1,-5.5409003E-2,-2.821066E-1,1.019436E0,-5.3260237E-2,7.48155E-2,-5.290693E-2,1.2299163E0,-2.6410884E-1,1.1369772E-1,-4.9265936E-2,1.28341E0,1.3926019E-2,1.5552342E-2,-5.0489616E-2,8.6552393E-1,1.3775461E0,3.253256E-2,1.2142444E-1,1.0615834E0,1.451716E-1,9.958459E-3,1.4475967E-1],"categories":[],"categories_nodes":[],"categories_segments":[],"categories_sizes":[],"default_left":[0,0,0,0,0,0,0,0,0,0,0,0,0,0,0,0,0,0,0,0,0,0,0,0,0],"id":30,"left_children":[1,3,5,-1,7,9,-1,11,-1,13,15,-1,-1,17,-1,-1,-1,19,21,-1,-1,23,-1,-1,-1],"loss_changes":[2.3070576E1,2.7809334E-1,1.0854696E1,0E0,6.9313633E-1,7.3090057E0,0E0,1.8736746E0,0E0,1.1769066E0,4.2266032E-1,0E0,0E0,5.119133E-1,0E0,0E0,0E0,6.471541E-1,1.9416809E-3,0E0,0E0,1.2914772E0,0E0,0E0,0E0],"parents":[2147483647,0,0,1,1,2,2,4,4,5,5,7,7,9,9,10,10,13,13,17,17,18,18,21,21],"right_children":[2,4,6,-1,8,10,-1,12,-1,14,16,-1,-1,18,-1,-1,-1,20,22,-1,-1,24,-1,-1,-1],"split_conditions":[1E0,1E0,1E0,-5.5409003E-2,1E0,1E0,-5.3260237E-2,1E0,-5.290693E-2,1E0,1E0,1.1369772E-1,-4.9265936E-2,1E0,1.3926019E-2,1.5552342E-2,-5.0489616E-2,1E0,1E0,3.253256E-2,1.2142444E-1,1E0,1.451716E-1,9.958459E-3,1.4475967E-1],"split_indices":[20,32,3,0,80,111,0,16,0,117,88,0,0,28,0,0,0,31,81,0,0,99,0,0,0],"split_type":[0,0,0,0,0,0,0,0,0,0,0,0,0,0,0,0,0,0,0,0,0,0,0,0,0],"sum_hessian":[5.9433693E1,2.7687458E1,3.1746235E1,2.0484241E1,7.2032175E0,2.6476526E1,5.2697086E0,2.8087158E0,4.3945017E0,2.2816998E1,3.6595275E0,1.0044727E0,1.8042432E0,2.1645964E1,1.1710345E0,1.1957463E0,2.4637814E0,4.362374E0,1.728359E1,1.8996712E0,2.4627025E0,3.8333063E0,1.3450284E1,1.2079024E0,2.625404E0],"tree_param":{"num_deleted":"0","num_feature":"120","num_nodes":"25","size_leaf_vector":"1"}},{"base_weights":[-6.0251E-2,-5.581517E-2,1.4094864E-1],"categories":[],"categories_nodes":[],"categories_segments":[],"categories_sizes":[],"default_left":[0,0,0],"id":31,"left_children":[1,-1,-1],"loss_changes":[3.984053E1,0E0,0E0],"parents":[2147483647,0,0],"right_children":[2,-1,-1],"split_conditions":[1E0,-5.581517E-2,1.4094864E-1],"split_indices":[40,0,0],"split_type":[0,0,0],"sum_hessian":[5.43519E1,4.069558E1,1.3656318E1],"tree_param":{"num_deleted":"0","num_feature":"120","num_nodes":"3","size_leaf_vector":"1"}},{"base_weights":[2.3069313E-2,-4.8716247E-1,1.3184712E0,-5.5773523E-2,2.3202221E-1,9.644192E-3,1.4130453E0,7.6897524E-2,-4.7608744E-2,8.00103E-2,1.4536577E-1],"categories":[],"categories_nodes":[],"categories_segments":[],"categories_sizes":[],"default_left":[0,0,0,0,0,0,0,0,0,0,0],"id":32,"left_children":[1,3,5,-1,7,-1,9,-1,-1,-1,-1],"loss_changes":[3.7301163E1,2.0932446E0,1.6807308E0,0E0,1.4154116E0,0E0,2.5154114E-2,0E0,0E0,0E0,0E0],"parents":[2147483647,0,0,1,1,2,2,4,4,6,6],"right_children":[2,4,6,-1,8,-1,10,-1,-1,-1,-1],"split_conditions":[1E0,1E0,1E0,-5.5773523E-2,1E0,9.644192E-3,1E0,7.6897524E-2,-4.7608744E-2,8.00103E-2,1.4536577E-1],"split_indices":[61,60,65,0,95,0,69,0,0,0,0],"split_type":[0,0,0,0,0,0,0,0,0,0,0],"sum_hessian":[5.6112278E1,4.0245583E1,1.5866698E1,3.67963E1,3.4492805E0,1.230196E0,1.4636502E1,2.0371523E0,1.4121281E0,1.1911716E0,1.3445331E1],"tree_param":{"num_deleted":"0","num_feature":"120","num_nodes":"11","size_leaf_vector":"1"}},{"base_weights":[3.9455697E-2,-2.2886665E-1,1.0979346E0,-4.6549657E-1,3.0501738E-1,1.3420957E0,-4.6860628E-2,-5.221711E-1,1.701132E-2,7.555423E-1,-5.2991748E-2,9.626276E-1,1.4657484E-1,-5.5614945E-2,1.2811649E-2,-4.9842384E-2,1.13284126E-1,1.0570829E0,-4.8055086E-2,1.4206319E-1,1.1101666E-2,1.3119919E0,-4.225926E-2,8.796514E-2,1.5279822E-1],"categories":[],"categories_nodes":[],"categories_segments":[],"categories_sizes":[],"default_left":[0,0,0,0,0,0,0,0,0,0,0,0,0,0,0,0,0,0,0,0,0,0,0,0,0],"id":33,"left_children":[1,3,5,7,9,11,-1,13,15,17,-1,19,-1,-1,-1,-1,-1,21,-1,-1,-1,23,-1,-1,-1],"loss_changes":[1.6185896E1,5.735107E0,4.56341E0,9.116678E-1,5.2531233E0,8.826065E-2,0E0,6.761327E-1,1.9707296E0,3.4934626E0,0E0,9.8690057E-1,0E0,0E0,0E0,0E0,0E0,2.9343796E0,0E0,0E0,0E0,2.2171211E-1,0E0,0E0,0E0],"parents":[2147483647,0,0,1,1,2,2,3,3,4,4,5,5,7,7,8,8,9,9,11,11,17,17,21,21],"right_children":[2,4,6,8,10,12,-1,14,16,18,-1,20,-1,-1,-1,-1,-1,22,-1,-1,-1,24,-1,-1,-1],"split_conditions":[1E0,1E0,1E0,1E0,1E0,1E0,-4.6860628E-2,1E0,1E0,1E0,-5.2991748E-2,1E0,1.4657484E-1,-5.5614945E-2,1.2811649E-2,-4.9842384E-2,1.13284126E-1,1E0,-4.8055086E-2,1.4206319E-1,1.1101666E-2,1E0,-4.225926E-2,8.796514E-2,1.5279822E-1],"split_indices":[87,118,100,92,101,32,0,106,116,15,0,22,0,0,0,0,0,13,0,0,0,88,0,0,0],"split_type":[0,0,0,0,0,0,0,0,0,0,0,0,0,0,0,0,0,0,0,0,0,0,0,0,0],"sum_hessian":[5.64954E1,4.505735E1,1.1438049E1,3.13586E1,1.36987505E1,9.963326E0,1.4747225E0,2.8240547E1,3.118053E0,8.981614E0,4.717137E0,2.863368E0,7.0999584E0,2.6998117E1,1.2424312E0,2.1093795E0,1.0086733E0,7.2969346E0,1.6846794E0,1.7421708E0,1.1211972E0,6.291918E0,1.0050168E0,2.419377E0,3.872541E0],"tree_param":{"num_deleted":"0","num_feature":"120","num_nodes":"25","size_leaf_vector":"1"}},{"base_weights":[-6.7792326E-2,-5.327367E-1,1.0433614E0,-5.57125E-2,-2.9658094E-1,-4.872546E-2,1.2400503E0,-5.1385667E-2,1.3465295E-2,6.395139E-2,1.3376793E0,1.432486E-1,7.557729E-2],"categories":[],"categories_nodes":[],"categories_segments":[],"categories_sizes":[],"default_left":[0,0,0,0,0,0,0,0,0,0,0,0,0],"id":34,"left_children":[1,3,5,-1,7,-1,9,-1,-1,-1,11,-1,-1],"loss_changes":[2.8127905E1,1.1988926E-1,4.9613285E0,0E0,4.3856853E-1,0E0,5.5454826E-1,0E0,0E0,0E0,3.3806992E-1,0E0,0E0],"parents":[2147483647,0,0,1,1,2,2,4,4,6,6,10,10],"right_children":[2,4,6,-1,8,-1,10,-1,-1,-1,12,-1,-1],"split_conditions":[1E0,1E0,1E0,-5.57125E-2,1E0,-4.872546E-2,1E0,-5.1385667E-2,1.3465295E-2,6.395139E-2,1E0,1.432486E-1,7.557729E-2],"split_indices":[101,117,107,0,36,0,111,0,0,0,87,0,0],"split_type":[0,0,0,0,0,0,0,0,0,0,0,0,0],"sum_hessian":[5.4336777E1,3.840773E1,1.5929044E1,3.4305565E1,4.1021667E0,1.7391306E0,1.4189914E1,2.8692422E0,1.2329247E0,2.233082E0,1.1956832E1,1.0008228E1,1.9486035E0],"tree_param":{"num_deleted":"0","num_feature":"120","num_nodes":"13","size_leaf_vector":"1"}},{"base_weights":[5.7549044E-3,1.8601166E-1,-3.8341692E-1,3.1085667E-1,-5.28309E-2,-4.8459956E-1,3.172506E-2,4.589679E-1,-5.242295E-2,-3.168616E-1,-5.4284807E-2,7.3437464E-1,-5.828696E-2,-5.1642723E-2,9.0894215E-3,9.210703E-1,-2.9674254E-3,1.5582474E-1,-5.1993202E-2,1.0809846E0,1.1071496E-1,-5.0838646E-2,8.754756E-2,5.0359595E-1,-4.974173E-2,1.2598376E-1,5.3831812E-2,-4.784983E-2,9.3876265E-2,7.450995E-3,1.1832183E-1],"categories":[],"categories_nodes":[],"categories_segments":[],"categories_sizes":[],"default_left":[0,0,0,0,0,0,0,0,0,0,0,0,0,0,0,0,0,0,0,0,0,0,0,0,0,0,0,0,0,0,0],"id":35,"left_children":[1,3,5,7,-1,9,-1,11,-1,13,-1,15,17,-1,-1,19,21,23,-1,25,27,-1,-1,29,-1,-1,-1,-1,-1,-1,-1],"loss_changes":[3.8539984E0,3.375759E0,1.2589684E0,4.031742E0,0E0,4.6177864E-2,0E0,4.0208783E0,0E0,4.2341232E-1,0E0,2.6006203E0,9.932116E-1,0E0,0E0,1.7672653E0,1.6386641E0,1.4991139E0,0E0,9.2876816E-1,1.3735971E0,0E0,0E0,1.1433114E0,0E0,0E0,0E0,0E0,0E0,0E0,0E0],"parents":[2147483647,0,0,1,1,2,2,3,3,5,5,7,7,9,9,11,11,12,12,15,15,16,16,17,17,19,19,20,20,23,23],"right_children":[2,4,6,8,-1,10,-1,12,-1,14,-1,16,18,-1,-1,20,22,24,-1,26,28,-1,-1,30,-1,-1,-1,-1,-1,-1,-1],"split_conditions":[1E0,1E0,1E0,1E0,-5.28309E-2,1E0,3.172506E-2,1E0,-5.242295E-2,1E0,-5.4284807E-2,1E0,1E0,-5.1642723E-2,9.0894215E-3,1E0,1E0,1E0,-5.1993202E-2,1E0,1E0,-5.0838646E-2,8.754756E-2,1E0,-4.974173E-2,1.2598376E-1,5.3831812E-2,-4.784983E-2,9.3876265E-2,7.450995E-3,1.1832183E-1],"split_indices":[32,40,105,61,0,29,0,86,0,84,0,111,108,0,0,99,23,36,0,0,109,0,0,27,0,0,0,0,0,0,0],"split_type":[0,0,0,0,0,0,0,0,0,0,0,0,0,0,0,0,0,0,0,0,0,0,0,0,0,0,0,0,0,0,0],"sum_hessian":[5.5018467E1,3.7813267E1,1.7205204E1,3.2354927E1,5.4583397E0,1.5185798E1,2.019406E0,2.7620865E1,4.7340603E0,4.522664E0,1.0663134E1,1.8122885E1,9.497981E0,3.183282E0,1.3393822E0,1.4549614E1,3.57327E0,6.3858447E0,3.112136E0,1.2020674E1,2.52894E0,2.36723E0,1.20604E0,4.282128E0,2.1037169E0,8.80295E0,3.217724E0,1.4316615E0,1.0972785E0,2.783097E0,1.4990311E0],"tree_param":{"num_deleted":"0","num_feature":"120","num_nodes":"31","size_leaf_vector":"1"}},{"base_weights":[-1.3258271E-1,-4.8166406E-1,8.954427E-1,-5.2780014E-1,6.191652E-2,1.2861626E0,-2.536768E-1,-5.53994E-2,-3.566235E-1,8.69997E-1,1.396045E-1,-4.930025E-2,1.4754205E-2,-5.2313823E-2,2.6301628E-2,8.864279E-3,1.4194784E-1],"categories":[],"categories_nodes":[],"categories_segments":[],"categories_sizes":[],"default_left":[0,0,0,0,0,0,0,0,0,0,0,0,0,0,0,0,0],"id":36,"left_children":[1,3,5,7,-1,9,11,-1,13,15,-1,-1,-1,-1,-1,-1,-1],"loss_changes":[1.8422285E1,1.9766502E0,5.9609756E0,5.5306435E-2,0E0,9.840965E-2,3.597108E-1,0E0,6.28353E-1,9.0775347E-1,0E0,0E0,0E0,0E0,0E0,0E0,0E0],"parents":[2147483647,0,0,1,1,2,2,3,3,5,5,6,6,8,8,9,9],"right_children":[2,4,6,8,-1,10,12,-1,14,16,-1,-1,-1,-1,-1,-1,-1],"split_conditions":[1E0,1E0,1E0,1E0,6.191652E-2,1E0,1E0,-5.53994E-2,1E0,1E0,1.396045E-1,-4.930025E-2,1.4754205E-2,-5.2313823E-2,2.6301628E-2,8.864279E-3,1.4194784E-1],"split_indices":[0,10,72,58,0,17,10,0,97,34,0,0,0,0,0,0,0],"split_type":[0,0,0,0,0,0,0,0,0,0,0,0,0,0,0,0,0],"sum_hessian":[5.123005E1,3.835609E1,1.28739605E1,3.6950382E1,1.405707E0,9.663355E0,3.2106056E0,3.134592E1,5.6044607E0,2.394875E0,7.2684803E0,2.1528199E0,1.0577857E0,4.556861E0,1.0475994E0,1.1118965E0,1.2829785E0],"tree_param":{"num_deleted":"0","num_feature":"120","num_nodes":"17","size_leaf_vector":"1"}},{"base_weights":[1.656949E-1,-4.819232E-1,6.934244E-1,-5.5002816E-2,-2.752142E-1,9.2865634E-1,-5.274878E-2,6.49287E-2,-5.237136E-2,1.1642613E0,-3.1529945E-1,1.1102589E-1,-4.952089E-2,7.8098863E-1,1.2850676E-1,2.5073973E-2,-5.2145183E-2,-5.808051E-3,1.21465735E-1],"categories":[],"categories_nodes":[],"categories_segments":[],"categories_sizes":[],"default_left":[0,0,0,0,0,0,0,0,0,0,0,0,0,0,0,0,0,0,0],"id":37,"left_children":[1,3,5,-1,7,9,-1,11,-1,13,15,-1,-1,17,-1,-1,-1,-1,-1],"loss_changes":[2.0130552E1,2.7327442E-1,9.420964E0,0E0,6.488891E-1,8.137022E0,0E0,1.8226041E0,0E0,7.6179695E-1,5.4962814E-1,0E0,0E0,2.3006063E0,0E0,0E0,0E0,0E0,0E0],"parents":[2147483647,0,0,1,1,2,2,4,4,5,5,7,7,9,9,10,10,13,13],"right_children":[2,4,6,-1,8,10,-1,12,-1,14,16,-1,-1,18,-1,-1,-1,-1,-1],"split_conditions":[1E0,1E0,1E0,-5.5002816E-2,1E0,1E0,-5.274878E-2,1E0,-5.237136E-2,1E0,1E0,1.1102589E-1,-4.952089E-2,1E0,1.2850676E-1,2.5073973E-2,-5.2145183E-2,-5.808051E-3,1.21465735E-1],"split_indices":[21,32,3,0,80,87,0,60,0,32,90,0,0,15,0,0,0,0,0],"split_type":[0,0,0,0,0,0,0,0,0,0,0,0,0,0,0,0,0,0,0],"sum_hessian":[5.8641697E1,2.624886E1,3.2392838E1,1.9255005E1,6.9938555E0,2.7248701E1,5.1441364E0,2.813807E0,4.1800485E0,2.2982597E1,4.266104E0,1.0097412E0,1.8040658E0,5.8852305E0,1.7097366E1,1.0036483E0,3.2624557E0,1.9562545E0,3.9289758E0],"tree_param":{"num_deleted":"0","num_feature":"120","num_nodes":"19","size_leaf_vector":"1"}},{"base_weights":[-5.9734825E-2,-5.5349924E-2,1.2462803E-1],"categories":[],"categories_nodes":[],"categories_segments":[],"categories_sizes":[],"default_left":[0,0,0],"id":38,"left_children":[1,-1,-1],"loss_changes":[3.4032043E1,0E0,0E0],"parents":[2147483647,0,0],"right_children":[2,-1,-1],"split_conditions":[1E0,-5.5349924E-2,1.2462803E-1],"split_indices":[40,0,0],"split_type":[0,0,0],"sum_hessian":[5.267446E1,3.8320747E1,1.4353714E1],"tree_param":{"num_deleted":"0","num_feature":"120","num_nodes":"3","size_leaf_vector":"1"}},{"base_weights":[2.1162765E-2,-4.796202E-1,1.1691661E0,-5.530202E-2,2.1580666E-1,7.858441E-3,1.249241E0,7.012691E-1,-4.68652E-2,6.778334E-2,1.2882267E-1,1.1161486E-1,1.789081E-2],"categories":[],"categories_nodes":[],"categories_segments":[],"categories_sizes":[],"default_left":[0,0,0,0,0,0,0,0,0,0,0,0,0],"id":39,"left_children":[1,3,5,-1,7,-1,9,11,-1,-1,-1,-1,-1],"loss_changes":[3.1682423E1,1.997078E0,1.3211937E0,0E0,1.2495669E0,0E0,6.188202E-2,3.3311856E-1,0E0,0E0,0E0,0E0,0E0],"parents":[2147483647,0,0,1,1,2,2,4,4,6,6,7,7],"right_children":[2,4,6,-1,8,-1,10,12,-1,-1,-1,-1,-1],"split_conditions":[1E0,1E0,1E0,-5.530202E-2,1E0,7.858441E-3,1E0,1E0,-4.68652E-2,6.778334E-2,1.2882267E-1,1.1161486E-1,1.789081E-2],"split_indices":[61,60,60,0,6,0,74,115,0,0,0,0,0],"split_type":[0,0,0,0,0,0,0,0,0,0,0,0,0],"sum_hessian":[5.4791924E1,3.8129955E1,1.6661966E1,3.4638275E1,3.491681E0,1.2386825E0,1.5423285E1,2.126836E0,1.364845E0,1.2663465E0,1.4156938E1,1.0153184E0,1.1115177E0],"tree_param":{"num_deleted":"0","num_feature":"120","num_nodes":"13","size_leaf_vector":"1"}},{"base_weights":[3.7571482E-2,-2.211418E-1,9.829989E-1,-4.5700514E-1,2.83348E-1,1.191133E0,-4.6241533E-2,-5.15494E-1,1.6683942E-2,6.8547827E-1,-5.2396774E-2,1.2478334E-1,6.564495E-2,-5.5127252E-2,1.2910339E-2,-4.99957E-2,1.1258115E-1,9.4286346E-1,-4.7143586E-2,1.5459274E-1,1.2510731E0,-4.7781307E-2,7.225449E-2,7.0104025E-2,1.3791335E-1],"categories":[],"categories_nodes":[],"categories_segments":[],"categories_sizes":[],"default_left":[0,0,0,0,0,0,0,0,0,0,0,0,0,0,0,0,0,0,0,0,0,0,0,0,0],"id":40,"left_children":[1,3,5,7,9,11,-1,13,15,17,-1,-1,-1,-1,-1,-1,-1,19,-1,21,23,-1,-1,-1,-1],"loss_changes":[1.3652053E1,5.2072697E0,3.740265E0,8.769188E-1,4.528058E0,4.854393E-2,0E0,6.65885E-1,1.9446936E0,2.869555E0,0E0,0E0,0E0,0E0,0E0,0E0,0E0,1.7194266E0,0E0,9.1370785E-1,7.958889E-2,0E0,0E0,0E0,0E0],"parents":[2147483647,0,0,1,1,2,2,3,3,4,4,5,5,7,7,8,8,9,9,17,17,19,19,20,20],"right_children":[2,4,6,8,10,12,-1,14,16,18,-1,-1,-1,-1,-1,-1,-1,20,-1,22,24,-1,-1,-1,-1],"split_conditions":[1E0,1E0,1E0,1E0,1E0,1E0,-4.6241533E-2,1E0,1E0,1E0,-5.2396774E-2,1.2478334E-1,6.564495E-2,-5.5127252E-2,1.2910339E-2,-4.99957E-2,1.1258115E-1,1E0,-4.7143586E-2,1E0,1E0,-4.7781307E-2,7.225449E-2,7.0104025E-2,1.3791335E-1],"split_indices":[87,118,100,92,101,57,0,106,119,15,0,0,0,0,0,0,0,97,0,89,82,0,0,0,0],"split_type":[0,0,0,0,0,0,0,0,0,0,0,0,0,0,0,0,0,0,0,0,0,0,0,0,0],"sum_hessian":[5.5314663E1,4.340724E1,1.190742E1,2.9719952E1,1.3687291E1,1.0484472E1,1.4229476E0,2.663364E1,3.0863116E0,9.229141E0,4.458149E0,9.189564E0,1.2949088E0,2.5393768E1,1.2398722E0,2.0814958E0,1.0048158E0,7.6353917E0,1.5937498E0,2.2796414E0,5.3557506E0,1.0028183E0,1.2768229E0,1.2811937E0,4.074557E0],"tree_param":{"num_deleted":"0","num_feature":"120","num_nodes":"25","size_leaf_vector":"1"}},{"base_weights":[-6.487501E-2,-5.2659225E-1,9.290496E-1,-5.522845E-2,-2.842494E-1,-4.8136074E-2,1.0954045E0,-5.0750133E-2,1.37655465E-2,4.1134756E-2,1.1662589E0,9.250634E-1,1.4460294E-1,1.262741E-1,-5.349889E-2],"categories":[],"categories_nodes":[],"categories_segments":[],"categories_sizes":[],"default_left":[0,0,0,0,0,0,0,0,0,0,0,0,0,0,0],"id":41,"left_children":[1,3,5,-1,7,-1,9,-1,-1,-1,11,13,-1,-1,-1],"loss_changes":[2.4315136E1,1.266489E-1,4.0483046E0,0E0,4.262369E-1,0E0,5.257759E-1,0E0,0E0,0E0,5.3935814E-1,3.9432597E0,0E0,0E0,0E0],"parents":[2147483647,0,0,1,1,2,2,4,4,6,6,10,10,11,11],"right_children":[2,4,6,-1,8,-1,10,-1,-1,-1,12,14,-1,-1,-1],"split_conditions":[1E0,1E0,1E0,-5.522845E-2,1E0,-4.8136074E-2,1E0,-5.0750133E-2,1.37655465E-2,4.1134756E-2,1E0,1E0,1.4460294E-1,1.262741E-1,-5.349889E-2],"split_indices":[101,117,107,0,36,0,95,0,0,0,26,23,0,0,0],"split_type":[0,0,0,0,0,0,0,0,0,0,0,0,0,0,0],"sum_hessian":[5.2865387E1,3.619774E1,1.6667648E1,3.2239323E1,3.9584131E0,1.6751031E0,1.4992546E1,2.7303658E0,1.2280474E0,1.6035106E0,1.3389035E1,7.6134334E0,5.775602E0,6.249962E0,1.3634717E0],"tree_param":{"num_deleted":"0","num_feature":"120","num_nodes":"15","size_leaf_vector":"1"}},{"base_weights":[7.547721E-3,1.7750835E-1,-3.7256393E-1,2.9238594E-1,-5.220588E-2,-4.7659093E-1,2.935767E-2,4.2661053E-1,-5.1807184E-2,-3.057093E-1,-5.375538E-2,6.691642E-1,-5.012511E-2,-5.1058855E-2,9.570092E-3,8.3292484E-1,-2.907799E-3,1.5239711E-1,-5.121674E-2,1.0514632E0,3.45979E-1,-5.055352E-2,8.243531E-2,4.7789106E-1,-4.916549E-2,1.2222381E-1,5.900532E-2,6.469327E-2,-4.6924617E-2,-5.149654E-3,9.899419E-2],"categories":[],"categories_nodes":[],"categories_segments":[],"categories_sizes":[],"default_left":[0,0,0,0,0,0,0,0,0,0,0,0,0,0,0,0,0,0,0,0,0,0,0,0,0,0,0,0,0,0,0],"id":42,"left_children":[1,3,5,7,-1,9,-1,11,-1,13,-1,15,17,-1,-1,19,21,23,-1,25,27,-1,-1,29,-1,-1,-1,-1,-1,-1,-1],"loss_changes":[3.473363E0,3.0091362E0,1.1773522E0,3.5409465E0,0E0,4.987669E-2,0E0,3.3011656E0,0E0,4.13614E-1,0E0,2.1406279E0,9.2249584E-1,0E0,0E0,1.4361839E0,1.5243719E0,1.3754091E0,0E0,5.556507E-1,1.2709513E0,0E0,0E0,1.3030757E0,0E0,0E0,0E0,0E0,0E0,0E0,0E0],"parents":[2147483647,0,0,1,1,2,2,3,3,5,5,7,7,9,9,11,11,12,12,15,15,16,16,17,17,19,19,20,20,23,23],"right_children":[2,4,6,8,-1,10,-1,12,-1,14,-1,16,18,-1,-1,20,22,24,-1,26,28,-1,-1,30,-1,-1,-1,-1,-1,-1,-1],"split_conditions":[1E0,1E0,1E0,1E0,-5.220588E-2,1E0,2.935767E-2,1E0,-5.1807184E-2,1E0,-5.375538E-2,1E0,1E0,-5.1058855E-2,9.570092E-3,1E0,1E0,1E0,-5.121674E-2,1E0,1E0,-5.055352E-2,8.243531E-2,1E0,-4.916549E-2,1.2222381E-1,5.900532E-2,6.469327E-2,-4.6924617E-2,-5.149654E-3,9.899419E-2],"split_indices":[32,40,105,61,0,29,0,86,0,119,0,111,108,0,0,8,34,35,0,82,36,0,0,31,0,0,0,0,0,0,0],"split_type":[0,0,0,0,0,0,0,0,0,0,0,0,0,0,0,0,0,0,0,0,0,0,0,0,0,0,0,0,0,0,0],"sum_hessian":[5.386344E1,3.743941E1,1.642403E1,3.2331352E1,5.1080585E0,1.436008E1,2.06395E0,2.788406E1,4.4472914E0,4.36542E0,9.99466E0,1.859347E1,9.290591E0,3.0371737E0,1.3282461E0,1.5050937E1,3.5425327E0,6.355456E0,2.9351351E0,1.0166831E1,4.884105E0,2.303029E0,1.2395036E0,4.3420944E0,2.0133615E0,7.1418905E0,3.024941E0,3.6718798E0,1.2122253E0,2.0831075E0,2.258987E0],"tree_param":{"num_deleted":"0","num_feature":"120","num_nodes":"31","size_leaf_vector":"1"}},{"base_weights":[-1.2649576E-1,-4.742133E-1,8.186523E-1,-5.218677E-1,5.57657E-2,1.1547804E0,-2.4413212E-1,-5.4945696E-2,-3.436887E-1,7.9121053E-1,1.2484516E-1,-5.0005175E-2,1.1148618E-2,-5.1683117E-2,2.5426138E-2,7.653545E-3,1.2645452E-1],"categories":[],"categories_nodes":[],"categories_segments":[],"categories_sizes":[],"default_left":[0,0,0,0,0,0,0,0,0,0,0,0,0,0,0,0,0],"id":43,"left_children":[1,3,5,7,-1,9,11,-1,13,15,-1,-1,-1,-1,-1,-1,-1],"loss_changes":[1.6290625E1,1.8138723E0,4.865945E0,6.3399315E-2,0E0,4.4071198E-2,3.36003E-1,0E0,6.019153E-1,7.2829676E-1,0E0,0E0,0E0,0E0,0E0,0E0,0E0],"parents":[2147483647,0,0,1,1,2,2,3,3,5,5,6,6,8,8,9,9],"right_children":[2,4,6,8,-1,10,12,-1,14,16,-1,-1,-1,-1,-1,-1,-1],"split_conditions":[1E0,1E0,1E0,1E0,5.57657E-2,1E0,1E0,-5.4945696E-2,1E0,1E0,1.2484516E-1,-5.0005175E-2,1.1148618E-2,-5.1683117E-2,2.5426138E-2,7.653545E-3,1.2645452E-1],"split_indices":[0,10,72,58,0,17,104,0,97,34,0,0,0,0,0,0,0],"split_type":[0,0,0,0,0,0,0,0,0,0,0,0,0,0,0,0,0],"sum_hessian":[4.9455814E1,3.6268394E1,1.3187419E1,3.4807243E1,1.4611506E0,1.0083677E1,3.1037414E0,2.9473896E1,5.333346E0,2.4779885E0,7.605689E0,1.9447752E0,1.1589661E0,4.2759933E0,1.0573528E0,1.1177557E0,1.3602328E0],"tree_param":{"num_deleted":"0","num_feature":"120","num_nodes":"17","size_leaf_vector":"1"}},{"base_weights":[1.5586089E-1,-4.7447428E-1,6.382983E-1,-5.4438353E-2,-2.6766077E-1,8.359993E-1,-5.2044507E-2,5.76938E-2,-5.1819056E-2,9.9022865E-1,-2.515776E-1,9.784081E-2,-4.873864E-2,5.529612E-1,1.1506039E-1,2.28758E-2,-5.0214883E-2,-2.0538503E-1,1.0847701E-1,-4.9221117E-2,1.997816E-2],"categories":[],"categories_nodes":[],"categories_segments":[],"categories_sizes":[],"default_left":[0,0,0,0,0,0,0,0,0,0,0,0,0,0,0,0,0,0,0,0,0],"id":44,"left_children":[1,3,5,-1,7,9,-1,11,-1,13,15,-1,-1,17,-1,-1,-1,19,-1,-1,-1],"loss_changes":[1.7574417E1,2.6504946E-1,7.58496E0,0E0,6.0844266E-1,4.8148994E0,0E0,1.5531672E0,0E0,1.4999104E0,4.5901942E-1,0E0,0E0,2.931163E0,0E0,0E0,0E0,3.7491155E-1,0E0,0E0,0E0],"parents":[2147483647,0,0,1,1,2,2,4,4,5,5,7,7,9,9,10,10,13,13,17,17],"right_children":[2,4,6,-1,8,10,-1,12,-1,14,16,-1,-1,18,-1,-1,-1,20,-1,-1,-1],"split_conditions":[1E0,1E0,1E0,-5.4438353E-2,1E0,1E0,-5.2044507E-2,1E0,-5.1819056E-2,1E0,1E0,9.784081E-2,-4.873864E-2,1E0,1.1506039E-1,2.28758E-2,-5.0214883E-2,1E0,1.0847701E-1,-4.9221117E-2,1.997816E-2],"split_indices":[20,32,3,0,80,87,0,60,0,32,90,0,0,15,0,0,0,85,0,0,0],"split_type":[0,0,0,0,0,0,0,0,0,0,0,0,0,0,0,0,0,0,0,0,0],"sum_hessian":[5.753863E1,2.4856457E1,3.2682175E1,1.809354E1,6.7629166E0,2.801628E1,4.6658936E0,2.801944E0,3.9609728E0,2.4625093E1,3.391187E0,1.0806094E0,1.7213346E0,6.8947387E0,1.7730354E1,1.0287429E0,2.3624442E0,2.7898397E0,4.104899E0,1.7654021E0,1.0244375E0],"tree_param":{"num_deleted":"0","num_feature":"120","num_nodes":"21","size_leaf_vector":"1"}},{"base_weights":[-5.9164446E-2,-5.4908317E-2,1.12395726E-1],"categories":[],"categories_nodes":[],"categories_segments":[],"categories_sizes":[],"default_left":[0,0,0],"id":45,"left_children":[1,-1,-1],"loss_changes":[2.9507702E1,0E0,0E0],"parents":[2147483647,0,0],"right_children":[2,-1,-1],"split_conditions":[1E0,-5.4908317E-2,1.12395726E-1],"split_indices":[40,0,0],"split_type":[0,0,0],"sum_hessian":[5.0800224E1,3.6021996E1,1.477823E1],"tree_param":{"num_deleted":"0","num_feature":"120","num_nodes":"3","size_leaf_vector":"1"}},{"base_weights":[1.9529207E-2,-5.2262586E-1,9.630789E-1,-5.48472E-2,6.4029456E-3,-4.8996326E-2,1.1016715E0,6.208789E-1,1.1599747E-1,1.0401106E-1,1.2088901E-2],"categories":[],"categories_nodes":[],"categories_segments":[],"categories_sizes":[],"default_left":[0,0,0,0,0,0,0,0,0,0,0],"id":46,"left_children":[1,3,5,-1,-1,-1,7,9,-1,-1,-1],"loss_changes":[2.7379997E1,5.655565E-1,4.055504E0,0E0,0E0,0E0,2.532463E-1,3.6237603E-1,0E0,0E0,0E0],"parents":[2147483647,0,0,1,1,2,2,6,6,7,7],"right_children":[2,4,6,-1,-1,-1,8,10,-1,-1,-1],"split_conditions":[1E0,1E0,1E0,-5.48472E-2,6.4029456E-3,-4.8996326E-2,1E0,1E0,1.1599747E-1,1.0401106E-1,1.2088901E-2],"split_indices":[60,61,62,0,0,0,61,5,0,0,0],"split_type":[0,0,0,0,0,0,0,0,0,0,0],"sum_hessian":[5.3239082E1,3.37724E1,1.9466684E1,3.251678E1,1.2556179E0,1.6101689E0,1.7856516E1,2.2426646E0,1.5613852E1,1.0523006E0,1.190364E0],"tree_param":{"num_deleted":"0","num_feature":"120","num_nodes":"11","size_leaf_vector":"1"}},{"base_weights":[3.5953674E-2,-5.4730874E-2,4.2074442E-1,7.46769E-1,-3.6073852E-1,-5.91154E-3,1.0408344E0,-5.364979E-2,9.138166E-2,-5.117754E-2,5.2840614E-1,1.1851913E0,4.0550858E-1,8.38066E-2,-4.506592E-2,-0E0,9.8795764E-2,8.495289E-1,1.2616372E-1,-5.0929457E-2,9.325545E-2,1.5938096E-2,1.150566E-1],"categories":[],"categories_nodes":[],"categories_segments":[],"categories_sizes":[],"default_left":[0,0,0,0,0,0,0,0,0,0,0,0,0,0,0,0,0,0,0,0,0,0,0],"id":47,"left_children":[1,-1,3,5,7,9,11,-1,13,-1,15,17,19,-1,-1,-1,-1,21,-1,-1,-1,-1,-1],"loss_changes":[1.2143522E1,0E0,8.405149E0,5.24345E0,8.132851E-1,1.7895811E0,1.3329678E0,0E0,1.1357092E0,0E0,7.718476E-1,2.819252E-2,1.7239788E0,0E0,0E0,0E0,0E0,4.8508763E-1,0E0,0E0,0E0,0E0,0E0],"parents":[2147483647,0,0,2,2,3,3,4,4,5,5,6,6,8,8,10,10,11,11,12,12,17,17],"right_children":[2,-1,4,6,8,10,12,-1,14,-1,16,18,20,-1,-1,-1,-1,22,-1,-1,-1,-1,-1],"split_conditions":[1E0,-5.4730874E-2,1E0,1E0,1E0,1E0,1E0,-5.364979E-2,1E0,-5.117754E-2,1E0,1E0,1E0,8.38066E-2,-4.506592E-2,-0E0,9.8795764E-2,1E0,1.2616372E-1,-5.0929457E-2,9.325545E-2,1.5938096E-2,1.150566E-1],"split_indices":[80,0,107,82,18,118,33,0,3,0,88,99,90,0,0,0,0,85,0,0,0,0,0],"split_type":[0,0,0,0,0,0,0,0,0,0,0,0,0,0,0,0,0,0,0,0,0,0,0],"sum_hessian":[5.396112E1,2.1328876E1,3.2632244E1,2.3119492E1,9.512751E0,6.4270215E0,1.669247E1,6.9957185E0,2.5170317E0,3.3997195E0,3.0273018E0,1.3403109E1,3.2893624E0,1.1132951E0,1.4037366E0,1.4419233E0,1.5853786E0,2.9536178E0,1.0449491E1,1.134252E0,2.1551104E0,1.0443966E0,1.9092212E0],"tree_param":{"num_deleted":"0","num_feature":"120","num_nodes":"23","size_leaf_vector":"1"}},{"base_weights":[-6.2271032E-2,-5.206396E-1,8.40476E-1,-5.4776456E-2,-2.7119297E-1,-4.7441553E-2,9.8446554E-1,1.3700421E-2,-5.058995E-2,3.663456E-2,1.0470512E0,8.3732426E-1,1.2828916E-1,1.13291E-1,-5.243057E-2],"categories":[],"categories_nodes":[],"categories_segments":[],"categories_sizes":[],"default_left":[0,0,0,0,0,0,0,0,0,0,0,0,0,0,0],"id":48,"left_children":[1,3,5,-1,7,-1,9,-1,-1,-1,11,13,-1,-1,-1],"loss_changes":[2.125044E1,1.345005E-1,3.363597E0,0E0,4.1857728E-1,0E0,4.256611E-1,0E0,0E0,0E0,3.7345982E-1,3.3108006E0,0E0,0E0,0E0],"parents":[2147483647,0,0,1,1,2,2,4,4,6,6,10,10,11,11],"right_children":[2,4,6,-1,8,-1,10,-1,-1,-1,12,14,-1,-1,-1],"split_conditions":[1E0,1E0,1E0,-5.4776456E-2,1E0,-4.7441553E-2,1E0,1.3700421E-2,-5.058995E-2,3.663456E-2,1E0,1E0,1.2828916E-1,1.13291E-1,-5.243057E-2],"split_indices":[101,117,107,0,98,0,95,0,0,0,26,23,0,0,0],"split_type":[0,0,0,0,0,0,0,0,0,0,0,0,0,0,0],"sum_hessian":[5.1227055E1,3.4077404E1,1.7149654E1,3.0265804E1,3.8115983E0,1.6014524E0,1.5548202E1,1.2511629E0,2.5604353E0,1.6394567E0,1.3908745E1,7.8272367E0,6.081508E0,6.5052924E0,1.3219445E0],"tree_param":{"num_deleted":"0","num_feature":"120","num_nodes":"15","size_leaf_vector":"1"}},{"base_weights":[9.226103E-3,1.6967794E-1,-3.61452E-1,2.7579314E-1,-5.159303E-2,-4.684854E-1,2.7283875E-2,3.979654E-1,-5.1188566E-2,-2.9446936E-1,-5.323991E-2,6.155039E-1,-4.457277E-2,-5.0584543E-2,1.0677742E-2,7.6099396E-1,-9.711596E-4,1.4545526E-1,-5.045978E-2,8.9055794E-1,6.772819E-2,-4.9836066E-2,7.371827E-2,4.5347574E-1,-4.869176E-2,1.089461E-1,5.6318562E-2,-4.7174644E-2,7.539164E-2,8.679404E-3,9.53451E-2],"categories":[],"categories_nodes":[],"categories_segments":[],"categories_sizes":[],"default_left":[0,0,0,0,0,0,0,0,0,0,0,0,0,0,0,0,0,0,0,0,0,0,0,0,0,0,0,0,0,0,0],"id":49,"left_children":[1,3,5,7,-1,9,-1,11,-1,13,-1,15,17,-1,-1,19,21,23,-1,25,27,-1,-1,29,-1,-1,-1,-1,-1,-1,-1],"loss_changes":[3.1201782E0,2.683713E0,1.1021745E0,3.1126347E0,0E0,5.3503275E-2,0E0,2.76376E0,0E0,4.1102934E-1,0E0,1.7792039E0,8.473477E-1,0E0,0E0,1.2898874E0,1.3325295E0,1.2718155E0,0E0,6.149893E-1,1.0519975E0,0E0,0E0,7.0978653E-1,0E0,0E0,0E0,0E0,0E0,0E0,0E0],"parents":[2147483647,0,0,1,1,2,2,3,3,5,5,7,7,9,9,11,11,12,12,15,15,16,16,17,17,19,19,20,20,23,23],"right_children":[2,4,6,8,-1,10,-1,12,-1,14,-1,16,18,-1,-1,20,22,24,-1,26,28,-1,-1,30,-1,-1,-1,-1,-1,-1,-1],"split_conditions":[1E0,1E0,1E0,1E0,-5.159303E-2,1E0,2.7283875E-2,1E0,-5.1188566E-2,1E0,-5.323991E-2,1E0,1E0,-5.0584543E-2,1.0677742E-2,1E0,1E0,1E0,-5.045978E-2,1E0,1E0,-4.9836066E-2,7.371827E-2,1E0,-4.869176E-2,1.089461E-1,5.6318562E-2,-4.7174644E-2,7.539164E-2,8.679404E-3,9.53451E-2],"split_indices":[32,40,105,61,0,29,0,86,0,84,0,111,108,0,0,99,34,36,0,14,109,0,0,27,0,0,0,0,0,0,0],"split_type":[0,0,0,0,0,0,0,0,0,0,0,0,0,0,0,0,0,0,0,0,0,0,0,0,0,0,0,0,0,0,0],"sum_hessian":[5.258046E1,3.6922276E1,1.5658187E1,3.215163E1,4.770646E0,1.3554696E1,2.1034904E0,2.7987137E1,4.164491E0,4.2120395E0,9.342657E0,1.8888836E1,9.098302E0,2.9048986E0,1.3071406E0,1.53944645E1,3.494372E0,6.3331804E0,2.765121E0,1.2824921E1,2.569544E0,2.1879957E0,1.3063762E0,4.3841453E0,1.949035E0,7.6429853E0,5.181935E0,1.3744686E0,1.1950754E0,2.7123086E0,1.6718367E0],"tree_param":{"num_deleted":"0","num_feature":"120","num_nodes":"31","size_leaf_vector":"1"}},{"base_weights":[-1.2051673E-1,-4.6701938E-1,7.5765073E-1,-5.161566E-1,5.0860047E-2,1.053127E0,-2.3259388E-1,-5.4526933E-2,-3.303805E-1,7.2539365E-1,1.136389E-1,-4.9196903E-2,1.0868883E-2,-5.1058847E-2,2.4685469E-2,6.6304356E-3,1.14216164E-1],"categories":[],"categories_nodes":[],"categories_segments":[],"categories_sizes":[],"default_left":[0,0,0,0,0,0,0,0,0,0,0,0,0,0,0,0,0],"id":50,"left_children":[1,3,5,7,-1,9,11,-1,13,15,-1,-1,-1,-1,-1,-1,-1],"loss_changes":[1.4521695E1,1.6737003E0,4.042904E0,7.208538E-2,0E0,1.6747475E-2,3.1772393E-1,0E0,5.7672185E-1,5.962981E-1,0E0,0E0,0E0,0E0,0E0,0E0,0E0],"parents":[2147483647,0,0,1,1,2,2,3,3,5,5,6,6,8,8,9,9],"right_children":[2,4,6,8,-1,10,12,-1,14,16,-1,-1,-1,-1,-1,-1,-1],"split_conditions":[1E0,1E0,1E0,1E0,5.0860047E-2,1E0,1E0,-5.4526933E-2,1E0,1E0,1.136389E-1,-4.9196903E-2,1.0868883E-2,-5.1058847E-2,2.4685469E-2,6.6304356E-3,1.14216164E-1],"split_indices":[0,11,72,58,0,17,104,0,97,34,0,0,0,0,0,0,0],"split_type":[0,0,0,0,0,0,0,0,0,0,0,0,0,0,0,0,0],"sum_hessian":[4.7602856E1,3.4249546E1,1.3353311E1,3.2749695E1,1.4998503E0,1.0357423E1,2.9958878E0,2.7680187E1,5.069506E0,2.5383368E0,7.819086E0,1.8436053E0,1.1522824E0,4.004211E0,1.0652953E0,1.1211568E0,1.4171801E0],"tree_param":{"num_deleted":"0","num_feature":"120","num_nodes":"17","size_leaf_vector":"1"}},{"base_weights":[1.4741589E-1,-4.6848524E-1,5.93242E-1,-5.4068994E-2,-2.6080027E-1,7.7757823E-1,-5.1595647E-2,5.141686E-2,-5.1292427E-2,9.5473593E-1,-2.8945297E-1,8.725364E-2,-4.7930744E-2,1.03526846E-1,5.945168E-1,2.35952E-2,-5.0738256E-2,-4.2957505E-3,9.527394E-2],"categories":[],"categories_nodes":[],"categories_segments":[],"categories_sizes":[],"default_left":[0,0,0,0,0,0,0,0,0,0,0,0,0,0,0,0,0,0,0],"id":51,"left_children":[1,3,5,-1,7,9,-1,11,-1,13,15,-1,-1,-1,17,-1,-1,-1,-1],"loss_changes":[1.5484232E1,2.593403E-1,6.765708E0,0E0,5.709467E-1,5.427433E0,0E0,1.3349875E0,0E0,4.8039436E-1,4.986801E-1,0E0,0E0,0E0,1.214423E0,0E0,0E0,0E0,0E0],"parents":[2147483647,0,0,1,1,2,2,4,4,5,5,7,7,9,9,10,10,14,14],"right_children":[2,4,6,-1,8,10,-1,12,-1,14,16,-1,-1,-1,18,-1,-1,-1,-1],"split_conditions":[1E0,1E0,1E0,-5.4068994E-2,1E0,1E0,-5.1595647E-2,1E0,-5.1292427E-2,1E0,1E0,8.725364E-2,-4.7930744E-2,1.03526846E-1,1E0,2.35952E-2,-5.0738256E-2,-4.2957505E-3,9.527394E-2],"split_indices":[21,32,3,0,80,87,0,60,0,118,90,0,0,0,35,0,0,0,0],"split_type":[0,0,0,0,0,0,0,0,0,0,0,0,0,0,0,0,0,0,0],"sum_hessian":[5.6144794E1,2.347924E1,3.2665554E1,1.6945908E1,6.533331E0,2.8113466E1,4.5520883E0,2.777186E0,3.756145E0,2.4199842E1,3.9136245E0,1.1389916E0,1.6381943E0,1.9398092E1,4.80175E0,1.0104365E0,2.9031878E0,1.6587596E0,3.1429906E0],"tree_param":{"num_deleted":"0","num_feature":"120","num_nodes":"19","size_leaf_vector":"1"}},{"base_weights":[-5.8796614E-2,-5.449335E-2,1.02818124E-1],"categories":[],"categories_nodes":[],"categories_segments":[],"categories_sizes":[],"default_left":[0,0,0],"id":52,"left_children":[1,-1,-1],"loss_changes":[2.5834826E1,0E0,0E0],"parents":[2147483647,0,0],"right_children":[2,-1,-1],"split_conditions":[1E0,-5.449335E-2,1.02818124E-1],"split_indices":[40,0,0],"split_type":[0,0,0],"sum_hessian":[4.8776123E1,3.3800945E1,1.4975175E1],"tree_param":{"num_deleted":"0","num_feature":"120","num_nodes":"3","size_leaf_vector":"1"}},{"base_weights":[1.7883662E-2,-5.171851E-1,8.8208705E-1,-5.4514922E-2,3.924623E-3,-4.8141666E-2,1.0048441E0,5.7167286E-1,1.05754904E-1,9.0137515E-3,9.710092E-2],"categories":[],"categories_nodes":[],"categories_segments":[],"categories_sizes":[],"default_left":[0,0,0,0,0,0,0,0,0,0,0],"id":53,"left_children":[1,3,5,-1,-1,-1,7,9,-1,-1,-1],"loss_changes":[2.3934435E1,5.483122E-1,3.4203959E0,0E0,0E0,0E0,1.9429588E-1,3.4817392E-1,0E0,0E0,0E0],"parents":[2147483647,0,0,1,1,2,2,6,6,7,7],"right_children":[2,4,6,-1,-1,-1,8,10,-1,-1,-1],"split_conditions":[1E0,1E0,1E0,-5.4514922E-2,3.924623E-3,-4.8141666E-2,1E0,1E0,1.05754904E-1,9.0137515E-3,9.710092E-2],"split_indices":[60,69,62,0,0,0,61,94,0,0,0],"split_type":[0,0,0,0,0,0,0,0,0,0,0],"sum_hessian":[5.1482826E1,3.1749605E1,1.9733223E1,3.040339E1,1.3462138E0,1.5384419E0,1.8194782E1,2.3079784E0,1.5886804E1,1.215395E0,1.0925834E0],"tree_param":{"num_deleted":"0","num_feature":"120","num_nodes":"11","size_leaf_vector":"1"}},{"base_weights":[3.4296893E-2,-5.4270178E-2,3.9275655E-1,6.853959E-1,-3.5257134E-1,-5.815716E-3,9.4396025E-1,8.94233E-2,-5.3110458E-2,-5.0584145E-2,4.838073E-1,1.07231975E-1,3.642092E-1,-4.4229962E-2,7.8427434E-2,-0E0,9.055577E-2,-5.049633E-2,8.489998E-2],"categories":[],"categories_nodes":[],"categories_segments":[],"categories_sizes":[],"default_left":[0,0,0,0,0,0,0,0,0,0,0,0,0,0,0,0,0,0,0],"id":54,"left_children":[1,-1,3,5,7,9,11,13,-1,-1,15,-1,17,-1,-1,-1,-1,-1,-1],"loss_changes":[1.0869305E1,0E0,7.1592684E0,4.296273E0,7.7091944E-1,1.5922315E0,1.0984621E0,1.013574E0,0E0,0E0,6.7512655E-1,0E0,1.515584E0,0E0,0E0,0E0,0E0,0E0,0E0],"parents":[2147483647,0,0,2,2,3,3,4,4,5,5,6,6,7,7,10,10,12,12],"right_children":[2,-1,4,6,8,10,12,14,-1,-1,16,-1,18,-1,-1,-1,-1,-1,-1],"split_conditions":[1E0,-5.4270178E-2,1E0,1E0,1E0,1E0,1E0,1E0,-5.3110458E-2,-5.0584145E-2,1E0,1.07231975E-1,1E0,-4.4229962E-2,7.8427434E-2,-0E0,9.055577E-2,-5.049633E-2,8.489998E-2],"split_indices":[80,0,107,82,112,118,33,89,0,0,88,0,90,0,0,0,0,0,0],"split_type":[0,0,0,0,0,0,0,0,0,0,0,0,0,0,0,0,0,0,0],"sum_hessian":[5.2421124E1,1.9960733E1,3.2460392E1,2.3410788E1,9.049605E0,6.2946115E0,1.7116175E1,2.4568863E0,6.592719E0,3.21363E0,3.0809817E0,1.3802736E1,3.3134384E0,1.3308818E0,1.1260043E0,1.4497167E0,1.631265E0,1.1110394E0,2.202399E0],"tree_param":{"num_deleted":"0","num_feature":"120","num_nodes":"19","size_leaf_vector":"1"}},{"base_weights":[-6.0095754E-2,-5.147286E-1,7.667737E-1,-5.434794E-2,-2.5769404E-1,-4.678166E-2,8.9420927E-1,-4.9429536E-2,1.460948E-2,4.3402454E-1,9.713357E-1,-0E0,8.266734E-2,1.0378637E0,5.4457862E-2,1.0961323E-1,6.504398E-2],"categories":[],"categories_nodes":[],"categories_segments":[],"categories_sizes":[],"default_left":[0,0,0,0,0,0,0,0,0,0,0,0,0,0,0,0,0],"id":55,"left_children":[1,3,5,-1,7,-1,9,-1,-1,11,13,-1,-1,15,-1,-1,-1],"loss_changes":[1.8645752E1,1.4321995E-1,2.8448477E0,0E0,4.0232497E-1,0E0,3.8558388E-1,0E0,0E0,3.8306928E-1,1.6698837E-1,0E0,0E0,9.580612E-3,0E0,0E0,0E0],"parents":[2147483647,0,0,1,1,2,2,4,4,6,6,9,9,10,10,13,13],"right_children":[2,4,6,-1,8,-1,10,-1,-1,12,14,-1,-1,16,-1,-1,-1],"split_conditions":[1E0,1E0,1E0,-5.434794E-2,1E0,-4.678166E-2,1E0,-4.9429536E-2,1.460948E-2,1E0,1E0,-0E0,8.266734E-2,1E0,5.4457862E-2,1.0961323E-1,6.504398E-2],"split_indices":[101,117,107,0,36,0,111,0,0,90,87,0,0,8,0,0,0],"split_type":[0,0,0,0,0,0,0,0,0,0,0,0,0,0,0,0,0],"sum_hessian":[4.946211E1,3.2017048E1,1.744506E1,2.8345905E1,3.671142E0,1.5338055E0,1.5911255E1,2.4568079E0,1.2143342E0,2.565168E0,1.33460865E1,1.3699665E0,1.1952014E0,1.1219529E1,2.126557E0,9.369338E0,1.8501916E0],"tree_param":{"num_deleted":"0","num_feature":"120","num_nodes":"17","size_leaf_vector":"1"}},{"base_weights":[1.1728057E-2,1.643029E-1,-3.5071397E-1,2.6289916E-1,-5.0989646E-2,-4.6054474E-1,2.514912E-2,3.750306E-1,-5.0583202E-2,-2.83011E-1,-5.2761275E-2,5.721445E-1,-3.8023785E-2,-4.9987078E-2,1.0632252E-2,7.026112E-1,-0E0,1.4138336E-1,-4.9721908E-2,8.899675E-1,2.8241184E-1,-4.933479E-2,7.012686E-2,4.2760777E-1,-4.7972295E-2,1.0381434E-1,4.9424555E-2,5.4805376E-2,-4.6588223E-2,8.690686E-3,8.697366E-2],"categories":[],"categories_nodes":[],"categories_segments":[],"categories_sizes":[],"default_left":[0,0,0,0,0,0,0,0,0,0,0,0,0,0,0,0,0,0,0,0,0,0,0,0,0,0,0,0,0,0,0],"id":56,"left_children":[1,3,5,7,-1,9,-1,11,-1,13,-1,15,17,-1,-1,19,21,23,-1,25,27,-1,-1,29,-1,-1,-1,-1,-1,-1,-1],"loss_changes":[2.8258224E0,2.4075363E0,1.0275937E0,2.7591496E0,0E0,5.760789E-2,0E0,2.339036E0,0E0,3.9604583E-1,0E0,1.4901724E0,7.8323656E-1,0E0,0E0,1.0952826E0,1.2397246E0,1.1505157E0,0E0,4.2062092E-1,1.0592515E0,0E0,0E0,5.798005E-1,0E0,0E0,0E0,0E0,0E0,0E0,0E0],"parents":[2147483647,0,0,1,1,2,2,3,3,5,5,7,7,9,9,11,11,12,12,15,15,16,16,17,17,19,19,20,20,23,23],"right_children":[2,4,6,8,-1,10,-1,12,-1,14,-1,16,18,-1,-1,20,22,24,-1,26,28,-1,-1,30,-1,-1,-1,-1,-1,-1,-1],"split_conditions":[1E0,1E0,1E0,1E0,-5.0989646E-2,1E0,2.514912E-2,1E0,-5.0583202E-2,1E0,-5.2761275E-2,1E0,1E0,-4.9987078E-2,1.0632252E-2,1E0,1E0,1E0,-4.9721908E-2,1E0,1E0,-4.933479E-2,7.012686E-2,1E0,-4.7972295E-2,1.0381434E-1,4.9424555E-2,5.4805376E-2,-4.6588223E-2,8.690686E-3,8.697366E-2],"split_indices":[32,40,105,61,0,29,0,86,0,84,0,111,108,0,0,8,23,36,0,82,95,0,0,27,0,0,0,0,0,0,0],"split_type":[0,0,0,0,0,0,0,0,0,0,0,0,0,0,0,0,0,0,0,0,0,0,0,0,0,0,0,0,0,0,0],"sum_hessian":[5.1233185E1,3.6287884E1,1.4945299E1,3.1840757E1,4.4471264E0,1.280034E1,2.144959E0,2.7945736E1,3.8950226E0,4.0617085E0,8.738631E0,1.9055725E1,8.890009E0,2.7554007E0,1.3063078E0,1.5620832E1,3.434894E0,6.2856503E0,2.6043591E0,1.056181E1,5.059023E0,2.1055841E0,1.3293098E0,4.4343333E0,1.8513168E0,7.3824487E0,3.1793606E0,3.8519797E0,1.2070429E0,2.699757E0,1.7345762E0],"tree_param":{"num_deleted":"0","num_feature":"120","num_nodes":"31","size_leaf_vector":"1"}},{"base_weights":[-1.1460176E-1,-4.598678E-1,7.07903E-1,-5.106374E-1,4.6828102E-2,9.731257E-1,-2.2234413E-1,-5.413988E-2,-3.166765E-1,6.716862E-1,1.0491238E-1,-4.70994E-2,1.2767896E-2,-5.04386E-2,2.4065392E-2,5.7432996E-3,1.04784526E-1],"categories":[],"categories_nodes":[],"categories_segments":[],"categories_sizes":[],"default_left":[0,0,0,0,0,0,0,0,0,0,0,0,0,0,0,0,0],"id":57,"left_children":[1,3,5,7,-1,9,11,-1,13,15,-1,-1,-1,-1,-1,-1,-1],"loss_changes":[1.3019898E1,1.5557938E0,3.4277306E0,8.133888E-2,0E0,4.682541E-4,3.0083954E-1,0E0,5.5259734E-1,5.0242233E-1,0E0,0E0,0E0,0E0,0E0,0E0,0E0],"parents":[2147483647,0,0,1,1,2,2,3,3,5,5,6,6,8,8,9,9],"right_children":[2,4,6,8,-1,10,12,-1,14,16,-1,-1,-1,-1,-1,-1,-1],"split_conditions":[1E0,1E0,1E0,1E0,4.6828102E-2,1E0,1E0,-5.413988E-2,1E0,1E0,1.0491238E-1,-4.70994E-2,1.2767896E-2,-5.04386E-2,2.4065392E-2,5.7432996E-3,1.04784526E-1],"split_indices":[0,10,72,58,0,17,10,0,97,34,0,0,0,0,0,0,0],"split_type":[0,0,0,0,0,0,0,0,0,0,0,0,0,0,0,0,0],"sum_hessian":[4.572017E1,3.231912E1,1.3401052E1,3.0787756E1,1.5313611E0,1.0508005E1,2.893047E0,2.5973738E1,4.8140173E0,2.5788553E0,7.92915E0,1.838293E0,1.0547543E0,3.7424743E0,1.0715432E0,1.1241976E0,1.4546578E0],"tree_param":{"num_deleted":"0","num_feature":"120","num_nodes":"17","size_leaf_vector":"1"}},{"base_weights":[1.3922343E-1,-4.6209192E-1,5.528502E-1,-5.362765E-2,-2.5478923E-1,7.1879107E-1,-5.1035102E-2,4.5574557E-2,-5.0798364E-2,8.774161E-1,-2.7932796E-1,7.856242E-2,-4.7112554E-2,5.82409E-1,9.697198E-2,2.2159081E-2,-5.013566E-2,-4.526355E-2,8.0486184E-1,3.9165085E-3,1.018063E-1],"categories":[],"categories_nodes":[],"categories_segments":[],"categories_sizes":[],"default_left":[0,0,0,0,0,0,0,0,0,0,0,0,0,0,0,0,0,0,0,0,0],"id":58,"left_children":[1,3,5,-1,7,9,-1,11,-1,13,15,-1,-1,17,-1,-1,-1,-1,19,-1,-1],"loss_changes":[1.3638271E1,2.4934387E-1,5.800025E0,0E0,5.3593314E-1,4.5613537E0,0E0,1.1553414E0,0E0,4.5572662E-1,4.691757E-1,0E0,0E0,1.5336883E0,0E0,0E0,0E0,0E0,7.623632E-1,0E0,0E0],"parents":[2147483647,0,0,1,1,2,2,4,4,5,5,7,7,9,9,10,10,13,13,18,18],"right_children":[2,4,6,-1,8,10,-1,12,-1,14,16,-1,-1,18,-1,-1,-1,-1,20,-1,-1],"split_conditions":[1E0,1E0,1E0,-5.362765E-2,1E0,1E0,-5.1035102E-2,1E0,-5.0798364E-2,1E0,1E0,7.856242E-2,-4.7112554E-2,1E0,9.697198E-2,2.2159081E-2,-5.013566E-2,-4.526355E-2,1E0,3.9165085E-3,1.018063E-1],"split_indices":[21,32,3,0,80,87,0,60,0,32,90,0,0,36,0,0,0,0,15,0,0],"split_type":[0,0,0,0,0,0,0,0,0,0,0,0,0,0,0,0,0,0,0,0,0],"sum_hessian":[5.4594604E1,2.2146034E1,3.244857E1,1.5837429E1,6.3086047E0,2.8177214E1,4.271357E0,2.742377E0,3.566228E0,2.441014E1,3.7670739E0,1.1856729E0,1.5567042E0,6.249808E0,1.8160332E1,1.0186663E0,2.7484076E0,1.0077709E0,5.242037E0,1.2696368E0,3.9724002E0],"tree_param":{"num_deleted":"0","num_feature":"120","num_nodes":"21","size_leaf_vector":"1"}},{"base_weights":[-5.884623E-2,-5.4106433E-2,9.514257E-2],"categories":[],"categories_nodes":[],"categories_segments":[],"categories_sizes":[],"default_left":[0,0,0],"id":59,"left_children":[1,-1,-1],"loss_changes":[2.2791666E1,0E0,0E0],"parents":[2147483647,0,0],"right_children":[2,-1,-1],"split_conditions":[1E0,-5.4106433E-2,9.514257E-2],"split_indices":[40,0,0],"split_type":[0,0,0],"sum_hessian":[4.666223E1,3.1684273E1,1.4977957E1],"tree_param":{"num_deleted":"0","num_feature":"120","num_nodes":"3","size_leaf_vector":"1"}},{"base_weights":[1.61573E-2,-5.118329E-1,8.148016E-1,-5.402763E-2,5.1148366E-3,-4.73607E-2,9.2591816E-1,5.199545E-1,9.766502E-2,8.673491E-2,8.06003E-3],"categories":[],"categories_nodes":[],"categories_segments":[],"categories_sizes":[],"default_left":[0,0,0,0,0,0,0,0,0,0,0],"id":60,"left_children":[1,3,5,-1,-1,-1,7,9,-1,-1,-1],"loss_changes":[2.1035975E1,5.3071547E-1,2.9381056E0,0E0,0E0,0E0,1.7904186E-1,2.7667934E-1,0E0,0E0,0E0],"parents":[2147483647,0,0,1,1,2,2,6,6,7,7],"right_children":[2,4,6,-1,-1,-1,8,10,-1,-1,-1],"split_conditions":[1E0,1E0,1E0,-5.402763E-2,5.1148366E-3,-4.73607E-2,1E0,1E0,9.766502E-2,8.673491E-2,8.06003E-3],"split_indices":[60,61,62,0,0,0,61,5,0,0,0],"split_type":[0,0,0,0,0,0,0,0,0,0,0],"sum_hessian":[4.96158E1,2.9815338E1,1.9800459E1,2.8554348E1,1.2609892E0,1.4747219E0,1.8325737E1,2.3796363E0,1.5946101E1,1.147385E0,1.2322514E0],"tree_param":{"num_deleted":"0","num_feature":"120","num_nodes":"11","size_leaf_vector":"1"}},{"base_weights":[3.219104E-2,-5.383457E-2,3.6704326E-1,6.316485E-1,-3.4523904E-1,-8.662066E-3,8.6362743E-1,-5.2579727E-2,8.3013274E-2,-5.0024446E-2,4.3842375E-1,9.7956705E-1,3.2823998E-1,7.2063886E-2,-4.3326657E-2,-0E0,8.304178E-2,6.8784434E-1,1.0460569E-1,-5.002444E-2,7.787529E-2,7.6383473E-3,9.6270554E-2],"categories":[],"categories_nodes":[],"categories_segments":[],"categories_sizes":[],"default_left":[0,0,0,0,0,0,0,0,0,0,0,0,0,0,0,0,0,0,0,0,0,0,0],"id":61,"left_children":[1,-1,3,5,7,9,11,-1,13,-1,15,17,19,-1,-1,-1,-1,21,-1,-1,-1,-1,-1],"loss_changes":[9.726868E0,0E0,6.1277714E0,3.5989752E0,7.2108316E-1,1.4069091E0,9.217882E-1,0E0,8.833483E-1,0E0,5.9791374E-1,2.9322624E-2,1.3412755E0,0E0,0E0,0E0,0E0,4.264835E-1,0E0,0E0,0E0,0E0,0E0],"parents":[2147483647,0,0,2,2,3,3,4,4,5,5,6,6,8,8,10,10,11,11,12,12,17,17],"right_children":[2,-1,4,6,8,10,12,-1,14,-1,16,18,20,-1,-1,-1,-1,22,-1,-1,-1,-1,-1],"split_conditions":[1E0,-5.383457E-2,1E0,1E0,1E0,1E0,1E0,-5.2579727E-2,1E0,-5.0024446E-2,1E0,1E0,1E0,7.2063886E-2,-4.3326657E-2,-0E0,8.304178E-2,1E0,1.0460569E-1,-5.002444E-2,7.787529E-2,7.6383473E-3,9.6270554E-2],"split_indices":[80,0,107,82,18,118,33,0,3,0,88,99,90,0,0,0,0,85,0,0,0,0,0],"split_type":[0,0,0,0,0,0,0,0,0,0,0,0,0,0,0,0,0,0,0,0,0,0,0],"sum_hessian":[5.0800117E1,1.8655167E1,3.214495E1,2.3548607E1,8.596341E0,6.173538E0,1.7375069E1,6.195111E0,2.4012308E0,3.0413148E0,3.1322236E0,1.4060489E1,3.314581E0,1.1433097E0,1.2579211E0,1.4642305E0,1.6679931E0,3.0995948E0,1.0960894E1,1.0854505E0,2.2291303E0,1.113684E0,1.9859108E0],"tree_param":{"num_deleted":"0","num_feature":"120","num_nodes":"23","size_leaf_vector":"1"}},{"base_weights":[-5.7741262E-2,-5.0905555E-1,7.073147E-1,-5.3948533E-2,-2.4482296E-1,-4.59716E-2,8.210593E-1,1.389053E-2,-4.9757794E-2,2.7642075E-2,8.7538606E-1,5.443871E-1,9.861768E-1,-4.965199E-2,9.294729E-2,1.1616206E-1,8.031265E-1,5.12612E-1,1.0078116E-1,-0E0,8.7118626E-2],"categories":[],"categories_nodes":[],"categories_segments":[],"categories_sizes":[],"default_left":[0,0,0,0,0,0,0,0,0,0,0,0,0,0,0,0,0,0,0,0,0],"id":62,"left_children":[1,3,5,-1,7,-1,9,-1,-1,-1,11,13,15,-1,-1,-1,17,19,-1,-1,-1],"loss_changes":[1.6495026E1,1.5085077E-1,2.4191332E0,0E0,3.9552003E-1,0E0,3.403244E-1,0E0,0E0,0E0,3.2605553E-1,1.7301134E0,4.859066E-2,0E0,0E0,0E0,1.3875508E-1,4.8093474E-1,0E0,0E0,0E0],"parents":[2147483647,0,0,1,1,2,2,4,4,6,6,10,10,11,11,12,12,16,16,17,17],"right_children":[2,4,6,-1,8,-1,10,-1,-1,-1,12,14,16,-1,-1,-1,18,20,-1,-1,-1],"split_conditions":[1E0,1E0,1E0,-5.3948533E-2,1E0,-4.59716E-2,1E0,1.389053E-2,-4.9757794E-2,2.7642075E-2,1E0,1E0,1E0,-4.965199E-2,9.294729E-2,1.1616206E-1,1E0,1E0,1.0078116E-1,-0E0,8.7118626E-2],"split_indices":[101,117,107,0,116,0,95,0,0,0,105,99,94,0,0,0,26,86,0,0,0],"split_type":[0,0,0,0,0,0,0,0,0,0,0,0,0,0,0,0,0,0,0,0,0],"sum_hessian":[4.762594E1,3.0058372E1,1.7567568E1,2.6521461E1,3.5369103E0,1.4550701E0,1.6112497E1,1.2653227E0,2.2715876E0,1.6835957E0,1.4428902E1,3.99309E0,1.0435812E1,1.0003828E0,2.992707E0,4.776706E0,5.659106E0,2.6859152E0,2.9731908E0,1.1876968E0,1.4982184E0],"tree_param":{"num_deleted":"0","num_feature":"120","num_nodes":"21","size_leaf_vector":"1"}},{"base_weights":[1.3641161E-2,1.5823165E-1,-3.3922154E-1,2.4995469E-1,-5.0392546E-2,-4.5231527E-1,2.3687338E-2,3.532096E-1,-4.9985927E-2,-2.7155483E-1,-5.2281298E-2,5.326029E-1,-3.1897154E-2,-4.9485713E-2,1.1762432E-2,6.512664E-1,-0E0,1.3888396E-1,-4.9477763E-2,7.5960577E-1,4.2269498E-2,-4.8887398E-2,6.596486E-2,-2.3690553E-1,6.206057E-1,8.643461E-2,2.7313909E-2,-4.62176E-2,6.448666E-2,1.599372E-2,-4.944313E-2,1.1651682E-1,-0E0],"categories":[],"categories_nodes":[],"categories_segments":[],"categories_sizes":[],"default_left":[0,0,0,0,0,0,0,0,0,0,0,0,0,0,0,0,0,0,0,0,0,0,0,0,0,0,0,0,0,0,0,0,0],"id":63,"left_children":[1,3,5,7,-1,9,-1,11,-1,13,-1,15,17,-1,-1,19,21,23,-1,25,27,-1,-1,29,31,-1,-1,-1,-1,-1,-1,-1,-1],"loss_changes":[2.5322118E0,2.1524963E0,9.658437E-1,2.4428182E0,0E0,6.1288834E-2,0E0,1.9775176E0,0E0,3.9265266E-1,0E0,1.2637701E0,7.361819E-1,0E0,0E0,9.6036625E-1,1.1411062E0,1.1990945E0,0E0,5.395627E-1,8.489214E-1,0E0,0E0,4.0028802E-1,9.263264E-1,0E0,0E0,0E0,0E0,0E0,0E0,0E0,0E0],"parents":[2147483647,0,0,1,1,2,2,3,3,5,5,7,7,9,9,11,11,12,12,15,15,16,16,17,17,19,19,20,20,23,23,24,24],"right_children":[2,4,6,8,-1,10,-1,12,-1,14,-1,16,18,-1,-1,20,22,24,-1,26,28,-1,-1,30,32,-1,-1,-1,-1,-1,-1,-1,-1],"split_conditions":[1E0,1E0,1E0,1E0,-5.0392546E-2,1E0,2.3687338E-2,1E0,-4.9985927E-2,1E0,-5.2281298E-2,1E0,1E0,-4.9485713E-2,1.1762432E-2,1E0,1E0,1E0,-4.9477763E-2,1E0,1E0,-4.8887398E-2,6.596486E-2,1E0,1E0,8.643461E-2,2.7313909E-2,-4.62176E-2,6.448666E-2,1.599372E-2,-4.944313E-2,1.1651682E-1,-0E0],"split_indices":[32,40,105,61,0,29,0,86,0,119,0,111,35,0,0,99,34,31,0,36,109,0,0,82,28,0,0,0,0,0,0,0,0],"split_type":[0,0,0,0,0,0,0,0,0,0,0,0,0,0,0,0,0,0,0,0,0,0,0,0,0,0,0,0,0,0,0,0,0],"sum_hessian":[4.9780712E1,3.5551525E1,1.4229186E1,3.141337E1,4.1381564E0,1.2057279E1,2.171907E0,2.777483E1,3.6385393E0,3.9171484E0,8.140131E0,1.9099245E1,8.675585E0,2.6350262E0,1.2821221E0,1.5719812E1,3.3794332E0,6.230705E0,2.4448798E0,1.3185247E1,2.534565E0,2.0231678E0,1.3562653E0,3.412139E0,2.8185658E0,1.06162405E1,2.5690072E0,1.3019948E0,1.2325702E0,1.2049365E0,2.2072024E0,1.4103055E0,1.4082603E0],"tree_param":{"num_deleted":"0","num_feature":"120","num_nodes":"33","size_leaf_vector":"1"}},{"base_weights":[-1.09312885E-1,-4.5287144E-1,6.6462874E-1,-5.0522673E-1,4.3230217E-2,9.046001E-2,-2.1132001E-1,-5.373595E-2,-2.9893115E-1,-4.7962572E-2,1.1861914E-2,2.6428748E-2,-5.009004E-2],"categories":[],"categories_nodes":[],"categories_segments":[],"categories_sizes":[],"default_left":[0,0,0,0,0,0,0,0,0,0,0,0,0],"id":64,"left_children":[1,3,5,7,-1,-1,9,-1,11,-1,-1,-1,-1],"loss_changes":[1.1681261E1,1.4449964E0,2.9150262E0,9.253168E-2,0E0,0E0,2.9701763E-1,0E0,5.547974E-1,0E0,0E0,0E0,0E0],"parents":[2147483647,0,0,1,1,2,2,3,3,6,6,8,8],"right_children":[2,4,6,8,-1,-1,10,-1,12,-1,-1,-1,-1],"split_conditions":[1E0,1E0,1E0,1E0,4.3230217E-2,9.046001E-2,1E0,-5.373595E-2,1E0,-4.7962572E-2,1.1861914E-2,2.6428748E-2,-5.009004E-2],"split_indices":[0,11,72,105,0,0,104,0,83,0,0,0,0],"split_type":[0,0,0,0,0,0,0,0,0,0,0,0,0],"sum_hessian":[4.3798416E1,3.0451471E1,1.3346945E1,2.8898132E1,1.5533398E0,1.0563816E1,2.7831285E0,2.4445297E1,4.452835E0,1.6770631E0,1.1060655E0,1.0364827E0,3.4163523E0],"tree_param":{"num_deleted":"0","num_feature":"120","num_nodes":"13","size_leaf_vector":"1"}},{"base_weights":[1.3229223E-1,-4.5604825E-1,5.205667E-1,-5.321744E-2,-2.4879275E-1,6.726354E-1,-5.048893E-2,4.002177E-2,-5.0293267E-2,8.171696E-1,-2.682472E-1,7.129858E-2,-4.628792E-2,5.4459697E-1,9.0186484E-2,2.0867152E-2,-4.9501833E-2,-7.0679546E-3,8.423705E-2],"categories":[],"categories_nodes":[],"categories_segments":[],"categories_sizes":[],"default_left":[0,0,0,0,0,0,0,0,0,0,0,0,0,0,0,0,0,0,0],"id":65,"left_children":[1,3,5,-1,7,9,-1,11,-1,13,15,-1,-1,17,-1,-1,-1,-1,-1],"loss_changes":[1.2110535E1,2.3960543E-1,5.041898E0,0E0,5.015751E-1,3.8847055E0,0E0,1.0052807E0,0E0,3.6928558E-1,4.404023E-1,0E0,0E0,1.2399668E0,0E0,0E0,0E0,0E0,0E0],"parents":[2147483647,0,0,1,1,2,2,4,4,5,5,7,7,9,9,10,10,13,13],"right_children":[2,4,6,-1,8,10,-1,12,-1,14,16,-1,-1,18,-1,-1,-1,-1,-1],"split_conditions":[1E0,1E0,1E0,-5.321744E-2,1E0,1E0,-5.048893E-2,1E0,-5.0293267E-2,1E0,1E0,7.129858E-2,-4.628792E-2,1E0,9.0186484E-2,2.0867152E-2,-4.9501833E-2,-7.0679546E-3,8.423705E-2],"split_indices":[21,32,3,0,80,87,0,60,0,32,90,0,0,15,0,0,0,0,0],"split_type":[0,0,0,0,0,0,0,0,0,0,0,0,0,0,0,0,0,0,0],"sum_hessian":[5.278247E1,2.087548E1,3.1906988E1,1.4800063E1,6.075418E0,2.7901321E1,4.005667E0,2.6989706E0,3.3764477E0,2.4289505E1,3.6118157E0,1.2214892E0,1.4774812E0,6.2142E0,1.8075306E1,1.024408E0,2.5874076E0,1.9419895E0,4.2722106E0],"tree_param":{"num_deleted":"0","num_feature":"120","num_nodes":"19","size_leaf_vector":"1"}},{"base_weights":[-5.903462E-2,-5.3742737E-2,8.8879704E-2],"categories":[],"categories_nodes":[],"categories_segments":[],"categories_sizes":[],"default_left":[0,0,0],"id":66,"left_children":[1,-1,-1],"loss_changes":[2.0222912E1,0E0,0E0],"parents":[2147483647,0,0],"right_children":[2,-1,-1],"split_conditions":[1E0,-5.3742737E-2,8.8879704E-2],"split_indices":[40,0,0],"split_type":[0,0,0],"sum_hessian":[4.4471428E1,2.9653446E1,1.4817983E1],"tree_param":{"num_deleted":"0","num_feature":"120","num_nodes":"3","size_leaf_vector":"1"}},{"base_weights":[1.4314798E-2,-5.067142E-1,7.59272E-1,-5.374952E-2,3.9288304E-3,-4.6589028E-2,8.6159605E-1,4.8340937E-1,9.097614E-2,5.787014E-3,8.119931E-2],"categories":[],"categories_nodes":[],"categories_segments":[],"categories_sizes":[],"default_left":[0,0,0,0,0,0,0,0,0,0,0],"id":67,"left_children":[1,3,5,-1,-1,-1,7,9,-1,-1,-1],"loss_changes":[1.8583755E1,5.2348804E-1,2.5564299E0,0E0,0E0,0E0,1.5084743E-1,2.6070994E-1,0E0,0E0,0E0],"parents":[2147483647,0,0,1,1,2,2,6,6,7,7],"right_children":[2,4,6,-1,-1,-1,8,10,-1,-1,-1],"split_conditions":[1E0,1E0,1E0,-5.374952E-2,3.9288304E-3,-4.6589028E-2,1E0,1E0,9.097614E-2,5.787014E-3,8.119931E-2],"split_indices":[60,69,62,0,0,0,61,94,0,0,0],"split_type":[0,0,0,0,0,0,0,0,0,0,0],"sum_hessian":[4.7614273E1,2.7957983E1,1.9656292E1,2.664081E1,1.3171718E0,1.4124097E0,1.8243881E1,2.4202554E0,1.58236265E1,1.2383947E0,1.1818608E0],"tree_param":{"num_deleted":"0","num_feature":"120","num_nodes":"11","size_leaf_vector":"1"}},{"base_weights":[3.0893661E-2,-5.342197E-2,3.4582132E-1,5.884015E-1,-3.380528E-1,-1.0140781E-2,8.0025655E-1,8.383492E-2,-5.209458E-2,-4.942801E-2,3.9884344E-1,9.0800285E-1,2.9612842E-1,-4.2277288E-2,6.7789696E-2,-5.334875E-2,8.8116325E-2,9.483368E-2,2.5512327E-2,-4.9555648E-2,7.195696E-2],"categories":[],"categories_nodes":[],"categories_segments":[],"categories_sizes":[],"default_left":[0,0,0,0,0,0,0,0,0,0,0,0,0,0,0,0,0,0,0,0,0],"id":68,"left_children":[1,-1,3,5,7,9,11,13,-1,-1,15,17,19,-1,-1,-1,-1,-1,-1,-1,-1],"loss_changes":[8.741516E0,0E0,5.306509E0,3.0668688E0,6.854323E-1,1.24372E0,8.0450344E-1,7.8211063E-1,0E0,0E0,1.551417E0,2.3005962E-1,1.1970004E0,0E0,0E0,0E0,0E0,0E0,0E0,0E0,0E0],"parents":[2147483647,0,0,2,2,3,3,4,4,5,5,6,6,7,7,10,10,11,11,12,12],"right_children":[2,-1,4,6,8,10,12,14,-1,-1,16,18,20,-1,-1,-1,-1,-1,-1,-1,-1],"split_conditions":[1E0,-5.342197E-2,1E0,1E0,1E0,1E0,1E0,1E0,-5.209458E-2,-4.942801E-2,1E0,1E0,1E0,-4.2277288E-2,6.7789696E-2,-5.334875E-2,8.8116325E-2,9.483368E-2,2.5512327E-2,-4.9555648E-2,7.195696E-2],"split_indices":[80,0,107,82,112,118,33,89,0,0,32,101,90,0,0,0,0,0,0,0,0],"split_type":[0,0,0,0,0,0,0,0,0,0,0,0,0,0,0,0,0,0,0,0,0],"sum_hessian":[4.902002E1,1.7403542E1,3.1616476E1,2.345635E1,8.160125E0,6.033483E0,1.7422869E1,2.3187504E0,5.8413744E0,2.8653033E0,3.1681798E0,1.41254E1,3.2974687E0,1.1762024E0,1.1425478E0,1.0058731E0,2.1623065E0,1.3116651E1,1.0087489E0,1.060855E0,2.2366138E0],"tree_param":{"num_deleted":"0","num_feature":"120","num_nodes":"21","size_leaf_vector":"1"}},{"base_weights":[-5.5589408E-2,-5.033462E-1,6.5667564E-1,-5.3572237E-2,-2.3088363E-1,-4.5228016E-2,7.6016766E-1,1.5595907E-2,-4.8601974E-2,2.4514085E-2,8.116167E-1,5.0433093E-1,9.115219E-1,-0E0,6.724237E-2,1.0662388E-1,7.453608E-1,4.73614E-1,9.333327E-2,-0E0,8.134529E-2],"categories":[],"categories_nodes":[],"categories_segments":[],"categories_sizes":[],"default_left":[0,0,0,0,0,0,0,0,0,0,0,0,0,0,0,0,0,0,0,0,0],"id":69,"left_children":[1,3,5,-1,7,-1,9,-1,-1,-1,11,13,15,-1,-1,-1,17,19,-1,-1,-1],"loss_changes":[1.46299095E1,1.6039467E-1,2.0899396E0,0E0,3.867005E-1,0E0,3.0517864E-1,0E0,0E0,0E0,2.5942707E-1,3.0140185E-1,1.2337685E-2,0E0,0E0,0E0,1.09514E-1,4.292298E-1,0E0,0E0,0E0],"parents":[2147483647,0,0,1,1,2,2,4,4,6,6,10,10,11,11,12,12,16,16,17,17],"right_children":[2,4,6,-1,8,-1,10,-1,-1,-1,12,14,16,-1,-1,-1,18,20,-1,-1,-1],"split_conditions":[1E0,1E0,1E0,-5.3572237E-2,1E0,-4.5228016E-2,1E0,1.5595907E-2,-4.8601974E-2,2.4514085E-2,1E0,1E0,1E0,-0E0,6.724237E-2,1.0662388E-1,1E0,1E0,9.333327E-2,-0E0,8.134529E-2],"split_indices":[101,117,107,0,98,0,95,0,0,0,105,88,94,0,0,0,26,86,0,0,0],"split_type":[0,0,0,0,0,0,0,0,0,0,0,0,0,0,0,0,0,0,0,0,0],"sum_hessian":[4.5717506E1,2.8175222E1,1.7542286E1,2.47684E1,3.406821E0,1.3861281E0,1.6156157E1,1.2136238E0,2.1931973E0,1.6962389E0,1.4459918E1,3.9417489E0,1.0518169E1,1.1015544E0,2.8401945E0,4.8545027E0,5.6636667E0,2.6772215E0,2.986445E0,1.1871052E0,1.4901162E0],"tree_param":{"num_deleted":"0","num_feature":"120","num_nodes":"21","size_leaf_vector":"1"}},{"base_weights":[1.6072784E-2,1.5325063E-1,-3.2744852E-1,2.3888676E-1,-4.9807545E-2,-4.439523E-1,2.2451967E-2,3.341694E-1,-4.9378585E-2,-2.5990736E-1,-5.1814582E-2,4.9702388E-1,-2.4420196E-2,-4.894824E-2,1.2039401E-2,6.061882E-1,-0E0,1.4116555E-1,-4.8454486E-2,7.7518255E-1,2.3113519E-1,-4.8894178E-2,6.0573436E-2,4.0043464E-1,-4.6726894E-2,9.130953E-2,4.183897E-2,4.5983534E-2,-4.5746814E-2,8.091298E-3,7.332689E-2],"categories":[],"categories_nodes":[],"categories_segments":[],"categories_sizes":[],"default_left":[0,0,0,0,0,0,0,0,0,0,0,0,0,0,0,0,0,0,0,0,0,0,0,0,0,0,0,0,0,0,0],"id":70,"left_children":[1,3,5,7,-1,9,-1,11,-1,13,-1,15,17,-1,-1,19,21,23,-1,25,27,-1,-1,29,-1,-1,-1,-1,-1,-1,-1],"loss_changes":[2.2687945E0,1.930953E0,9.0894485E-1,2.1661997E0,0E0,6.500292E-2,0E0,1.6621349E0,0E0,3.8120574E-1,0E0,1.0878072E0,6.9134325E-1,0E0,0E0,8.8712406E-1,1.0371203E0,9.8893386E-1,0E0,3.5574389E-1,8.4883916E-1,0E0,0E0,3.9243746E-1,0E0,0E0,0E0,0E0,0E0,0E0,0E0],"parents":[2147483647,0,0,1,1,2,2,3,3,5,5,7,7,9,9,11,11,12,12,15,15,16,16,17,17,19,19,20,20,23,23],"right_children":[2,4,6,8,-1,10,-1,12,-1,14,-1,16,18,-1,-1,20,22,24,-1,26,28,-1,-1,30,-1,-1,-1,-1,-1,-1,-1],"split_conditions":[1E0,1E0,1E0,1E0,-4.9807545E-2,1E0,2.2451967E-2,1E0,-4.9378585E-2,1E0,-5.1814582E-2,1E0,1E0,-4.894824E-2,1.2039401E-2,1E0,1E0,1E0,-4.8454486E-2,1E0,1E0,-4.8894178E-2,6.0573436E-2,1E0,-4.6726894E-2,9.130953E-2,4.183897E-2,4.5983534E-2,-4.5746814E-2,8.091298E-3,7.332689E-2],"split_indices":[32,40,105,61,0,29,0,86,0,84,0,111,108,0,0,8,97,36,0,82,95,0,0,89,0,0,0,0,0,0,0],"split_type":[0,0,0,0,0,0,0,0,0,0,0,0,0,0,0,0,0,0,0,0,0,0,0,0,0,0,0,0,0,0,0],"sum_hessian":[4.8308872E1,3.4770508E1,1.3538364E1,3.092178E1,3.8487284E0,1.1344602E1,2.1937628E0,2.7532154E1,3.3896253E0,3.7759902E0,7.568611E0,1.9098692E1,8.433462E0,2.5006642E0,1.2753259E0,1.5766891E1,3.3318021E0,6.092818E0,2.340644E0,1.0611957E1,5.154934E0,1.9238377E0,1.4079646E0,4.411507E0,1.6813108E0,7.33899E0,3.2729661E0,4.003671E0,1.1512629E0,2.4674804E0,1.9440267E0],"tree_param":{"num_deleted":"0","num_feature":"120","num_nodes":"31","size_leaf_vector":"1"}},{"base_weights":[-1.0386259E-1,-4.4574994E-1,6.2632495E-1,-4.9977788E-1,3.981162E-2,8.449856E-1,-1.9998796E-1,-5.344521E-2,-2.8393236E-1,5.592827E-1,9.200685E-2,-4.704641E-2,1.1272967E-2,-4.917155E-2,2.6454205E-2,-0E0,9.11796E-2],"categories":[],"categories_nodes":[],"categories_segments":[],"categories_sizes":[],"default_left":[0,0,0,0,0,0,0,0,0,0,0,0,0,0,0,0,0],"id":71,"left_children":[1,3,5,7,-1,9,11,-1,13,15,-1,-1,-1,-1,-1,-1,-1],"loss_changes":[1.0500163E1,1.3418632E0,2.49333E0,1.0653496E-1,0E0,2.9505253E-2,2.7608567E-1,0E0,5.3452027E-1,4.5552176E-1,0E0,0E0,0E0,0E0,0E0,0E0,0E0],"parents":[2147483647,0,0,1,1,2,2,3,3,5,5,6,6,8,8,9,9],"right_children":[2,4,6,8,-1,10,12,-1,14,16,-1,-1,-1,-1,-1,-1,-1],"split_conditions":[1E0,1E0,1E0,1E0,3.981162E-2,1E0,1E0,-5.344521E-2,1E0,1E0,9.200685E-2,-4.704641E-2,1.1272967E-2,-4.917155E-2,2.6454205E-2,-0E0,9.11796E-2],"split_indices":[0,10,72,58,0,17,104,0,97,34,0,0,0,0,0,0,0],"split_type":[0,0,0,0,0,0,0,0,0,0,0,0,0,0,0,0,0],"sum_hessian":[4.1921402E1,2.867237E1,1.3249031E1,2.7096794E1,1.5755762E0,1.0570581E1,2.67845E0,2.2820007E1,4.2767878E0,2.6528363E0,7.9177446E0,1.5806478E0,1.0978024E0,3.241468E0,1.0353197E0,1.1691875E0,1.4836488E0],"tree_param":{"num_deleted":"0","num_feature":"120","num_nodes":"17","size_leaf_vector":"1"}},{"base_weights":[1.2537652E-1,-4.503165E-1,4.9150488E-1,-5.283266E-2,-2.431666E-1,6.3140535E-1,-4.991972E-2,3.4517474E-2,-4.9790967E-2,7.639138E-1,-2.565164E-1,6.633024E-2,-4.5672964E-2,8.32521E-2,4.5766398E-1,1.9561803E-2,-4.8801284E-2,-9.720919E-3,7.757582E-2],"categories":[],"categories_nodes":[],"categories_segments":[],"categories_sizes":[],"default_left":[0,0,0,0,0,0,0,0,0,0,0,0,0,0,0,0,0,0,0],"id":72,"left_children":[1,3,5,-1,7,9,-1,11,-1,13,15,-1,-1,-1,17,-1,-1,-1,-1],"loss_changes":[1.0770567E1,2.2935581E-1,4.384645E0,0E0,4.6839824E-1,3.3142042E0,0E0,