{"learner":{"attributes":{},"feature_names":[],"feature_types":[],"gradient_booster":{"model":{"gbtree_model_param":{"num_parallel_tree":"1","num_trees":"175"},"iteration_indptr":[0,7,14,21,28,35,42,49,56,63,70,77,84,91,98,105,112,119,126,133,140,147,154,161,168,175],"tree_info":[0,1,2,3,4,5,6,0,1,2,3,4,5,6,0,1,2,3,4,5,6,0,1,2,3,4,5,6,0,1,2,3,4,5,6,0,1,2,3,4,5,6,0,1,2,3,4,5,6,0,1,2,3,4,5,6,0,1,2,3,4,5,6,0,1,2,3,4,5,6,0,1,2,3,4,5,6,0,1,2,3,4,5,6,0,1,2,3,4,5,6,0,1,2,3,4,5,6,0,1,2,3,4,5,6,0,1,2,3,4,5,6,0,1,2,3,4,5,6,0,1,2,3,4,5,6,0,1,2,3,4,5,6,0,1,2,3,4,5,6,0,1,2,3,4,5,6,0,1,2,3,4,5,6,0,1,2,3,4,5,6,0,1,2,3,4,5,6,0,1,2,3,4,5,6],"trees":[{"base_weights":[-4.388716E-2,8.817352E-2,-3.200469E-1,3.2450327E-1,-3.990499E-2,-4.212548E-2,5.7851234E-3,8.548672E-1,-1.6820703E-1,1.1801385E0,-0E0,-3.6103155E-2,-0E0,1.3961218E-1,-0E0,4.628099E-2,-1.2426036E-2],"categories":[],"categories_nodes":[],"categories_segments":[],"categories_sizes":[],"default_left":[0,0,0,0,0,0,0,0,0,0,0,0,0,0,0,0,0],"id":0,"left_children":[1,3,5,7,-1,-1,-1,9,11,13,-1,-1,15,-1,-1,-1,-1],"loss_changes":[1.9220761E0,3.412962E0,1.0535712E0,6.46741E0,0E0,0E0,0E0,3.8806114E0,6.159823E-1,2.0529509E0,0E0,0E0,5.8218E-1,0E0,0E0,0E0,0E0],"parents":[2147483647,0,0,1,1,2,2,3,3,7,7,8,8,9,9,12,12],"right_children":[2,4,6,8,-1,-1,-1,10,12,14,-1,-1,16,-1,-1,-1,-1],"split_conditions":[1E0,1E0,1E0,1E0,-3.990499E-2,-4.212548E-2,5.7851234E-3,1E0,1E0,1E0,-0E0,-3.6103155E-2,1E0,1.3961218E-1,-0E0,4.628099E-2,-1.2426036E-2],"split_indices":[32,57,105,111,0,0,0,36,89,96,0,0,26,0,0,0,0],"split_type":[0,0,0,0,0,0,0,0,0,0,0,0,0,0,0,0,0],"sum_hessian":[4.457143E1,2.8163267E1,1.6408165E1,2.057143E1,7.5918374E0,1.4938777E1,1.4693879E0,1.0530613E1,1.0040817E1,7.8367352E0,2.6938777E0,6.1224494E0,3.9183676E0,6.3673472E0,1.4693879E0,1.4693879E0,2.4489799E0],"tree_param":{"num_deleted":"0","num_feature":"120","num_nodes":"17","size_leaf_vector":"1"}},{"base_weights":[-1.6886665E-1,-4.460612E-1,1.853755E-1,-5.135135E-2,-0E0,-1.2426036E-2,5.7798166E-2],"categories":[],"categories_nodes":[],"categories_segments":[],"categories_sizes":[],"default_left":[0,0,0,0,0,0,0],"id":1,"left_children":[1,3,-1,-1,5,-1,-1],"loss_changes":[2.4557344E1,1.6639318E0,0E0,0E0,7.9637367E-1,0E0,0E0],"parents":[2147483647,0,0,1,1,4,4],"right_children":[2,4,-1,-1,6,-1,-1],"split_conditions":[1E0,1E0,1.853755E-1,-5.135135E-2,1E0,-1.2426036E-2,5.7798166E-2],"split_indices":[11,7,0,0,15,0,0],"split_type":[0,0,0,0,0,0,0],"sum_hessian":[4.383674E1,3.9673473E1,4.1632657E0,3.6000004E1,3.6734695E0,2.4489799E0,1.2244899E0],"tree_param":{"num_deleted":"0","num_feature":"120","num_nodes":"7","size_leaf_vector":"1"}},{"base_weights":[2.1821721E-1,-5.1741716E-2,1.1956756E0,1.7376586E0,-2.9056607E-2,2.4347825E0,-3.0567702E-3,9.032258E-1,2.8891966E-1,-0E0,1.2727273E-1],"categories":[],"categories_nodes":[],"categories_segments":[],"categories_sizes":[],"default_left":[0,0,0,0,0,0,0,0,0,0,0],"id":2,"left_children":[1,-1,3,5,-1,7,-1,9,-1,-1,-1],"loss_changes":[3.1423737E1,0E0,1.7158197E1,2.0314663E1,0E0,1.111515E0,0E0,3.8709688E-1,0E0,0E0,0E0],"parents":[2147483647,0,0,2,2,3,3,5,5,7,7],"right_children":[2,-1,4,6,-1,8,-1,10,-1,-1,-1],"split_conditions":[1E0,-5.1741716E-2,1E0,1E0,-2.9056607E-2,1E0,-3.0567702E-3,1E0,2.8891966E-1,-0E0,1.2727273E-1],"split_indices":[21,0,1,87,0,32,0,18,0,0,0],"split_type":[0,0,0,0,0,0,0,0,0,0,0],"sum_hessian":[4.089796E1,2.302041E1,1.7877552E1,1.3469389E1,4.4081635E0,9.795919E0,3.6734695E0,3.4285717E0,6.3673472E0,1.9591838E0,1.4693879E0],"tree_param":{"num_deleted":"0","num_feature":"120","num_nodes":"11","size_leaf_vector":"1"}},{"base_weights":[-3.2392582E-3,-5.419114E-2,2.845697E-1],"categories":[],"categories_nodes":[],"categories_segments":[],"categories_sizes":[],"default_left":[0,0,0],"id":3,"left_children":[1,-1,-1],"loss_changes":[6.69192E1,0E0,0E0],"parents":[2147483647,0,0],"right_children":[2,-1,-1],"split_conditions":[1E0,-5.419114E-2,2.845697E-1],"split_indices":[41,0,0],"split_type":[0,0,0],"sum_hessian":[4.3102043E1,3.722449E1,5.8775516E0],"tree_param":{"num_deleted":"0","num_feature":"120","num_nodes":"3","size_leaf_vector":"1"}},{"base_weights":[6.7732416E-2,-5.178479E-1,2.4563894E0,-5.416443E-2,-0E0,2.8965516E-2,2.8211588E-1],"categories":[],"categories_nodes":[],"categories_segments":[],"categories_sizes":[],"default_left":[0,0,0,0,0,0,0],"id":4,"left_children":[1,3,5,-1,-1,-1,-1],"loss_changes":[7.1064255E1,5.635042E-1,4.023983E0,0E0,0E0,0E0,0E0],"parents":[2147483647,0,0,1,1,2,2],"right_children":[2,4,6,-1,-1,-1,-1],"split_conditions":[1E0,1E0,1E0,-5.416443E-2,-0E0,2.8965516E-2,2.8211588E-1],"split_indices":[60,69,61,0,0,0,0],"split_type":[0,0,0,0,0,0,0],"sum_hessian":[4.751021E1,3.8448982E1,9.061225E0,3.6979595E1,1.4693879E0,1.9591838E0,7.1020412E0],"tree_param":{"num_deleted":"0","num_feature":"120","num_nodes":"7","size_leaf_vector":"1"}},{"base_weights":[4.884429E-2,-5.21217E-2,7.429094E-1,1.3921014E0,-2.9099306E-1,2.2576063E0,-2.9056607E-2,-3.7533514E-2,-0E0,-0E0,2.538106E-1],"categories":[],"categories_nodes":[],"categories_segments":[],"categories_sizes":[],"default_left":[0,0,0,0,0,0,0,0,0,0,0],"id":5,"left_children":[1,-1,3,5,7,9,-1,-1,-1,-1,-1],"loss_changes":[1.9124165E1,0E0,1.64781E1,2.3695621E1,3.2411802E-1,5.646179E0,0E0,0E0,0E0,0E0,0E0],"parents":[2147483647,0,0,2,2,3,3,4,4,5,5],"right_children":[2,-1,4,6,8,10,-1,-1,-1,-1,-1],"split_conditions":[1E0,-5.21217E-2,1E0,1E0,1E0,1E0,-2.9056607E-2,-3.7533514E-2,-0E0,-0E0,2.538106E-1],"split_indices":[80,0,101,62,38,83,0,0,0,0,0],"split_type":[0,0,0,0,0,0,0,0,0,0,0],"sum_hessian":[4.579592E1,2.4489798E1,2.1306124E1,1.3469389E1,7.8367352E0,9.061225E0,4.4081635E0,6.6122456E0,1.2244899E0,1.2244899E0,7.8367352E0],"tree_param":{"num_deleted":"0","num_feature":"120","num_nodes":"11","size_leaf_vector":"1"}},{"base_weights":[-6.303468E-2,-5.139726E-2,1.683146E0,2.166189E-1,-0E0],"categories":[],"categories_nodes":[],"categories_segments":[],"categories_sizes":[],"default_left":[0,0,0,0,0],"id":6,"left_children":[1,-1,3,-1,-1],"loss_changes":[3.538689E1,0E0,7.6931133E0,0E0,0E0],"parents":[2147483647,0,0,2,2],"right_children":[2,-1,4,-1,-1],"split_conditions":[1E0,-5.139726E-2,1E0,2.166189E-1,-0E0],"split_indices":[101,0,38,0,0],"split_type":[0,0,0,0,0],"sum_hessian":[4.4326534E1,3.62449E1,8.081634E0,6.1224494E0,1.9591838E0],"tree_param":{"num_deleted":"0","num_feature":"120","num_nodes":"5","size_leaf_vector":"1"}},{"base_weights":[-0E0,2.010407E-1,-3.570299E-2,4.2522892E-1,-3.6623824E-2,7.439199E-1,-5.1405076E-2,1.292883E0,-0E0,-2.796329E-2,2.4259917E-4,1.5965219E0,-0E0,2.0740907E-1,1.690351E-2],"categories":[],"categories_nodes":[],"categories_segments":[],"categories_sizes":[],"default_left":[0,0,0,0,0,0,0,0,0,0,0,0,0,0,0],"id":7,"left_children":[1,3,-1,5,-1,7,9,11,-1,-1,-1,13,-1,-1,-1],"loss_changes":[3.2128024E0,3.8636327E0,0E0,4.116684E0,0E0,6.5927095E0,3.8366565E-1,3.425702E0,0E0,0E0,0E0,2.2587872E0,0E0,0E0,0E0],"parents":[2147483647,0,0,1,1,3,3,5,5,6,6,7,7,11,11],"right_children":[2,4,-1,6,-1,8,10,12,-1,-1,-1,14,-1,-1,-1],"split_conditions":[1E0,1E0,-3.570299E-2,1E0,-3.6623824E-2,1E0,1E0,1E0,-0E0,-2.796329E-2,2.4259917E-4,1E0,-0E0,2.0740907E-1,1.690351E-2],"split_indices":[32,57,0,99,0,79,98,84,0,0,0,7,0,0,0],"split_type":[0,0,0,0,0,0,0,0,0,0,0,0,0,0,0],"sum_hessian":[4.279853E1,2.7691507E1,1.5107021E1,2.129066E1,6.4008465E0,1.3680655E1,7.6100063E0,7.80456E0,5.8760943E0,4.1971836E0,3.4128225E0,6.1179967E0,1.6865636E0,3.7199728E0,2.398024E0],"tree_param":{"num_deleted":"0","num_feature":"120","num_nodes":"15","size_leaf_vector":"1"}},{"base_weights":[-1.814024E-1,-4.370094E-1,1.4284804E-1,-5.2912455E-2,-0E0,-1.9022102E-2,3.384677E-2],"categories":[],"categories_nodes":[],"categories_segments":[],"categories_sizes":[],"default_left":[0,0,0,0,0,0,0],"id":8,"left_children":[1,3,-1,-1,5,-1,-1],"loss_changes":[1.7709684E1,1.4101043E0,0E0,0E0,5.598235E-1,0E0,0E0],"parents":[2147483647,0,0,1,1,4,4],"right_children":[2,4,-1,-1,6,-1,-1],"split_conditions":[1E0,1E0,1.4284804E-1,-5.2912455E-2,1E0,-1.9022102E-2,3.384677E-2],"split_indices":[10,6,0,0,9,0,0],"split_type":[0,0,0,0,0,0,0],"sum_hessian":[4.2929558E1,3.8212177E1,4.7173786E0,3.078429E1,7.4278865E0,5.6377E0,1.7901862E0],"tree_param":{"num_deleted":"0","num_feature":"120","num_nodes":"7","size_leaf_vector":"1"}},{"base_weights":[1.5692243E-1,-2.5736347E-1,1.3395033E0,-4.7654606E-2,1.5404665E-1,-1.4079395E-2,1.8102866E0,-1.4709527E-2,9.2151225E-1,2.0990825E0,-0E0,1.2154367E-1,-0E0,2.2775061E-1,1.13588E-2],"categories":[],"categories_nodes":[],"categories_segments":[],"categories_sizes":[],"default_left":[0,0,0,0,0,0,0,0,0,0,0,0,0,0,0],"id":9,"left_children":[1,3,5,-1,7,-1,9,-1,11,13,-1,-1,-1,-1,-1],"loss_changes":[2.4871386E1,3.610688E0,1.1125006E1,0E0,3.5820134E0,0E0,5.310467E0,0E0,8.589392E-1,5.704727E-1,0E0,0E0,0E0,0E0,0E0],"parents":[2147483647,0,0,1,1,2,2,4,4,6,6,8,8,9,9],"right_children":[2,4,6,-1,8,-1,10,-1,12,14,-1,-1,-1,-1,-1],"split_conditions":[1E0,1E0,1E0,-4.7654606E-2,1E0,-1.4079395E-2,1E0,-1.4709527E-2,1E0,1E0,-0E0,1.2154367E-1,-0E0,2.2775061E-1,1.13588E-2],"split_indices":[33,32,21,0,28,0,14,0,95,118,0,0,0,0,0],"split_type":[0,0,0,0,0,0,0,0,0,0,0,0,0,0,0],"sum_hessian":[4.6853104E1,3.4650856E1,1.2202247E1,2.4089363E1,1.0561492E1,2.60092E0,9.601327E0,7.229925E0,3.3315673E0,8.090135E0,1.5111921E0,2.0713341E0,1.2602332E0,6.8260007E0,1.2641342E0],"tree_param":{"num_deleted":"0","num_feature":"120","num_nodes":"15","size_leaf_vector":"1"}},{"base_weights":[-7.161239E-2,-5.3956307E-2,2.1942447E-1],"categories":[],"categories_nodes":[],"categories_segments":[],"categories_sizes":[],"default_left":[0,0,0],"id":10,"left_children":[1,-1,-1],"loss_changes":[5.041693E1,0E0,0E0],"parents":[2147483647,0,0],"right_children":[2,-1,-1],"split_conditions":[1E0,-5.3956307E-2,2.1942447E-1],"split_indices":[41,0,0],"split_type":[0,0,0],"sum_hessian":[4.6993244E1,3.994658E1,7.0466638E0],"tree_param":{"num_deleted":"0","num_feature":"120","num_nodes":"3","size_leaf_vector":"1"}},{"base_weights":[4.5723185E-2,-4.254563E-1,2.1283785E-1,-5.308683E-2,3.1122974E-1,-2.2003239E-3,1.0615901E-1],"categories":[],"categories_nodes":[],"categories_segments":[],"categories_sizes":[],"default_left":[0,0,0,0,0,0,0],"id":11,"left_children":[1,3,-1,-1,5,-1,-1],"loss_changes":[4.550196E1,3.187292E0,0E0,0E0,2.053201E0,0E0,0E0],"parents":[2147483647,0,0,1,1,4,4],"right_children":[2,4,-1,-1,6,-1,-1],"split_conditions":[1E0,1E0,2.1283785E-1,-5.308683E-2,1E0,-2.2003239E-3,1.0615901E-1],"split_indices":[75,60,0,0,62,0,0],"split_type":[0,0,0,0,0,0,0],"sum_hessian":[4.271071E1,3.508797E1,7.622737E0,3.2127655E1,2.9603143E0,1.7992538E0,1.1610603E0],"tree_param":{"num_deleted":"0","num_feature":"120","num_nodes":"7","size_leaf_vector":"1"}},{"base_weights":[6.2321495E-2,-1.8816984E-1,1.3043716E0,-4.7825682E-1,3.2982248E-1,-0E0,1.7767923E-1,-5.146391E-2,-0E0,9.3788964E-1,-3.1906337E-2,1.2843469E0,-0E0,1.4872159E-1,-0E0],"categories":[],"categories_nodes":[],"categories_segments":[],"categories_sizes":[],"default_left":[0,0,0,0,0,0,0,0,0,0,0,0,0,0,0],"id":12,"left_children":[1,3,5,7,9,-1,-1,-1,-1,11,-1,13,-1,-1,-1],"loss_changes":[1.5058832E1,5.8419E0,6.731E0,5.9295654E-1,5.8814745E0,0E0,0E0,0E0,0E0,3.4931855E0,0E0,1.0696535E0,0E0,0E0,0E0],"parents":[2147483647,0,0,1,1,2,2,3,3,4,4,9,9,11,11],"right_children":[2,4,6,8,10,-1,-1,-1,-1,12,-1,14,-1,-1,-1],"split_conditions":[1E0,1E0,1E0,1E0,1E0,-0E0,1.7767923E-1,-5.146391E-2,-0E0,1E0,-3.1906337E-2,1E0,-0E0,1.4872159E-1,-0E0],"split_indices":[92,118,91,103,100,0,0,0,0,13,0,31,0,0,0],"split_type":[0,0,0,0,0,0,0,0,0,0,0,0,0,0,0],"sum_hessian":[4.302502E1,3.5840286E1,7.1847353E0,2.4260897E1,1.157939E1,1.6416732E0,5.543062E0,2.3054329E1,1.2065676E0,6.5433617E0,5.036028E0,5.140235E0,1.4031268E0,4.0629363E0,1.0772984E0],"tree_param":{"num_deleted":"0","num_feature":"120","num_nodes":"15","size_leaf_vector":"1"}},{"base_weights":[-4.775487E-2,-5.0426967E-2,1.4337724E0,1.6026348E-1,-0E0],"categories":[],"categories_nodes":[],"categories_segments":[],"categories_sizes":[],"default_left":[0,0,0,0,0],"id":13,"left_children":[1,-1,3,-1,-1],"loss_changes":[2.9552645E1,0E0,2.0043888E0,0E0,0E0],"parents":[2147483647,0,0,2,2],"right_children":[2,-1,4,-1,-1],"split_conditions":[1E0,-5.0426967E-2,1E0,1.6026348E-1,-0E0],"split_indices":[101,0,38,0,0],"split_type":[0,0,0,0,0],"sum_hessian":[4.300032E1,3.389163E1,9.10869E0,7.871095E0,1.2375954E0],"tree_param":{"num_deleted":"0","num_feature":"120","num_nodes":"5","size_leaf_vector":"1"}},{"base_weights":[3.54611E-2,2.1847391E-1,-2.716097E-1,4.0014866E-1,-3.3908196E-2,-3.8322713E-2,1.5946807E-3,5.795668E-1,-1.2952082E-2,6.9126534E-1,-1.1283825E-3,1.0446879E0,1.2202166E-1,1.6109745E-1,2.9401276E-2,-4.6194145E-5,5.1358557E-1,9.283159E-2,-0E0],"categories":[],"categories_nodes":[],"categories_segments":[],"categories_sizes":[],"default_left":[0,0,0,0,0,0,0,0,0,0,0,0,0,0,0,0,0,0,0],"id":14,"left_children":[1,3,5,7,-1,-1,-1,9,-1,11,-1,13,15,-1,-1,-1,17,-1,-1],"loss_changes":[2.505521E0,3.2821965E0,8.552582E-1,2.8805652E0,0E0,0E0,0E0,2.0148053E0,0E0,2.3975039E0,0E0,1.9169607E0,9.567468E-1,0E0,0E0,0E0,9.377761E-1,0E0,0E0],"parents":[2147483647,0,0,1,1,2,2,3,3,7,7,9,9,11,11,12,12,16,16],"right_children":[2,4,6,8,-1,-1,-1,10,-1,12,-1,14,16,-1,-1,-1,18,-1,-1],"split_conditions":[1E0,1E0,1E0,1E0,-3.3908196E-2,-3.8322713E-2,1.5946807E-3,1E0,-1.2952082E-2,1E0,-1.1283825E-3,1E0,1E0,1.6109745E-1,2.9401276E-2,-4.6194145E-5,1E0,9.283159E-2,-0E0],"split_indices":[32,41,101,35,0,0,0,37,0,77,0,116,17,0,0,0,24,0,0],"split_type":[0,0,0,0,0,0,0,0,0,0,0,0,0,0,0,0,0,0,0],"sum_hessian":[4.3473507E1,2.9460363E1,1.4013144E1,2.3785818E1,5.674545E0,1.2360276E1,1.6528676E0,1.9107267E1,4.6785526E0,1.7349852E1,1.757414E0,9.104972E0,8.244881E0,3.7773128E0,5.3276596E0,5.0958314E0,3.149049E0,1.3581355E0,1.7909135E0],"tree_param":{"num_deleted":"0","num_feature":"120","num_nodes":"19","size_leaf_vector":"1"}},{"base_weights":[-4.0158916E-2,-4.4464448E-1,1.3285767E0,-5.1873077E-2,-0E0,1.776998E-1,-1.9247249E-3,6.320687E-2,-3.3448935E-2],"categories":[],"categories_nodes":[],"categories_segments":[],"categories_sizes":[],"default_left":[0,0,0,0,0,0,0,0,0],"id":15,"left_children":[1,3,5,-1,7,-1,-1,-1,-1],"loss_changes":[2.377274E1,7.107887E-1,7.5956E0,0E0,1.5684853E0,0E0,0E0,0E0,0E0],"parents":[2147483647,0,0,1,1,2,2,4,4],"right_children":[2,4,6,-1,8,-1,-1,-1,-1],"split_conditions":[1E0,1E0,1E0,-5.1873077E-2,1E0,1.776998E-1,-1.9247249E-3,6.320687E-2,-3.3448935E-2],"split_indices":[0,1,60,0,76,0,0,0,0],"split_type":[0,0,0,0,0,0,0,0,0],"sum_hessian":[4.246904E1,3.3866604E1,8.602436E0,2.72599E1,6.6067038E0,6.7726803E0,1.8297558E0,1.1052932E0,5.501411E0],"tree_param":{"num_deleted":"0","num_feature":"120","num_nodes":"9","size_leaf_vector":"1"}},{"base_weights":[9.1531895E-2,-4.2575974E-2,7.8871256E-1,1.1253617E0,-2.4748323E-2,1.6192369E-1,9.5558345E-2,-4.3114056E-3,6.295847E-2],"categories":[],"categories_nodes":[],"categories_segments":[],"categories_sizes":[],"default_left":[0,0,0,0,0,0,0,0,0],"id":16,"left_children":[1,-1,3,5,-1,-1,7,-1,-1],"loss_changes":[1.5835405E1,0E0,7.8020535E0,5.9058914E0,0E0,0E0,1.1078849E0,0E0,0E0],"parents":[2147483647,0,0,2,2,3,3,6,6],"right_children":[2,-1,4,6,-1,-1,8,-1,-1],"split_conditions":[1E0,-4.2575974E-2,1E0,1E0,-2.4748323E-2,1.6192369E-1,1E0,-4.3114056E-3,6.295847E-2],"split_indices":[21,0,4,118,0,0,36,0,0],"split_type":[0,0,0,0,0,0,0,0,0],"sum_hessian":[4.0970974E1,2.2919907E1,1.8051067E1,1.4288049E1,3.763019E0,8.613657E0,5.6743913E0,3.747869E0,1.9265221E0],"tree_param":{"num_deleted":"0","num_feature":"120","num_nodes":"9","size_leaf_vector":"1"}},{"base_weights":[-0E0,-5.26984E-2,1.8156815E-1],"categories":[],"categories_nodes":[],"categories_segments":[],"categories_sizes":[],"default_left":[0,0,0],"id":17,"left_children":[1,-1,-1],"loss_changes":[4.0989E1,0E0,0E0],"parents":[2147483647,0,0],"right_children":[2,-1,-1],"split_conditions":[1E0,-5.26984E-2,1.8156815E-1],"split_indices":[41,0,0],"split_type":[0,0,0],"sum_hessian":[4.1404404E1,3.2820038E1,8.584363E0],"tree_param":{"num_deleted":"0","num_feature":"120","num_nodes":"3","size_leaf_vector":"1"}},{"base_weights":[-0E0,-5.2631605E-2,1.2433739E0,-2.365712E-3,1.540306E-1],"categories":[],"categories_nodes":[],"categories_segments":[],"categories_sizes":[],"default_left":[0,0,0,0,0],"id":18,"left_children":[1,-1,3,-1,-1],"loss_changes":[2.940554E1,0E0,6.513214E0,0E0,0E0],"parents":[2147483647,0,0,2,2],"right_children":[2,-1,4,-1,-1],"split_conditions":[1E0,-5.2631605E-2,1E0,-2.365712E-3,1.540306E-1],"split_indices":[63,0,62,0,0],"split_type":[0,0,0,0,0],"sum_hessian":[4.3758102E1,3.1574062E1,1.218404E1,1.8485782E0,1.0335463E1],"tree_param":{"num_deleted":"0","num_feature":"120","num_nodes":"5","size_leaf_vector":"1"}},{"base_weights":[-1.0918278E-2,-2.221064E-1,1.10467196E-1,-3.6497247E-1,4.7790414E-1,-4.8036942E-1,-0E0,1.0743693E-1,-8.695512E-3,-5.143859E-2,-0E0,2.65841E-1,-1.6820773E-2,-0E0,6.399047E-2],"categories":[],"categories_nodes":[],"categories_segments":[],"categories_sizes":[],"default_left":[0,0,0,0,0,0,0,0,0,0,0,0,0,0,0],"id":19,"left_children":[1,3,-1,5,7,9,11,-1,-1,-1,-1,13,-1,-1,-1],"loss_changes":[1.0205451E1,4.0900507E0,0E0,1.5047746E0,3.1274176E0,5.4270554E-1,4.6784717E-1,0E0,0E0,0E0,0E0,8.839513E-1,0E0,0E0,0E0],"parents":[2147483647,0,0,1,1,3,3,4,4,5,5,6,6,11,11],"right_children":[2,4,-1,6,8,10,12,-1,-1,-1,-1,14,-1,-1,-1],"split_conditions":[1E0,1E0,1.10467196E-1,1E0,1E0,1E0,1E0,1.0743693E-1,-8.695512E-3,-5.143859E-2,-0E0,1E0,-1.6820773E-2,-0E0,6.399047E-2],"split_indices":[87,92,0,84,16,105,113,0,0,0,0,90,0,0,0],"split_type":[0,0,0,0,0,0,0,0,0,0,0,0,0,0,0],"sum_hessian":[4.5021603E1,3.928248E1,5.739123E0,3.4208076E1,5.0744033E0,2.5845222E1,8.362853E0,2.8905046E0,2.1838987E0,2.446316E1,1.3820645E0,3.1210978E0,5.2417555E0,1.2511133E0,1.8699845E0],"tree_param":{"num_deleted":"0","num_feature":"120","num_nodes":"15","size_leaf_vector":"1"}},{"base_weights":[-8.01651E-2,-5.013735E-2,1.2818987E0,-0E0,1.528155E-1],"categories":[],"categories_nodes":[],"categories_segments":[],"categories_sizes":[],"default_left":[0,0,0,0,0],"id":20,"left_children":[1,-1,3,-1,-1],"loss_changes":[2.557246E1,0E0,3.2551632E0,0E0,0E0],"parents":[2147483647,0,0,2,2],"right_children":[2,-1,4,-1,-1],"split_conditions":[1E0,-5.013735E-2,1E0,-0E0,1.528155E-1],"split_indices":[101,0,112,0,0],"split_type":[0,0,0,0,0],"sum_hessian":[4.3813854E1,3.4508446E1,9.305407E0,1.6598207E0,7.6455855E0],"tree_param":{"num_deleted":"0","num_feature":"120","num_nodes":"5","size_leaf_vector":"1"}},{"base_weights":[4.1881546E-2,2.5625026E-1,-2.4470267E-1,4.57787E-1,-3.2407533E-2,4.8034407E-2,-4.449699E-2,6.884692E-1,-2.5267381E-2,-1.0511877E-2,4.84385E-2,8.790645E-1,-0E0,1.13393895E-1,-0E0,-1.1868338E-2,3.0006114E-2],"categories":[],"categories_nodes":[],"categories_segments":[],"categories_sizes":[],"default_left":[0,0,0,0,0,0,0,0,0,0,0,0,0,0,0,0,0],"id":21,"left_children":[1,3,5,7,-1,9,-1,11,-1,-1,-1,13,15,-1,-1,-1,-1],"loss_changes":[2.6688516E0,3.3984456E0,1.3907883E0,4.1286035E0,0E0,8.052598E-1,0E0,1.885395E0,0E0,0E0,0E0,2.755619E0,3.1166983E-1,0E0,0E0,0E0,0E0],"parents":[2147483647,0,0,1,1,2,2,3,3,5,5,7,7,11,11,12,12],"right_children":[2,4,6,8,-1,10,-1,12,-1,-1,-1,14,16,-1,-1,-1,-1],"split_conditions":[1E0,1E0,1E0,1E0,-3.2407533E-2,1E0,-4.449699E-2,1E0,-2.5267381E-2,-1.0511877E-2,4.84385E-2,1E0,1E0,1.13393895E-1,-0E0,-1.1868338E-2,3.0006114E-2],"split_indices":[86,61,81,41,0,31,0,111,0,0,0,83,98,0,0,0,0],"split_type":[0,0,0,0,0,0,0,0,0,0,0,0,0,0,0,0,0],"sum_hessian":[4.123345E1,2.5645504E1,1.5587949E1,2.0470715E1,5.174789E0,4.6125116E0,1.0975437E1,1.6539072E1,3.9316423E0,2.2797208E0,2.3327906E0,1.2197905E1,4.3411684E0,9.074802E0,3.123102E0,2.4136236E0,1.9275448E0],"tree_param":{"num_deleted":"0","num_feature":"120","num_nodes":"17","size_leaf_vector":"1"}},{"base_weights":[-1.2722401E-1,-4.4285202E-1,1.0406171E0,-4.9503494E-2,9.361299E-3,-0E0,1.3936844E-1],"categories":[],"categories_nodes":[],"categories_segments":[],"categories_sizes":[],"default_left":[0,0,0,0,0,0,0],"id":22,"left_children":[1,3,5,-1,-1,-1,-1],"loss_changes":[1.5693026E1,1.4327173E0,4.4770765E0,0E0,0E0,0E0,0E0],"parents":[2147483647,0,0,1,1,2,2],"right_children":[2,4,6,-1,-1,-1,-1],"split_conditions":[1E0,1E0,1E0,-4.9503494E-2,9.361299E-3,-0E0,1.3936844E-1],"split_indices":[0,10,12,0,0,0,0],"split_type":[0,0,0,0,0,0,0],"sum_hessian":[4.1945763E1,3.4184044E1,7.7617164E0,3.292286E1,1.2611845E0,1.5719962E0,6.18972E0],"tree_param":{"num_deleted":"0","num_feature":"120","num_nodes":"7","size_leaf_vector":"1"}},{"base_weights":[2.4082008E-1,-4.2332593E-2,9.4574094E-1,1.3102168E0,-2.9498702E-2,1.67913E-1,-2.2140502E-3],"categories":[],"categories_nodes":[],"categories_segments":[],"categories_sizes":[],"default_left":[0,0,0,0,0,0,0],"id":23,"left_children":[1,-1,3,5,-1,-1,-1],"loss_changes":[2.2885693E1,0E0,1.2163168E1,1.1131699E1,0E0,0E0,0E0],"parents":[2147483647,0,0,2,2,3,3],"right_children":[2,-1,4,6,-1,-1,-1],"split_conditions":[1E0,-4.2332593E-2,1E0,1E0,-2.9498702E-2,1.67913E-1,-2.2140502E-3],"split_indices":[21,0,3,87,0,0,0],"split_type":[0,0,0,0,0,0,0],"sum_hessian":[4.5912243E1,2.311508E1,2.2797161E1,1.8200546E1,4.5966153E0,1.46378E1,3.5627453E0],"tree_param":{"num_deleted":"0","num_feature":"120","num_nodes":"7","size_leaf_vector":"1"}},{"base_weights":[-6.559014E-2,-5.2334584E-2,1.509109E-1],"categories":[],"categories_nodes":[],"categories_segments":[],"categories_sizes":[],"default_left":[0,0,0],"id":24,"left_children":[1,-1,-1],"loss_changes":[3.0651663E1,0E0,0E0],"parents":[2147483647,0,0],"right_children":[2,-1,-1],"split_conditions":[1E0,-5.2334584E-2,1.509109E-1],"split_indices":[40,0,0],"split_type":[0,0,0],"sum_hessian":[4.1794765E1,3.3390923E1,8.403847E0],"tree_param":{"num_deleted":"0","num_feature":"120","num_nodes":"3","size_leaf_vector":"1"}},{"base_weights":[1.0487184E-1,-4.8802036E-1,1.3909804E0,-5.1737398E-2,-0E0,-0E0,1.5334558E-1],"categories":[],"categories_nodes":[],"categories_segments":[],"categories_sizes":[],"default_left":[0,0,0,0,0,0,0],"id":25,"left_children":[1,3,5,-1,-1,-1,-1],"loss_changes":[3.57869E1,5.795083E-1,3.8654652E0,0E0,0E0,0E0,0E0],"parents":[2147483647,0,0,1,1,2,2],"right_children":[2,4,6,-1,-1,-1,-1],"split_conditions":[1E0,1E0,1E0,-5.1737398E-2,-0E0,-0E0,1.5334558E-1],"split_indices":[60,72,70,0,0,0,0],"split_type":[0,0,0,0,0,0,0],"sum_hessian":[4.3857773E1,2.9911615E1,1.394616E1,2.866849E1,1.2431245E0,1.0044761E0,1.2941684E1],"tree_param":{"num_deleted":"0","num_feature":"120","num_nodes":"7","size_leaf_vector":"1"}},{"base_weights":[-0E0,-4.731771E-2,6.2278473E-1,9.788061E-1,-1.6240863E-2,1.4092679E0,-0E0,1.5488005E-1,-0E0,-1.6636943E-2,2.9688453E-2],"categories":[],"categories_nodes":[],"categories_segments":[],"categories_sizes":[],"default_left":[0,0,0,0,0,0,0,0,0,0,0],"id":26,"left_children":[1,-1,3,5,-1,7,9,-1,-1,-1,-1],"loss_changes":[1.3358282E1,0E0,6.530591E0,5.894595E0,0E0,1.4839573E0,3.5514486E-1,0E0,0E0,0E0,0E0],"parents":[2147483647,0,0,2,2,3,3,5,5,6,6],"right_children":[2,-1,4,6,-1,8,10,-1,-1,-1,-1],"split_conditions":[1E0,-4.731771E-2,1E0,1E0,-1.6240863E-2,1E0,1E0,1.5488005E-1,-0E0,-1.6636943E-2,2.9688453E-2],"split_indices":[82,0,101,33,0,15,88,0,0,0,0],"split_type":[0,0,0,0,0,0,0,0,0,0,0],"sum_hessian":[4.3109787E1,2.4237442E1,1.8872345E1,1.3691401E1,5.180945E0,9.055135E0,4.6362667E0,7.9436255E0,1.111509E0,2.8004007E0,1.8358657E0],"tree_param":{"num_deleted":"0","num_feature":"120","num_nodes":"11","size_leaf_vector":"1"}},{"base_weights":[-0E0,-4.9232204E-2,1.255428E0,1.3538756E-3,1.5568988E-1],"categories":[],"categories_nodes":[],"categories_segments":[],"categories_sizes":[],"default_left":[0,0,0,0,0],"id":27,"left_children":[1,-1,3,-1,-1],"loss_changes":[2.7658396E1,0E0,3.068386E0,0E0,0E0],"parents":[2147483647,0,0,2,2],"right_children":[2,-1,4,-1,-1],"split_conditions":[1E0,-4.9232204E-2,1E0,1.3538756E-3,1.5568988E-1],"split_indices":[100,0,111,0,0],"split_type":[0,0,0,0,0],"sum_hessian":[4.362328E1,3.2176735E1,1.1446541E1,3.0879433E0,8.358598E0],"tree_param":{"num_deleted":"0","num_feature":"120","num_nodes":"5","size_leaf_vector":"1"}},{"base_weights":[-0E0,1.20633736E-1,-2.3453763E-1,2.826626E-1,-3.3647995E-2,-3.8994428E-2,1.8074773E-2,5.079346E-1,-3.1826925E-2,7.681814E-1,-0E0,9.795301E-2,-0E0,-1.1580158E-2,2.36378E-2],"categories":[],"categories_nodes":[],"categories_segments":[],"categories_sizes":[],"default_left":[0,0,0,0,0,0,0,0,0,0,0,0,0,0,0],"id":28,"left_children":[1,3,5,7,-1,-1,-1,9,-1,11,13,-1,-1,-1,-1],"loss_changes":[1.3310292E0,2.2783887E0,1.3256106E0,3.6623387E0,0E0,0E0,0E0,2.4825325E0,0E0,1.2422113E0,2.5077492E-1,0E0,0E0,0E0,0E0],"parents":[2147483647,0,0,1,1,2,2,3,3,7,7,9,9,10,10],"right_children":[2,4,6,8,-1,-1,-1,10,-1,12,14,-1,-1,-1,-1],"split_conditions":[1E0,1E0,1E0,1E0,-3.3647995E-2,-3.8994428E-2,1.8074773E-2,1E0,-3.1826925E-2,1E0,1E0,9.795301E-2,-0E0,-1.1580158E-2,2.36378E-2],"split_indices":[22,59,65,61,0,0,0,111,0,21,110,0,0,0,0],"split_type":[0,0,0,0,0,0,0,0,0,0,0,0,0,0,0],"sum_hessian":[4.441068E1,2.9204247E1,1.5206432E1,2.345843E1,5.745816E0,1.2862191E1,2.3442411E0,1.8385191E1,5.07324E0,1.1682308E1,6.702882E0,8.094598E0,3.587711E0,4.5456786E0,2.157203E0],"tree_param":{"num_deleted":"0","num_feature":"120","num_nodes":"15","size_leaf_vector":"1"}},{"base_weights":[-1.2953043E-1,-4.435203E-1,1.2435905E0,-4.8699692E-2,-0E0,1.4068441E-1,-0E0],"categories":[],"categories_nodes":[],"categories_segments":[],"categories_sizes":[],"default_left":[0,0,0,0,0,0,0],"id":29,"left_children":[1,3,5,-1,-1,-1,-1],"loss_changes":[1.8308035E1,5.438514E-1,1.1653042E0,0E0,0E0,0E0,0E0],"parents":[2147483647,0,0,1,1,2,2],"right_children":[2,4,6,-1,-1,-1,-1],"split_conditions":[1E0,1E0,1E0,-4.8699692E-2,-0E0,1.4068441E-1,-0E0],"split_indices":[10,12,72,0,0,0,0],"split_type":[0,0,0,0,0,0,0],"sum_hessian":[4.204005E1,3.5359665E1,6.680385E0,3.1450565E1,3.9090998E0,5.5900793E0,1.0903057E0],"tree_param":{"num_deleted":"0","num_feature":"120","num_nodes":"7","size_leaf_vector":"1"}},{"base_weights":[9.735779E-2,-4.5278635E-2,6.270717E-1,8.3720255E-1,-2.3683762E-2,1.1798036E0,-0E0,3.5938117E-1,1.4234844E-1,4.7072597E-2,-2.7227445E-2,-0E0,6.7776597E-1,-0E0,8.551818E-2],"categories":[],"categories_nodes":[],"categories_segments":[],"categories_sizes":[],"default_left":[0,0,0,0,0,0,0,0,0,0,0,0,0,0,0],"id":30,"left_children":[1,-1,3,5,-1,7,9,11,-1,-1,-1,-1,13,-1,-1],"loss_changes":[1.3873633E1,0E0,5.30037E0,5.8607416E0,0E0,6.71278E-1,1.0912203E0,1.2292504E0,0E0,0E0,0E0,0E0,2.9565978E-1,0E0,0E0],"parents":[2147483647,0,0,2,2,3,3,5,5,6,6,7,7,12,12],"right_children":[2,-1,4,6,-1,8,10,12,-1,-1,-1,-1,14,-1,-1],"split_conditions":[1E0,-4.5278635E-2,1E0,1E0,-2.3683762E-2,1E0,1E0,1E0,1.4234844E-1,4.7072597E-2,-2.7227445E-2,-0E0,1E0,-0E0,8.551818E-2],"split_indices":[20,0,1,84,0,32,118,36,0,0,0,0,82,0,0],"split_type":[0,0,0,0,0,0,0,0,0,0,0,0,0,0,0],"sum_hessian":[4.503482E1,2.1236586E1,2.3798235E1,2.0098152E1,3.7000823E0,1.3834444E1,6.263708E0,4.674592E0,9.159852E0,2.2458818E0,4.017826E0,1.4031646E0,3.2714272E0,1.1841851E0,2.0872421E0],"tree_param":{"num_deleted":"0","num_feature":"120","num_nodes":"15","size_leaf_vector":"1"}},{"base_weights":[-5.6972974E-3,-5.1594943E-2,1.353414E-1],"categories":[],"categories_nodes":[],"categories_segments":[],"categories_sizes":[],"default_left":[0,0,0],"id":31,"left_children":[1,-1,-1],"loss_changes":[2.9438051E1,0E0,0E0],"parents":[2147483647,0,0],"right_children":[2,-1,-1],"split_conditions":[1E0,-5.1594943E-2,1.353414E-1],"split_indices":[43,0,0],"split_type":[0,0,0],"sum_hessian":[4.1649857E1,3.1267302E1,1.0382553E1],"tree_param":{"num_deleted":"0","num_feature":"120","num_nodes":"3","size_leaf_vector":"1"}},{"base_weights":[8.528872E-3,-4.6276498E-1,1.3629591E-1,-5.150194E-2,-0E0],"categories":[],"categories_nodes":[],"categories_segments":[],"categories_sizes":[],"default_left":[0,0,0,0,0],"id":32,"left_children":[1,3,-1,-1,-1],"loss_changes":[2.9172354E1,9.831028E-1,0E0,0E0,0E0],"parents":[2147483647,0,0,1,1],"right_children":[2,4,-1,-1,-1],"split_conditions":[1E0,1E0,1.3629591E-1,-5.150194E-2,-0E0],"split_indices":[61,69,0,0,0],"split_type":[0,0,0,0,0],"sum_hessian":[4.2302414E1,3.1323097E1,1.0979316E1,2.8803164E1,2.5199344E0],"tree_param":{"num_deleted":"0","num_feature":"120","num_nodes":"5","size_leaf_vector":"1"}},{"base_weights":[-0E0,-2.6218608E-1,1.0231327E0,-4.92569E-2,-0E0,1.2955941E-1,-0E0,3.2009715E-1,-2.6474087E-2,6.95901E-1,-1.5662037E-2,-0E0,1.0917883E-1],"categories":[],"categories_nodes":[],"categories_segments":[],"categories_sizes":[],"default_left":[0,0,0,0,0,0,0,0,0,0,0,0,0],"id":33,"left_children":[1,3,5,-1,7,-1,-1,9,-1,11,-1,-1,-1],"loss_changes":[1.16071615E1,2.5551393E0,3.3850746E0,0E0,1.5218256E0,0E0,0E0,2.2914119E0,0E0,2.0548868E0,0E0,0E0,0E0],"parents":[2147483647,0,0,1,1,2,2,4,4,7,7,9,9],"right_children":[2,4,6,-1,8,-1,-1,10,-1,12,-1,-1,-1],"split_conditions":[1E0,1E0,1E0,-4.92569E-2,1E0,1.2955941E-1,-0E0,1E0,-2.6474087E-2,1E0,-1.5662037E-2,-0E0,1.0917883E-1],"split_indices":[87,80,100,0,107,0,0,15,0,90,0,0,0],"split_type":[0,0,0,0,0,0,0,0,0,0,0,0,0],"sum_hessian":[4.2994785E1,3.5289635E1,7.705151E0,1.981303E1,1.54766035E1,6.4454303E0,1.2597209E0,8.171748E0,7.304855E0,5.4854136E0,2.6863346E0,2.1266696E0,3.358744E0],"tree_param":{"num_deleted":"0","num_feature":"120","num_nodes":"13","size_leaf_vector":"1"}},{"base_weights":[-1.7007744E-2,-5.126607E-2,9.0577483E-1,-7.6357173E-3,1.146303E0,1.2200364E-1,-0E0],"categories":[],"categories_nodes":[],"categories_segments":[],"categories_sizes":[],"default_left":[0,0,0,0,0,0,0],"id":34,"left_children":[1,-1,3,-1,5,-1,-1],"loss_changes":[2.0209208E1,0E0,4.7107944E0,0E0,7.117977E-1,0E0,0E0],"parents":[2147483647,0,0,2,2,4,4],"right_children":[2,-1,4,-1,6,-1,-1],"split_conditions":[1E0,-5.126607E-2,1E0,-7.6357173E-3,1E0,1.2200364E-1,-0E0],"split_indices":[101,0,107,0,24,0,0],"split_type":[0,0,0,0,0,0,0],"sum_hessian":[4.3028973E1,2.8987225E1,1.4041749E1,2.0787532E0,1.1962996E1,1.0921699E1,1.0412971E0],"tree_param":{"num_deleted":"0","num_feature":"120","num_nodes":"7","size_leaf_vector":"1"}},{"base_weights":[-0E0,1.4347354E-1,-2.5530297E-1,2.9870623E-1,-3.2391082E-2,-3.726084E-2,2.1139556E-3,5.107254E-1,-3.0754521E-2,8.2329684E-1,-2.9227862E-2,9.964195E-1,-0E0,1.1742892E-1,6.045006E-3,-1.2806664E-2,6.376376E-2],"categories":[],"categories_nodes":[],"categories_segments":[],"categories_sizes":[],"default_left":[0,0,0,0,0,0,0,0,0,0,0,0,0,0,0,0,0],"id":35,"left_children":[1,3,5,7,-1,-1,-1,9,-1,11,-1,13,15,-1,-1,-1,-1],"loss_changes":[1.552891E0,2.2882688E0,8.190393E-1,3.5816152E0,0E0,0E0,0E0,5.833249E0,0E0,1.3485241E0,0E0,7.018547E-1,9.114026E-1,0E0,0E0,0E0,0E0],"parents":[2147483647,0,0,1,1,2,2,3,3,7,7,9,9,11,11,12,12],"right_children":[2,4,6,8,-1,-1,-1,10,-1,12,-1,14,16,-1,-1,-1,-1],"split_conditions":[1E0,1E0,1E0,1E0,-3.2391082E-2,-3.726084E-2,2.1139556E-3,1E0,-3.0754521E-2,1E0,-2.9227862E-2,1E0,1E0,1.1742892E-1,6.045006E-3,-1.2806664E-2,6.376376E-2],"split_indices":[39,57,109,61,0,0,0,103,0,88,0,112,115,0,0,0,0],"split_type":[0,0,0,0,0,0,0,0,0,0,0,0,0,0,0,0,0],"sum_hessian":[4.27287E1,2.9552967E1,1.3175732E1,2.4061777E1,5.49119E0,1.154588E1,1.6298517E0,1.9166046E1,4.89573E0,1.4674149E1,4.4918985E0,1.1058938E1,3.6152105E0,8.18117E0,2.8777676E0,2.5153959E0,1.0998149E0],"tree_param":{"num_deleted":"0","num_feature":"120","num_nodes":"17","size_leaf_vector":"1"}},{"base_weights":[-9.3527764E-2,-3.703338E-1,1.0370054E-1,-4.7750484E-2,2.1912424E-1,6.997614E-2,-0E0],"categories":[],"categories_nodes":[],"categories_segments":[],"categories_sizes":[],"default_left":[0,0,0,0,0,0,0],"id":36,"left_children":[1,3,-1,-1,5,-1,-1],"loss_changes":[1.2114811E1,2.4648771E0,0E0,0E0,1.1175154E0,0E0,0E0],"parents":[2147483647,0,0,1,1,4,4],"right_children":[2,4,-1,-1,6,-1,-1],"split_conditions":[1E0,1E0,1.0370054E-1,-4.7750484E-2,1E0,6.997614E-2,-0E0],"split_indices":[10,0,0,0,72,0,0],"split_type":[0,0,0,0,0,0,0],"sum_hessian":[3.8616245E1,3.227164E1,6.344603E0,2.8903088E1,3.368554E0,1.7105688E0,1.6579853E0],"tree_param":{"num_deleted":"0","num_feature":"120","num_nodes":"7","size_leaf_vector":"1"}},{"base_weights":[6.6146865E-2,-4.0288505E-1,7.8053916E-1,-4.946898E-2,-0E0,1.1481228E0,-1.2842134E-2,2.9056504E-2,-1.3623849E-2,1.2462666E-1,-0E0],"categories":[],"categories_nodes":[],"categories_segments":[],"categories_sizes":[],"default_left":[0,0,0,0,0,0,0,0,0,0,0],"id":37,"left_children":[1,3,5,-1,7,9,-1,-1,-1,-1,-1],"loss_changes":[1.5588136E1,1.1441026E0,7.450225E0,0E0,2.987494E-1,1.3824844E0,0E0,0E0,0E0,0E0,0E0],"parents":[2147483647,0,0,1,1,2,2,4,4,5,5],"right_children":[2,4,6,-1,8,10,-1,-1,-1,-1,-1],"split_conditions":[1E0,1E0,1E0,-4.946898E-2,1E0,1E0,-1.2842134E-2,2.9056504E-2,-1.3623849E-2,1.2462666E-1,-0E0],"split_indices":[22,31,111,0,93,19,0,0,0,0,0],"split_type":[0,0,0,0,0,0,0,0,0,0,0],"sum_hessian":[4.3456055E1,2.5651138E1,1.7804918E1,2.1352335E1,4.2988033E0,1.3273968E1,4.53095E0,1.7606759E0,2.5381272E0,1.2004428E1,1.2695391E0],"tree_param":{"num_deleted":"0","num_feature":"120","num_nodes":"11","size_leaf_vector":"1"}},{"base_weights":[-6.0182507E-3,-5.099642E-2,1.2038449E-1],"categories":[],"categories_nodes":[],"categories_segments":[],"categories_sizes":[],"default_left":[0,0,0],"id":38,"left_children":[1,-1,-1],"loss_changes":[2.5406708E1,0E0,0E0],"parents":[2147483647,0,0],"right_children":[2,-1,-1],"split_conditions":[1E0,-5.099642E-2,1.2038449E-1],"split_indices":[40,0,0],"split_type":[0,0,0],"sum_hessian":[4.08016E1,2.9795767E1,1.10058365E1],"tree_param":{"num_deleted":"0","num_feature":"120","num_nodes":"3","size_leaf_vector":"1"}},{"base_weights":[-0E0,-4.7347674E-1,1.0250411E0,-5.0449748E-2,-0E0,1.1940802E0,-0E0,-0E0,1.309372E-1],"categories":[],"categories_nodes":[],"categories_segments":[],"categories_sizes":[],"default_left":[0,0,0,0,0,0,0,0,0],"id":39,"left_children":[1,3,5,-1,-1,7,-1,-1,-1],"loss_changes":[1.9997164E1,4.447508E-1,3.111187E0,0E0,0E0,1.3519459E0,0E0,0E0,0E0],"parents":[2147483647,0,0,1,1,2,2,5,5],"right_children":[2,4,6,-1,-1,8,-1,-1,-1],"split_conditions":[1E0,1E0,1E0,-5.0449748E-2,-0E0,1E0,-0E0,-0E0,1.309372E-1],"split_indices":[64,68,10,0,0,78,0,0,0],"split_type":[0,0,0,0,0,0,0,0,0],"sum_hessian":[3.9088318E1,2.7038597E1,1.2049723E1,2.5443937E1,1.59466E0,1.0798517E1,1.2512058E0,1.1977174E0,9.6008E0],"tree_param":{"num_deleted":"0","num_feature":"120","num_nodes":"9","size_leaf_vector":"1"}},{"base_weights":[-0E0,-3.68901E-1,5.644927E-1,-4.6558075E-2,2.9171376E-2,8.331617E-1,-2.0822784E-2,1.0256467E0,-0E0,1.1250273E-1,-0E0],"categories":[],"categories_nodes":[],"categories_segments":[],"categories_sizes":[],"default_left":[0,0,0,0,0,0,0,0,0,0,0],"id":40,"left_children":[1,3,5,-1,-1,7,-1,9,-1,-1,-1],"loss_changes":[9.11773E0,2.0445168E0,4.3304067E0,0E0,0E0,3.1797762E0,0E0,2.8543758E-1,0E0,0E0,0E0],"parents":[2147483647,0,0,1,1,2,2,5,5,7,7],"right_children":[2,4,6,-1,-1,8,-1,10,-1,-1,-1],"split_conditions":[1E0,1E0,1E0,-4.6558075E-2,2.9171376E-2,1E0,-2.0822784E-2,1E0,-0E0,1.1250273E-1,-0E0],"split_indices":[118,117,110,0,0,62,0,15,0,0,0],"split_type":[0,0,0,0,0,0,0,0,0,0,0],"sum_hessian":[4.2175705E1,2.616278E1,1.6012924E1,2.440075E1,1.7620311E0,1.2783953E1,3.2289712E0,1.1118455E1,1.6654978E0,9.297542E0,1.8209134E0],"tree_param":{"num_deleted":"0","num_feature":"120","num_nodes":"11","size_leaf_vector":"1"}},{"base_weights":[-1.785099E-2,-4.7640584E-2,9.574936E-1,-0E0,1.1576561E-1],"categories":[],"categories_nodes":[],"categories_segments":[],"categories_sizes":[],"default_left":[0,0,0,0,0],"id":41,"left_children":[1,-1,3,-1,-1],"loss_changes":[1.8877632E1,0E0,3.5495338E0,0E0,0E0],"parents":[2147483647,0,0,2,2],"right_children":[2,-1,4,-1,-1],"split_conditions":[1E0,-4.7640584E-2,1E0,-0E0,1.1576561E-1],"split_indices":[101,0,107,0,0],"split_type":[0,0,0,0,0],"sum_hessian":[4.1264076E1,2.9113361E1,1.2150715E1,1.5058795E0,1.0644835E1],"tree_param":{"num_deleted":"0","num_feature":"120","num_nodes":"5","size_leaf_vector":"1"}},{"base_weights":[1.0175431E-2,1.9187698E-1,-3.2635584E-2,3.3196488E-1,-3.0281851E-2,5.48456E-1,-6.4214985E-3,7.31228E-1,-0E0,1.0911962E-1,3.233773E-2,-8.049811E-3,5.1065493E-2],"categories":[],"categories_nodes":[],"categories_segments":[],"categories_sizes":[],"default_left":[0,0,0,0,0,0,0,0,0,0,0,0,0],"id":42,"left_children":[1,3,-1,5,-1,7,-1,9,-1,-1,11,-1,-1],"loss_changes":[2.714973E0,2.3580391E0,0E0,2.844773E0,0E0,2.2547884E0,0E0,2.6291351E0,0E0,0E0,8.541164E-1,0E0,0E0],"parents":[2147483647,0,0,1,1,3,3,5,5,7,7,10,10],"right_children":[2,4,-1,6,-1,8,-1,10,-1,-1,12,-1,-1],"split_conditions":[1E0,1E0,-3.2635584E-2,1E0,-3.0281851E-2,1E0,-6.4214985E-3,1E0,-0E0,1.0911962E-1,1E0,-8.049811E-3,5.1065493E-2],"split_indices":[32,41,0,86,0,111,0,8,0,0,85,0,0],"split_type":[0,0,0,0,0,0,0,0,0,0,0,0,0],"sum_hessian":[4.4575E1,3.1154985E1,1.3420015E1,2.611121E1,5.043777E0,1.8268303E1,7.842907E0,1.405677E1,4.211532E0,7.9631367E0,6.0936337E0,3.911862E0,2.181772E0],"tree_param":{"num_deleted":"0","num_feature":"120","num_nodes":"13","size_leaf_vector":"1"}},{"base_weights":[-1.3830025E-1,-3.8526243E-1,8.214956E-2,-4.6553046E-2,-0E0,-4.3848017E-3,3.8823795E-2],"categories":[],"categories_nodes":[],"categories_segments":[],"categories_sizes":[],"default_left":[0,0,0,0,0,0,0],"id":43,"left_children":[1,3,-1,-1,5,-1,-1],"loss_changes":[8.603723E0,1.3533778E0,0E0,0E0,3.8988784E-1,0E0,0E0],"parents":[2147483647,0,0,1,1,4,4],"right_children":[2,4,-1,-1,6,-1,-1],"split_conditions":[1E0,1E0,8.214956E-2,-4.6553046E-2,1E0,-4.3848017E-3,3.8823795E-2],"split_indices":[11,12,0,0,114,0,0],"split_type":[0,0,0,0,0,0,0],"sum_hessian":[3.58027E1,2.9780466E1,6.022234E0,2.6325916E1,3.45455E0,1.9049184E0,1.5496317E0],"tree_param":{"num_deleted":"0","num_feature":"120","num_nodes":"7","size_leaf_vector":"1"}},{"base_weights":[1.1005599E-1,-1.5937708E-1,7.3322415E-1,-4.098283E-2,6.652649E-2,-0E0,1.0056209E-1,5.516215E-1,-3.678901E-2,-0E0,8.7182365E-2],"categories":[],"categories_nodes":[],"categories_segments":[],"categories_sizes":[],"default_left":[0,0,0,0,0,0,0,0,0,0,0],"id":44,"left_children":[1,3,5,-1,7,-1,-1,9,-1,-1,-1],"loss_changes":[8.253538E0,2.1328464E0,2.7141533E0,0E0,3.5766592E0,0E0,0E0,1.5389755E0,0E0,0E0,0E0],"parents":[2147483647,0,0,1,1,2,2,4,4,7,7],"right_children":[2,4,6,-1,8,-1,-1,10,-1,-1,-1],"split_conditions":[1E0,1E0,1E0,-4.098283E-2,1E0,-0E0,1.0056209E-1,1E0,-3.678901E-2,-0E0,8.7182365E-2],"split_indices":[33,26,22,0,84,0,0,99,0,0,0],"split_type":[0,0,0,0,0,0,0,0,0,0,0],"sum_hessian":[4.40431E1,3.0147894E1,1.3895205E1,1.6010319E1,1.4137575E1,4.2926497E0,9.602554E0,7.639265E0,6.4983106E0,3.1558897E0,4.483375E0],"tree_param":{"num_deleted":"0","num_feature":"120","num_nodes":"11","size_leaf_vector":"1"}},{"base_weights":[-3.5524305E-2,-5.0135504E-2,1.0600042E-1],"categories":[],"categories_nodes":[],"categories_segments":[],"categories_sizes":[],"default_left":[0,0,0],"id":45,"left_children":[1,-1,-1],"loss_changes":[1.9400333E1,0E0,0E0],"parents":[2147483647,0,0],"right_children":[2,-1,-1],"split_conditions":[1E0,-5.0135504E-2,1.0600042E-1],"split_indices":[47,0,0],"split_type":[0,0,0],"sum_hessian":[3.7068527E1,2.7030169E1,1.0038361E1],"tree_param":{"num_deleted":"0","num_feature":"120","num_nodes":"3","size_leaf_vector":"1"}},{"base_weights":[-0E0,-4.828779E-2,1.0503762E0,-0E0,1.1215202E-1],"categories":[],"categories_nodes":[],"categories_segments":[],"categories_sizes":[],"default_left":[0,0,0,0,0],"id":46,"left_children":[1,-1,3,-1,-1],"loss_changes":[2.226312E1,0E0,7.4332714E-1,0E0,0E0],"parents":[2147483647,0,0,2,2],"right_children":[2,-1,4,-1,-1],"split_conditions":[1E0,-4.828779E-2,1E0,-0E0,1.1215202E-1],"split_indices":[61,0,74,0,0],"split_type":[0,0,0,0,0],"sum_hessian":[4.2745888E1,3.0150423E1,1.2595467E1,1.0791855E0,1.1516281E1],"tree_param":{"num_deleted":"0","num_feature":"120","num_nodes":"5","size_leaf_vector":"1"}},{"base_weights":[-3.8773157E-2,-2.7671883E-1,8.7451535E-1,-4.221077E-1,-0E0,1.0214194E-1,-0E0,-4.5810435E-2,-0E0,3.7822926E-1,-1.8222325E-2,-0E0,5.502615E-2],"categories":[],"categories_nodes":[],"categories_segments":[],"categories_sizes":[],"default_left":[0,0,0,0,0,0,0,0,0,0,0,0,0],"id":47,"left_children":[1,3,5,7,9,-1,-1,-1,-1,11,-1,-1,-1],"loss_changes":[8.662465E0,1.7535772E0,8.6143017E-1,5.6987524E-1,9.8621976E-1,0E0,0E0,0E0,0E0,3.6105162E-1,0E0,0E0,0E0],"parents":[2147483647,0,0,1,1,2,2,3,3,4,4,9,9],"right_children":[2,4,6,8,10,-1,-1,-1,-1,12,-1,-1,-1],"split_conditions":[1E0,1E0,1E0,1E0,1E0,1.0214194E-1,-0E0,-4.5810435E-2,-0E0,1E0,-1.8222325E-2,-0E0,5.502615E-2],"split_indices":[87,84,113,102,115,0,0,0,0,116,0,0,0],"split_type":[0,0,0,0,0,0,0,0,0,0,0,0,0],"sum_hessian":[4.0498966E1,3.3549915E1,6.94905E0,2.3690224E1,9.859692E0,5.6526384E0,1.2964115E0,2.2677992E1,1.0122321E0,4.392844E0,5.4668474E0,1.6524751E0,2.7403688E0],"tree_param":{"num_deleted":"0","num_feature":"120","num_nodes":"13","size_leaf_vector":"1"}},{"base_weights":[-5.156854E-2,-4.6937287E-2,8.2462883E-1,9.757257E-2,-0E0],"categories":[],"categories_nodes":[],"categories_segments":[],"categories_sizes":[],"default_left":[0,0,0,0,0],"id":48,"left_children":[1,-1,3,-1,-1],"loss_changes":[1.494666E1,0E0,1.7774677E0,0E0,0E0],"parents":[2147483647,0,0,2,2],"right_children":[2,-1,4,-1,-1],"split_conditions":[1E0,-4.6937287E-2,1E0,9.757257E-2,-0E0],"split_indices":[100,0,20,0,0],"split_type":[0,0,0,0,0],"sum_hessian":[3.9742176E1,2.79975E1,1.1744674E1,9.970128E0,1.7745458E0],"tree_param":{"num_deleted":"0","num_feature":"120","num_nodes":"5","size_leaf_vector":"1"}},{"base_weights":[1.2712663E-2,1.07272476E-1,-3.623004E-2,3.186505E-1,-1.14201866E-1,4.7213632E-1,-2.0887269E-2,9.886507E-2,-4.0951263E-2,5.9833825E-1,-0E0,3.7248158E-1,-2.9987127E-3,7.039479E-1,-0E0,7.597905E-2,-0E0,8.790468E-2,-0E0],"categories":[],"categories_nodes":[],"categories_segments":[],"categories_sizes":[],"default_left":[0,0,0,0,0,0,0,0,0,0,0,0,0,0,0,0,0,0,0],"id":49,"left_children":[1,3,-1,5,7,9,-1,11,-1,13,-1,15,-1,17,-1,-1,-1,-1,-1],"loss_changes":[1.4355493E0,2.118094E0,0E0,2.2315414E0,1.4842172E0,7.535424E-1,0E0,6.815158E-1,0E0,6.1265707E-1,0E0,1.5183996E0,0E0,1.0966239E0,0E0,0E0,0E0,0E0,0E0],"parents":[2147483647,0,0,1,1,3,3,4,4,5,5,7,7,9,9,11,11,13,13],"right_children":[2,4,-1,6,8,10,-1,12,-1,14,-1,16,-1,18,-1,-1,-1,-1,-1],"split_conditions":[1E0,1E0,-3.623004E-2,1E0,1E0,1E0,-2.0887269E-2,1E0,-4.0951263E-2,1E0,-0E0,1E0,-2.9987127E-3,1E0,-0E0,7.597905E-2,-0E0,8.790468E-2,-0E0],"split_indices":[61,26,0,58,99,15,0,81,0,108,0,15,0,117,0,0,0,0,0],"split_type":[0,0,0,0,0,0,0,0,0,0,0,0,0,0,0,0,0,0,0],"sum_hessian":[4.5578064E1,3.9099594E1,6.478468E0,2.2091553E1,1.7008041E1,1.8662298E1,3.4292543E0,8.299151E0,8.708891E0,1.334747E1,5.3148284E0,4.536339E0,3.7628121E0,1.0601778E1,2.7456918E0,2.9608493E0,1.5754894E0,7.859317E0,2.7424617E0],"tree_param":{"num_deleted":"0","num_feature":"120","num_nodes":"19","size_leaf_vector":"1"}},{"base_weights":[-1.05296485E-1,-4.1183746E-1,9.093272E-2,-4.663128E-2,-0E0],"categories":[],"categories_nodes":[],"categories_segments":[],"categories_sizes":[],"default_left":[0,0,0,0,0],"id":50,"left_children":[1,3,-1,-1,-1],"loss_changes":[1.1628482E1,1.0278172E0,0E0,0E0,0E0],"parents":[2147483647,0,0,1,1],"right_children":[2,4,-1,-1,-1],"split_conditions":[1E0,1E0,9.093272E-2,-4.663128E-2,-0E0],"split_indices":[11,17,0,0,0],"split_type":[0,0,0,0,0],"sum_hessian":[3.6783215E1,2.9461813E1,7.321401E0,2.7487082E1,1.9747307E0],"tree_param":{"num_deleted":"0","num_feature":"120","num_nodes":"5","size_leaf_vector":"1"}},{"base_weights":[8.63796E-2,-3.965196E-2,5.4809076E-1,8.0693245E-1,-3.0058986E-2,1.0223402E-1,-1.5050426E-2],"categories":[],"categories_nodes":[],"categories_segments":[],"categories_sizes":[],"default_left":[0,0,0,0,0,0,0],"id":51,"left_children":[1,-1,3,5,-1,-1,-1],"loss_changes":[1.0598567E1,0E0,6.2261524E0,5.2083626E0,0E0,0E0,0E0],"parents":[2147483647,0,0,2,2,3,3],"right_children":[2,-1,4,6,-1,-1,-1],"split_conditions":[1E0,-3.965196E-2,1E0,1E0,-3.0058986E-2,1.0223402E-1,-1.5050426E-2],"split_indices":[21,0,111,76,0,0,0],"split_type":[0,0,0,0,0,0,0],"sum_hessian":[4.488119E1,2.0947618E1,2.393357E1,1.9280611E1,4.6529613E0,1.6536772E1,2.743838E0],"tree_param":{"num_deleted":"0","num_feature":"120","num_nodes":"7","size_leaf_vector":"1"}},{"base_weights":[-5.861231E-2,-4.9689047E-2,9.673562E-2],"categories":[],"categories_nodes":[],"categories_segments":[],"categories_sizes":[],"default_left":[0,0,0],"id":52,"left_children":[1,-1,-1],"loss_changes":[1.673647E1,0E0,0E0],"parents":[2147483647,0,0],"right_children":[2,-1,-1],"split_conditions":[1E0,-4.9689047E-2,9.673562E-2],"split_indices":[41,0,0],"split_type":[0,0,0],"sum_hessian":[3.6197617E1,2.6407227E1,9.790391E0],"tree_param":{"num_deleted":"0","num_feature":"120","num_nodes":"3","size_leaf_vector":"1"}},{"base_weights":[-0E0,-4.347405E-1,9.5276964E-1,-4.92294E-2,-0E0,-0E0,1.0238755E-1],"categories":[],"categories_nodes":[],"categories_segments":[],"categories_sizes":[],"default_left":[0,0,0,0,0,0,0],"id":53,"left_children":[1,3,5,-1,-1,-1,-1],"loss_changes":[1.7505352E1,8.0133533E-1,6.5888214E-1,0E0,0E0,0E0,0E0],"parents":[2147483647,0,0,1,1,2,2],"right_children":[2,4,6,-1,-1,-1,-1],"split_conditions":[1E0,1E0,1E0,-4.92294E-2,-0E0,-0E0,1.0238755E-1],"split_indices":[61,60,60,0,0,0,0],"split_type":[0,0,0,0,0,0,0],"sum_hessian":[3.91676E1,2.6637968E1,1.2529632E1,2.3859947E1,2.7780209E0,1.185439E0,1.13441925E1],"tree_param":{"num_deleted":"0","num_feature":"120","num_nodes":"7","size_leaf_vector":"1"}},{"base_weights":[-0E0,-3.5012078E-1,4.817093E-1,-4.715505E-2,-0E0,8.733607E-1,-1.94198E-2,-2.3148516E-2,1.4823855E-1,-0E0,1.0771022E-1,1.9224169E-2,-2.5495267E-2,3.9258506E-2,-0E0,-0E0,4.151379E-2],"categories":[],"categories_nodes":[],"categories_segments":[],"categories_sizes":[],"default_left":[0,0,0,0,0,0,0,0,0,0,0,0,0,0,0,0,0],"id":54,"left_children":[1,3,5,-1,7,9,11,-1,13,-1,-1,15,-1,-1,-1,-1,-1],"loss_changes":[7.3446474E0,8.4483004E-1,4.5398426E0,0E0,3.5090786E-1,1.6760893E0,3.1398007E-1,0E0,4.2123485E-1,0E0,0E0,4.289135E-1,0E0,0E0,0E0,0E0,0E0],"parents":[2147483647,0,0,1,1,2,2,4,4,5,5,6,6,8,8,11,11],"right_children":[2,4,6,-1,8,10,12,-1,14,-1,-1,16,-1,-1,-1,-1,-1],"split_conditions":[1E0,1E0,1E0,-4.715505E-2,1E0,1E0,1E0,-2.3148516E-2,1E0,-0E0,1.0771022E-1,1E0,-2.5495267E-2,3.9258506E-2,-0E0,-0E0,4.151379E-2],"split_indices":[111,116,109,0,99,86,97,0,15,0,0,93,0,0,0,0,0],"split_type":[0,0,0,0,0,0,0,0,0,0,0,0,0,0,0,0,0],"sum_hessian":[4.1222942E1,2.3529406E1,1.7693539E1,1.6322174E1,7.207231E0,1.063477E1,7.0587683E0,3.700369E0,3.5068622E0,2.5405834E0,8.094187E0,3.205525E0,3.8532434E0,2.3756905E0,1.1311716E0,1.7077354E0,1.4977894E0],"tree_param":{"num_deleted":"0","num_feature":"120","num_nodes":"17","size_leaf_vector":"1"}},{"base_weights":[-6.1986048E-2,-4.5946475E-2,7.658573E-1,-0E0,9.4772804E-1,-0E0,1.1170292E-1],"categories":[],"categories_nodes":[],"categories_segments":[],"categories_sizes":[],"default_left":[0,0,0,0,0,0,0],"id":55,"left_children":[1,-1,3,-1,5,-1,-1],"loss_changes":[1.2389946E1,0E0,2.4239812E0,0E0,1.0791035E0,0E0,0E0],"parents":[2147483647,0,0,2,2,4,4],"right_children":[2,-1,4,-1,6,-1,-1],"split_conditions":[1E0,-4.5946475E-2,1E0,-0E0,1E0,-0E0,1.1170292E-1],"split_indices":[101,0,107,0,118,0,0],"split_type":[0,0,0,0,0,0,0],"sum_hessian":[3.6515427E1,2.5787043E1,1.0728385E1,1.3707405E0,9.357644E0,2.0369186E0,7.320726E0],"tree_param":{"num_deleted":"0","num_feature":"120","num_nodes":"7","size_leaf_vector":"1"}},{"base_weights":[-0E0,1.1439363E-1,-2.816373E-2,2.2462547E-1,-2.3240818E-2,4.088763E-1,-0E0,6.448131E-1,-0E0,8.032491E-2,-0E0],"categories":[],"categories_nodes":[],"categories_segments":[],"categories_sizes":[],"default_left":[0,0,0,0,0,0,0,0,0,0,0],"id":56,"left_children":[1,3,-1,5,-1,7,-1,9,-1,-1,-1],"loss_changes":[1.3325677E0,1.0750248E0,0E0,1.0227455E0,0E0,8.494613E-1,0E0,6.832011E-1,0E0,0E0,0E0],"parents":[2147483647,0,0,1,1,3,3,5,5,7,7],"right_children":[2,4,-1,6,-1,8,-1,10,-1,-1,-1],"split_conditions":[1E0,1E0,-2.816373E-2,1E0,-2.3240818E-2,1E0,-0E0,1E0,-0E0,8.032491E-2,-0E0],"split_indices":[32,41,0,1,0,99,0,101,0,0,0],"split_type":[0,0,0,0,0,0,0,0,0,0,0],"sum_hessian":[3.731133E1,2.595895E1,1.1352382E1,2.2153263E1,3.8056858E0,1.2105532E1,1.0047732E1,6.3125515E0,5.7929797E0,4.771219E0,1.5413325E0],"tree_param":{"num_deleted":"0","num_feature":"120","num_nodes":"11","size_leaf_vector":"1"}},{"base_weights":[-6.773608E-2,-3.987929E-1,6.596493E-1,-4.5581877E-2,-0E0,1.0092902E-1,-1.3341104E-2],"categories":[],"categories_nodes":[],"categories_segments":[],"categories_sizes":[],"default_left":[0,0,0,0,0,0,0],"id":57,"left_children":[1,3,5,-1,-1,-1,-1],"loss_changes":[9.210336E0,1.0211897E0,4.169437E0,0E0,0E0,0E0,0E0],"parents":[2147483647,0,0,1,1,2,2],"right_children":[2,4,6,-1,-1,-1,-1],"split_conditions":[1E0,1E0,1E0,-4.5581877E-2,-0E0,1.0092902E-1,-1.3341104E-2],"split_indices":[0,11,72,0,0,0,0],"split_type":[0,0,0,0,0,0,0],"sum_hessian":[3.72388E1,2.6846579E1,1.0392221E1,2.5229836E1,1.6167438E0,7.898328E0,2.4938934E0],"tree_param":{"num_deleted":"0","num_feature":"120","num_nodes":"7","size_leaf_vector":"1"}},{"base_weights":[8.81138E-2,-4.2106047E-2,5.059454E-1,6.886244E-1,-2.3015898E-2,8.633592E-2,-0E0],"categories":[],"categories_nodes":[],"categories_segments":[],"categories_sizes":[],"default_left":[0,0,0,0,0,0,0],"id":58,"left_children":[1,-1,3,5,-1,-1,-1],"loss_changes":[9.452086E0,0E0,4.0011644E0,3.40491E0,0E0,0E0,0E0],"parents":[2147483647,0,0,2,2,3,3],"right_children":[2,-1,4,6,-1,-1,-1],"split_conditions":[1E0,-4.2106047E-2,1E0,1E0,-2.3015898E-2,8.633592E-2,-0E0],"split_indices":[20,0,3,87,0,0,0],"split_type":[0,0,0,0,0,0,0],"sum_hessian":[4.2028E1,1.7861156E1,2.4166843E1,2.0501894E1,3.66495E0,1.7247095E1,3.2547982E0],"tree_param":{"num_deleted":"0","num_feature":"120","num_nodes":"7","size_leaf_vector":"1"}},{"base_weights":[-1.7406987E-3,-4.933447E-2,9.261603E-2],"categories":[],"categories_nodes":[],"categories_segments":[],"categories_sizes":[],"default_left":[0,0,0],"id":59,"left_children":[1,-1,-1],"loss_changes":[1.8179358E1,0E0,0E0],"parents":[2147483647,0,0],"right_children":[2,-1,-1],"split_conditions":[1E0,-4.933447E-2,9.261603E-2],"split_indices":[41,0,0],"split_type":[0,0,0],"sum_hessian":[3.8800213E1,2.6373497E1,1.2426714E1],"tree_param":{"num_deleted":"0","num_feature":"120","num_nodes":"3","size_leaf_vector":"1"}},{"base_weights":[4.0103164E-2,-4.926083E-2,8.892793E-1,-0E0,9.601302E-2],"categories":[],"categories_nodes":[],"categories_segments":[],"categories_sizes":[],"default_left":[0,0,0,0,0],"id":60,"left_children":[1,-1,3,-1,-1],"loss_changes":[1.980637E1,0E0,1.0227737E0,0E0,0E0],"parents":[2147483647,0,0,2,2],"right_children":[2,-1,4,-1,-1],"split_conditions":[1E0,-4.926083E-2,1E0,-0E0,9.601302E-2],"split_indices":[60,0,78,0,0],"split_type":[0,0,0,0,0],"sum_hessian":[4.093869E1,2.4691393E1,1.62473E1,1.3420587E0,1.490524E1],"tree_param":{"num_deleted":"0","num_feature":"120","num_nodes":"5","size_leaf_vector":"1"}},{"base_weights":[1.6264053E-2,-3.2317573E-1,4.3333942E-1,-4.163479E-2,-0E0,7.4844027E-1,-3.0675543E-2,8.6386347E-1,-0E0,-0E0,9.064119E-2],"categories":[],"categories_nodes":[],"categories_segments":[],"categories_sizes":[],"default_left":[0,0,0,0,0,0,0,0,0,0,0],"id":61,"left_children":[1,3,5,-1,-1,7,-1,9,-1,-1,-1],"loss_changes":[6.229725E0,8.19484E-1,5.498633E0,0E0,0E0,1.9771719E0,0E0,2.547655E-1,0E0,0E0,0E0],"parents":[2147483647,0,0,1,1,2,2,5,5,7,7],"right_children":[2,4,6,-1,-1,8,-1,10,-1,-1,-1],"split_conditions":[1E0,1E0,1E0,-4.163479E-2,-0E0,1E0,-3.0675543E-2,1E0,-0E0,-0E0,9.064119E-2],"split_indices":[84,119,101,0,0,62,0,83,0,0,0],"split_type":[0,0,0,0,0,0,0,0,0,0,0],"sum_hessian":[4.1236584E1,2.1536467E1,1.9700117E1,1.730592E1,4.230546E0,1.4757083E1,4.9430346E0,1.3477128E1,1.2799544E0,1.0171664E0,1.2459962E1],"tree_param":{"num_deleted":"0","num_feature":"120","num_nodes":"11","size_leaf_vector":"1"}},{"base_weights":[-0E0,-3.5272974E-1,8.1543744E-1,-4.4927184E-2,3.243213E-2,9.2751384E-2,-0E0],"categories":[],"categories_nodes":[],"categories_segments":[],"categories_sizes":[],"default_left":[0,0,0,0,0,0,0],"id":62,"left_children":[1,3,5,-1,-1,-1,-1],"loss_changes":[1.10822315E1,2.001466E0,1.035079E0,0E0,0E0,0E0,0E0],"parents":[2147483647,0,0,1,1,2,2],"right_children":[2,4,6,-1,-1,-1,-1],"split_conditions":[1E0,1E0,1E0,-4.4927184E-2,3.243213E-2,9.2751384E-2,-0E0],"split_indices":[102,105,27,0,0,0,0],"split_type":[0,0,0,0,0,0,0],"sum_hessian":[3.6191452E1,2.5479551E1,1.0711901E1,2.3886894E1,1.592658E0,9.255673E0,1.4562277E0],"tree_param":{"num_deleted":"0","num_feature":"120","num_nodes":"7","size_leaf_vector":"1"}},{"base_weights":[-0E0,7.053367E-2,-2.7577907E-2,1.6855703E-1,-2.7163258E-2,2.9143414E-1,-2.5714664E-2,4.4073397E-1,-0E0,5.717122E-1,-0E0,6.9767825E-2,-0E0],"categories":[],"categories_nodes":[],"categories_segments":[],"categories_sizes":[],"default_left":[0,0,0,0,0,0,0,0,0,0,0,0,0],"id":63,"left_children":[1,3,-1,5,-1,7,-1,9,-1,11,-1,-1,-1],"loss_changes":[8.331889E-1,1.0498742E0,0E0,1.6025529E0,0E0,1.0523012E0,0E0,1.2762284E0,0E0,7.500701E-1,0E0,0E0,0E0],"parents":[2147483647,0,0,1,1,3,3,5,5,7,7,9,9],"right_children":[2,4,-1,6,-1,8,-1,10,-1,12,-1,-1,-1],"split_conditions":[1E0,1E0,-2.7577907E-2,1E0,-2.7163258E-2,1E0,-2.5714664E-2,1E0,-0E0,1E0,-0E0,6.9767825E-2,-0E0],"split_indices":[35,54,0,61,0,90,0,36,0,111,0,0,0],"split_type":[0,0,0,0,0,0,0,0,0,0,0,0,0],"sum_hessian":[3.9805878E1,3.2009975E1,7.795901E0,2.7547998E1,4.461978E0,2.344514E1,4.1028576E0,1.5105942E1,8.3392E0,1.2476166E1,2.6297758E0,9.590176E0,2.8859897E0],"tree_param":{"num_deleted":"0","num_feature":"120","num_nodes":"13","size_leaf_vector":"1"}},{"base_weights":[-7.721023E-2,-4.1654218E-2,5.596884E-1,-0E0,7.135498E-2],"categories":[],"categories_nodes":[],"categories_segments":[],"categories_sizes":[],"default_left":[0,0,0,0,0],"id":64,"left_children":[1,-1,3,-1,-1],"loss_changes":[7.8959394E0,0E0,1.2774038E0,0E0,0E0],"parents":[2147483647,0,0,2,2],"right_children":[2,-1,4,-1,-1],"split_conditions":[1E0,-4.1654218E-2,1E0,-0E0,7.135498E-2],"split_indices":[0,0,9,0,0],"split_type":[0,0,0,0,0],"sum_hessian":[3.5118595E1,2.416165E1,1.0956944E1,2.0916827E0,8.865262E0],"tree_param":{"num_deleted":"0","num_feature":"120","num_nodes":"5","size_leaf_vector":"1"}},{"base_weights":[1.6613118E-1,-4.065478E-2,5.5258E-1,6.9499016E-1,-1.8856948E-2,8.701957E-2,-3.6987483E-3],"categories":[],"categories_nodes":[],"categories_segments":[],"categories_sizes":[],"default_left":[0,0,0,0,0,0,0],"id":65,"left_children":[1,-1,3,5,-1,-1,-1],"loss_changes":[1.0204768E1,0E0,3.5926085E0,4.0498495E0,0E0,0E0,0E0],"parents":[2147483647,0,0,2,2,3,3],"right_children":[2,-1,4,6,-1,-1,-1],"split_conditions":[1E0,-4.065478E-2,1E0,1E0,-1.8856948E-2,8.701957E-2,-3.6987483E-3],"split_indices":[21,0,1,87,0,0,0],"split_type":[0,0,0,0,0,0,0],"sum_hessian":[4.3435574E1,1.6437357E1,2.6998215E1,2.383073E1,3.1674848E0,2.0178223E1,3.6525083E0],"tree_param":{"num_deleted":"0","num_feature":"120","num_nodes":"7","size_leaf_vector":"1"}},{"base_weights":[-4.9787726E-2,-4.8917886E-2,8.435181E-2],"categories":[],"categories_nodes":[],"categories_segments":[],"categories_sizes":[],"default_left":[0,0,0],"id":66,"left_children":[1,-1,-1],"loss_changes":[1.4795129E1,0E0,0E0],"parents":[2147483647,0,0],"right_children":[2,-1,-1],"split_conditions":[1E0,-4.8917886E-2,8.435181E-2],"split_indices":[40,0,0],"split_type":[0,0,0],"sum_hessian":[3.6545067E1,2.554973E1,1.0995336E1],"tree_param":{"num_deleted":"0","num_feature":"120","num_nodes":"3","size_leaf_vector":"1"}},{"base_weights":[2.002402E-2,-4.3275422E-1,8.819666E-1,-4.845732E-2,-0E0,-0E0,9.3422145E-2],"categories":[],"categories_nodes":[],"categories_segments":[],"categories_sizes":[],"default_left":[0,0,0,0,0,0,0],"id":67,"left_children":[1,3,5,-1,-1,-1,-1],"loss_changes":[1.7226646E1,5.308347E-1,4.660797E-1,0E0,0E0,0E0,0E0],"parents":[2147483647,0,0,1,1,2,2],"right_children":[2,4,6,-1,-1,-1,-1],"split_conditions":[1E0,1E0,1E0,-4.845732E-2,-0E0,-0E0,9.3422145E-2],"split_indices":[61,60,60,0,0,0,0],"split_type":[0,0,0,0,0,0,0],"sum_hessian":[4.1011448E1,2.6453299E1,1.455815E1,2.3156368E1,3.2969308E0,1.1577648E0,1.3400386E1],"tree_param":{"num_deleted":"0","num_feature":"120","num_nodes":"7","size_leaf_vector":"1"}},{"base_weights":[9.095729E-2,-3.844723E-1,4.6423453E-1,-4.6812486E-2,-0E0,6.505092E-1,-1.3480906E-2,8.628616E-2,9.786289E-2,4.7504687E-1,-2.4764894E-2,-0E0,8.159146E-2],"categories":[],"categories_nodes":[],"categories_segments":[],"categories_sizes":[],"default_left":[0,0,0,0,0,0,0,0,0,0,0,0,0],"id":68,"left_children":[1,3,5,-1,-1,7,-1,9,-1,11,-1,-1,-1],"loss_changes":[8.259355E0,9.315553E-1,3.6036315E0,0E0,0E0,2.9151525E0,0E0,1.6809213E0,0E0,1.7903183E0,0E0,0E0,0E0],"parents":[2147483647,0,0,1,1,2,2,5,5,7,7,9,9],"right_children":[2,4,6,-1,-1,8,-1,10,-1,12,-1,-1,-1],"split_conditions":[1E0,1E0,1E0,-4.6812486E-2,-0E0,1E0,-1.3480906E-2,1E0,9.786289E-2,1E0,-2.4764894E-2,-0E0,8.159146E-2],"split_indices":[81,106,100,0,0,111,0,35,0,91,0,0,0],"split_type":[0,0,0,0,0,0,0,0,0,0,0,0,0],"sum_hessian":[4.408503E1,1.8197971E1,2.5887058E1,1.6200714E1,1.9972578E0,2.0954575E1,4.9324827E0,9.29017E0,1.1664406E1,5.481147E0,3.8090227E0,1.59481E0,3.8863368E0],"tree_param":{"num_deleted":"0","num_feature":"120","num_nodes":"13","size_leaf_vector":"1"}},{"base_weights":[-4.2840097E-2,-4.3906978E-1,5.084287E-1,-4.749768E-2,-0E0,-2.3841402E-4,6.45485E-1,8.3506423E-1,-0E0,-0E0,9.279066E-2],"categories":[],"categories_nodes":[],"categories_segments":[],"categories_sizes":[],"default_left":[0,0,0,0,0,0,0,0,0,0,0],"id":69,"left_children":[1,3,5,-1,-1,-1,7,9,-1,-1,-1],"loss_changes":[8.327454E0,2.8371572E-1,1.69874E0,0E0,0E0,0E0,1.3638439E0,6.280384E-1,0E0,0E0,0E0],"parents":[2147483647,0,0,1,1,2,2,6,6,7,7],"right_children":[2,4,6,-1,-1,-1,8,10,-1,-1,-1],"split_conditions":[1E0,1E0,1E0,-4.749768E-2,-0E0,-2.3841402E-4,1E0,1E0,-0E0,-0E0,9.279066E-2],"split_indices":[100,117,107,0,0,0,34,102,0,0,0],"split_type":[0,0,0,0,0,0,0,0,0,0,0],"sum_hessian":[3.6419827E1,2.2363428E1,1.4056399E1,2.0222109E1,2.1413193E0,1.6379693E0,1.241843E1,8.973216E0,3.4452145E0,1.1664916E0,7.806724E0],"tree_param":{"num_deleted":"0","num_feature":"120","num_nodes":"11","size_leaf_vector":"1"}},{"base_weights":[-0E0,1.4623573E-1,-2.5029E-1,2.809191E-1,-2.8479049E-2,-3.9725844E-2,-0E0,4.2756394E-1,-0E0,6.4068776E-1,-0E0,8.223705E-2,-0E0],"categories":[],"categories_nodes":[],"categories_segments":[],"categories_sizes":[],"default_left":[0,0,0,0,0,0,0,0,0,0,0,0,0],"id":70,"left_children":[1,3,5,7,-1,-1,-1,9,-1,11,-1,-1,-1],"loss_changes":[1.5218382E0,1.7838017E0,5.285664E-1,1.1989834E0,0E0,0E0,0E0,1.3926439E0,0E0,1.4903755E0,0E0,0E0,0E0],"parents":[2147483647,0,0,1,1,2,2,3,3,7,7,9,9],"right_children":[2,4,6,8,-1,-1,-1,10,-1,12,-1,-1,-1],"split_conditions":[1E0,1E0,1E0,1E0,-2.8479049E-2,-3.9725844E-2,-0E0,1E0,-0E0,1E0,-0E0,8.223705E-2,-0E0],"split_indices":[32,56,116,99,0,0,0,79,0,111,0,0,0],"split_type":[0,0,0,0,0,0,0,0,0,0,0,0,0],"sum_hessian":[4.166752E1,2.841618E1,1.3251338E1,2.3683928E1,4.732251E0,8.006427E0,5.244911E0,1.621412E1,7.4698076E0,1.0059161E1,6.1549597E0,7.916176E0,2.142985E0],"tree_param":{"num_deleted":"0","num_feature":"120","num_nodes":"13","size_leaf_vector":"1"}},{"base_weights":[-2.060725E-2,-4.740784E-2,5.47415E-1,9.151027E-2,-2.1835437E-2],"categories":[],"categories_nodes":[],"categories_segments":[],"categories_sizes":[],"default_left":[0,0,0,0,0],"id":71,"left_children":[1,-1,3,-1,-1],"loss_changes":[9.005682E0,0E0,5.031369E0,0E0,0E0],"parents":[2147483647,0,0,2,2],"right_children":[2,-1,4,-1,-1],"split_conditions":[1E0,-4.740784E-2,1E0,9.151027E-2,-2.1835437E-2],"split_indices":[1,0,75,0,0],"split_type":[0,0,0,0,0],"sum_hessian":[3.3239624E1,1.9554499E1,1.3685127E1,9.996247E0,3.68888E0],"tree_param":{"num_deleted":"0","num_feature":"120","num_nodes":"5","size_leaf_vector":"1"}},{"base_weights":[-0E0,-3.69992E-2,2.8880948E-1,4.63621E-1,-2.7239949E-2,6.449826E-1,-1.9084223E-2,7.563215E-2,-0E0],"categories":[],"categories_nodes":[],"categories_segments":[],"categories_sizes":[],"default_left":[0,0,0,0,0,0,0,0,0],"id":72,"left_children":[1,-1,3,5,-1,7,-1,-1,-1],"loss_changes":[4.5919247E0,0E0,2.7640653E0,3.0393915E0,0E0,1.9106679E0,0E0,0E0,0E0],"parents":[2147483647,0,0,2,2,3,3,5,5],"right_children":[2,-1,4,6,-1,8,-1,-1,-1],"split_conditions":[1E0,-3.69992E-2,1E0,1E0,-2.7239949E-2,1E0,-1.9084223E-2,7.563215E-2,-0E0],"split_indices":[26,0,87,109,0,67,0,0,0],"split_type":[0,0,0,0,0,0,0,0,0],"sum_hessian":[4.128663E1,1.7348719E1,2.3937912E1,1.9743687E1,4.1942244E0,1.6667366E1,3.0763211E0,1.5188773E1,1.478593E0],"tree_param":{"num_deleted":"0","num_feature":"120","num_nodes":"9","size_leaf_vector":"1"}},{"base_weights":[-9.3265645E-2,-4.8351195E-2,7.606254E-2],"categories":[],"categories_nodes":[],"categories_segments":[],"categories_sizes":[],"default_left":[0,0,0],"id":73,"left_children":[1,-1,-1],"loss_changes":[1.165297E1,0E0,0E0],"parents":[2147483647,0,0],"right_children":[2,-1,-1],"split_conditions":[1E0,-4.8351195E-2,7.606254E-2],"split_indices":[42,0,0],"split_type":[0,0,0],"sum_hessian":[3.369792E1,2.4229425E1,9.468497E0],"tree_param":{"num_deleted":"0","num_feature":"120","num_nodes":"3","size_leaf_vector":"1"}},{"base_weights":[1.039171E-3,-4.5101634E-1,8.0142814E-1,-4.814527E-2,-0E0,-0E0,8.621786E-2],"categories":[],"categories_nodes":[],"categories_segments":[],"categories_sizes":[],"default_left":[0,0,0,0,0,0,0],"id":74,"left_children":[1,3,5,-1,-1,-1,-1],"loss_changes":[1.4848696E1,2.7945614E-1,6.9251347E-1,0E0,0E0,0E0,0E0],"parents":[2147483647,0,0,1,1,2,2],"right_children":[2,4,6,-1,-1,-1,-1],"split_conditions":[1E0,1E0,1E0,-4.814527E-2,-0E0,-0E0,8.621786E-2],"split_indices":[61,68,68,0,0,0,0],"split_type":[0,0,0,0,0,0,0],"sum_hessian":[3.807141E1,2.3810486E1,1.4260927E1,2.1978323E1,1.8321632E0,1.1432409E0,1.3117686E1],"tree_param":{"num_deleted":"0","num_feature":"120","num_nodes":"7","size_leaf_vector":"1"}},{"base_weights":[-0E0,-3.120109E-1,4.1842315E-1,-4.5999434E-2,-0E0,-5.5132754E-2,6.7473286E-1,-2.5001103E-2,-0E0,7.534777E-2,-0E0],"categories":[],"categories_nodes":[],"categories_segments":[],"categories_sizes":[],"default_left":[0,0,0,0,0,0,0,0,0,0,0],"id":75,"left_children":[1,3,5,-1,-1,7,9,-1,-1,-1,-1],"loss_changes":[5.921476E0,1.123142E0,3.0875285E0,0E0,0E0,2.993316E-1,7.831421E-1,0E0,0E0,0E0,0E0],"parents":[2147483647,0,0,1,1,2,2,5,5,6,6],"right_children":[2,4,6,-1,-1,8,10,-1,-1,-1,-1],"split_conditions":[1E0,1E0,1E0,-4.5999434E-2,-0E0,1E0,1E0,-2.5001103E-2,-0E0,7.534777E-2,-0E0],"split_indices":[85,99,84,0,0,89,109,0,0,0,0],"split_type":[0,0,0,0,0,0,0,0,0,0,0],"sum_hessian":[4.283671E1,2.3810434E1,1.902628E1,1.5722803E1,8.08763E0,5.587052E0,1.3439228E1,4.109208E0,1.4778435E0,1.1958322E1,1.480906E0],"tree_param":{"num_deleted":"0","num_feature":"120","num_nodes":"11","size_leaf_vector":"1"}},{"base_weights":[-2.9119417E-2,-4.3907385E-2,5.588613E-1,-0E0,7.95518E-2],"categories":[],"categories_nodes":[],"categories_segments":[],"categories_sizes":[],"default_left":[0,0,0,0,0],"id":76,"left_children":[1,-1,3,-1,-1],"loss_changes":[9.267304E0,0E0,1.7202806E0,0E0,0E0],"parents":[2147483647,0,0,2,2],"right_children":[2,-1,4,-1,-1],"split_conditions":[1E0,-4.3907385E-2,1E0,-0E0,7.95518E-2],"split_indices":[100,0,103,0,0],"split_type":[0,0,0,0,0],"sum_hessian":[3.692528E1,2.2907562E1,1.401772E1,4.887806E0,9.129914E0],"tree_param":{"num_deleted":"0","num_feature":"120","num_nodes":"5","size_leaf_vector":"1"}},{"base_weights":[-0E0,1.2824017E-1,-1.9554695E-1,2.592181E-1,-2.7547335E-2,-2.7657267E-1,-0E0,4.1503748E-1,-2.3377215E-2,-3.6470672E-1,-0E0,5.859865E-1,-0E0,-4.1953307E-2,-0E0,6.647286E-1,-0E0,7.480638E-2,-0E0],"categories":[],"categories_nodes":[],"categories_segments":[],"categories_sizes":[],"default_left":[0,0,0,0,0,0,0,0,0,0,0,0,0,0,0,0,0,0,0],"id":77,"left_children":[1,3,5,7,-1,9,-1,11,-1,13,-1,15,-1,-1,-1,17,-1,-1,-1],"loss_changes":[1.1222394E0,1.5515084E0,5.036407E-1,2.1028533E0,0E0,5.009446E-1,0E0,1.2889993E0,0E0,2.516966E-1,0E0,7.1035147E-1,0E0,0E0,0E0,5.9003735E-1,0E0,0E0,0E0],"parents":[2147483647,0,0,1,1,2,2,3,3,5,5,7,7,9,9,11,11,15,15],"right_children":[2,4,6,8,-1,10,-1,12,-1,14,-1,16,-1,-1,-1,18,-1,-1,-1],"split_conditions":[1E0,1E0,1E0,1E0,-2.7547335E-2,1E0,-0E0,1E0,-2.3377215E-2,1E0,-0E0,1E0,-0E0,-4.1953307E-2,-0E0,1E0,-0E0,7.480638E-2,-0E0],"split_indices":[25,58,100,61,0,66,0,88,0,64,0,26,0,0,0,108,0,0,0],"split_type":[0,0,0,0,0,0,0,0,0,0,0,0,0,0,0,0,0,0,0],"sum_hessian":[4.34763E1,2.7298506E1,1.6177795E1,2.2751945E1,4.5465593E0,1.4171378E1,2.0064175E0,1.8949226E1,3.8027198E0,1.1491E1,2.680378E0,1.2761353E1,6.187874E0,9.869603E0,1.6213968E0,1.130181E1,1.4595424E0,9.767997E0,1.533813E0],"tree_param":{"num_deleted":"0","num_feature":"120","num_nodes":"19","size_leaf_vector":"1"}},{"base_weights":[-0E0,-4.6092715E-2,5.089999E-1,-1.4252156E-2,7.577964E-1,8.763768E-2,-0E0],"categories":[],"categories_nodes":[],"categories_segments":[],"categories_sizes":[],"default_left":[0,0,0,0,0,0,0],"id":78,"left_children":[1,-1,3,-1,5,-1,-1],"loss_changes":[7.699885E0,0E0,3.1324005E0,0E0,1.1449294E0,0E0,0E0],"parents":[2147483647,0,0,2,2,4,4],"right_children":[2,-1,4,-1,6,-1,-1],"split_conditions":[1E0,-4.6092715E-2,1E0,-1.4252156E-2,1E0,8.763768E-2,-0E0],"split_indices":[8,0,3,0,104,0,0],"split_type":[0,0,0,0,0,0,0],"sum_hessian":[3.098081E1,1.711851E1,1.3862301E1,2.8380716E0,1.1024229E1,9.481157E0,1.5430715E0],"tree_param":{"num_deleted":"0","num_feature":"120","num_nodes":"7","size_leaf_vector":"1"}},{"base_weights":[-0E0,-2.5504425E-1,4.7764826E-1,-4.2885482E-2,4.678723E-2,6.0846376E-1,-0E0,-6.5685683E-3,3.363038E-1,-0E0,7.0940115E-2,5.5348467E-2,-0E0],"categories":[],"categories_nodes":[],"categories_segments":[],"categories_sizes":[],"default_left":[0,0,0,0,0,0,0,0,0,0,0,0,0],"id":79,"left_children":[1,3,5,-1,7,9,-1,-1,11,-1,-1,-1,-1],"loss_changes":[5.201003E0,1.8013248E0,1.55376E0,0E0,5.7096887E-1,5.94717E-1,0E0,0E0,4.718194E-1,0E0,0E0,0E0,0E0],"parents":[2147483647,0,0,1,1,2,2,4,4,5,5,8,8],"right_children":[2,4,6,-1,8,10,-1,-1,12,-1,-1,-1,-1],"split_conditions":[1E0,1E0,1E0,-4.2885482E-2,1E0,1E0,-0E0,-6.5685683E-3,1E0,-0E0,7.0940115E-2,5.5348467E-2,-0E0],"split_indices":[33,31,13,0,38,25,0,0,80,0,0,0,0],"split_type":[0,0,0,0,0,0,0,0,0,0,0,0,0],"sum_hessian":[3.9863316E1,2.5670843E1,1.41924715E1,1.812549E1,7.5453525E0,1.2558909E1,1.6335614E0,3.5034137E0,4.041939E0,2.4022145E0,1.0156695E1,2.4015996E0,1.6403391E0],"tree_param":{"num_deleted":"0","num_feature":"120","num_nodes":"13","size_leaf_vector":"1"}},{"base_weights":[-2.951465E-2,-4.7354415E-2,7.36909E-2],"categories":[],"categories_nodes":[],"categories_segments":[],"categories_sizes":[],"default_left":[0,0,0],"id":80,"left_children":[1,-1,-1],"loss_changes":[1.1485459E1,0E0,0E0],"parents":[2147483647,0,0],"right_children":[2,-1,-1],"split_conditions":[1E0,-4.7354415E-2,7.36909E-2],"split_indices":[41,0,0],"split_type":[0,0,0],"sum_hessian":[3.249801E1,2.1644888E1,1.0853122E1],"tree_param":{"num_deleted":"0","num_feature":"120","num_nodes":"3","size_leaf_vector":"1"}},{"base_weights":[-0E0,-4.4067822E-2,5.8083516E-1,-0E0,6.8662085E-2],"categories":[],"categories_nodes":[],"categories_segments":[],"categories_sizes":[],"default_left":[0,0,0,0,0],"id":81,"left_children":[1,-1,3,-1,-1],"loss_changes":[9.766872E0,0E0,8.947425E-1,0E0,0E0],"parents":[2147483647,0,0,2,2],"right_children":[2,-1,4,-1,-1],"split_conditions":[1E0,-4.4067822E-2,1E0,-0E0,6.8662085E-2],"split_indices":[78,0,74,0,0],"split_type":[0,0,0,0,0],"sum_hessian":[3.617273E1,2.0732166E1,1.5440565E1,2.7777967E0,1.2662767E1],"tree_param":{"num_deleted":"0","num_feature":"120","num_nodes":"5","size_leaf_vector":"1"}},{"base_weights":[-0E0,-3.6231484E-2,4.1736978E-1,-2.0990526E-2,6.3129324E-1,-0E0,7.6472425E-1,8.12253E-1,-0E0,9.0212815E-2,-0E0],"categories":[],"categories_nodes":[],"categories_segments":[],"categories_sizes":[],"default_left":[0,0,0,0,0,0,0,0,0,0,0],"id":82,"left_children":[1,-1,3,-1,5,-1,7,9,-1,-1,-1],"loss_changes":[6.2729316E0,0E0,3.1853309E0,0E0,1.3382945E0,0E0,3.0233622E-1,3.7931824E-1,0E0,0E0,0E0],"parents":[2147483647,0,0,2,2,4,4,6,6,7,7],"right_children":[2,-1,4,-1,6,-1,8,10,-1,-1,-1],"split_conditions":[1E0,-3.6231484E-2,1E0,-2.0990526E-2,1E0,-0E0,1E0,1E0,-0E0,9.0212815E-2,-0E0],"split_indices":[85,0,80,0,82,0,109,36,0,0,0],"split_type":[0,0,0,0,0,0,0,0,0,0,0],"sum_hessian":[3.9373363E1,2.076345E1,1.8609913E1,3.5486453E0,1.5061268E1,2.827398E0,1.223387E1,1.1188685E1,1.0451841E0,9.347138E0,1.8415473E0],"tree_param":{"num_deleted":"0","num_feature":"120","num_nodes":"11","size_leaf_vector":"1"}},{"base_weights":[-0E0,-4.339542E-2,5.677769E-1,-0E0,7.20562E-2],"categories":[],"categories_nodes":[],"categories_segments":[],"categories_sizes":[],"default_left":[0,0,0,0,0],"id":83,"left_children":[1,-1,3,-1,-1],"loss_changes":[9.483177E0,0E0,1.5181556E0,0E0,0E0],"parents":[2147483647,0,0,2,2],"right_children":[2,-1,4,-1,-1],"split_conditions":[1E0,-4.339542E-2,1E0,-0E0,7.20562E-2],"split_indices":[101,0,111,0,0],"split_type":[0,0,0,0,0],"sum_hessian":[3.7001152E1,2.204773E1,1.4953423E1,3.1241693E0,1.1829253E1],"tree_param":{"num_deleted":"0","num_feature":"120","num_nodes":"5","size_leaf_vector":"1"}},{"base_weights":[5.9728608E-2,1.5065135E-1,-3.2040995E-2,3.129627E-1,-1.2554173E-1,4.463696E-1,-2.0547194E-2,-2.1851078E-1,-0E0,6.1704185E-2,-0E0,-0E0,-3.4671318E-2],"categories":[],"categories_nodes":[],"categories_segments":[],"categories_sizes":[],"default_left":[0,0,0,0,0,0,0,0,0,0,0,0,0],"id":84,"left_children":[1,3,-1,5,7,9,-1,11,-1,-1,-1,-1,-1],"loss_changes":[1.37332E0,1.9169478E0,0E0,2.1526077E0,2.829497E-1,1.6682763E0,0E0,3.9089185E-1,0E0,0E0,0E0,0E0,0E0],"parents":[2147483647,0,0,1,1,3,3,4,4,5,5,7,7],"right_children":[2,4,-1,6,8,10,-1,12,-1,-1,-1,-1,-1],"split_conditions":[1E0,1E0,-3.2040995E-2,1E0,1E0,1E0,-2.0547194E-2,1E0,-0E0,6.1704185E-2,-0E0,-0E0,-3.4671318E-2],"split_indices":[61,86,0,40,110,90,0,34,0,0,0,0,0],"split_type":[0,0,0,0,0,0,0,0,0,0,0,0,0],"sum_hessian":[4.22485E1,3.670387E1,5.544634E0,2.5314648E1,1.1389221E1,2.1778383E1,3.536263E0,9.015567E0,2.3736546E0,1.5301846E1,6.4765387E0,2.7856803E0,6.2298865E0],"tree_param":{"num_deleted":"0","num_feature":"120","num_nodes":"13","size_leaf_vector":"1"}},{"base_weights":[-0E0,-4.629402E-2,4.170946E-1,7.5990784E-1,-1.6903065E-2,-0E0,9.1158025E-2],"categories":[],"categories_nodes":[],"categories_segments":[],"categories_sizes":[],"default_left":[0,0,0,0,0,0,0],"id":85,"left_children":[1,-1,3,5,-1,-1,-1],"loss_changes":[6.5540953E0,0E0,4.066229E0,4.6609354E-1,0E0,0E0,0E0],"parents":[2147483647,0,0,2,2,3,3],"right_children":[2,-1,4,6,-1,-1,-1],"split_conditions":[1E0,-4.629402E-2,1E0,1E0,-1.6903065E-2,-0E0,9.1158025E-2],"split_indices":[3,0,72,0,0,0,0],"split_type":[0,0,0,0,0,0,0],"sum_hessian":[3.1717556E1,1.6060617E1,1.5656938E1,1.0768359E1,4.888578E0,3.029444E0,7.7389154E0],"tree_param":{"num_deleted":"0","num_feature":"120","num_nodes":"7","size_leaf_vector":"1"}},{"base_weights":[1.0450569E-1,-1.1363258E-1,5.487187E-1,-2.847108E-1,2.4449301E-1,6.302336E-1,-0E0,-3.658357E-2,-0E0,4.951437E-1,-3.2201197E-3,6.9249517E-1,-0E0,-0E0,6.103418E-2,7.621855E-2,-0E0],"categories":[],"categories_nodes":[],"categories_segments":[],"categories_sizes":[],"default_left":[0,0,0,0,0,0,0,0,0,0,0,0,0,0,0,0,0],"id":86,"left_children":[1,3,5,7,9,11,-1,-1,-1,13,-1,15,-1,-1,-1,-1,-1],"loss_changes":[4.871227E0,1.9227579E0,8.896136E-1,7.1093106E-1,1.0485711E0,5.3106403E-1,0E0,0E0,0E0,3.105197E-1,0E0,6.588311E-1,0E0,0E0,0E0,0E0,0E0],"parents":[2147483647,0,0,1,1,2,2,3,3,4,4,5,5,9,9,11,11],"right_children":[2,4,6,8,10,12,-1,-1,-1,14,-1,16,-1,-1,-1,-1,-1],"split_conditions":[1E0,1E0,1E0,1E0,1E0,1E0,-0E0,-3.658357E-2,-0E0,1E0,-3.2201197E-3,1E0,-0E0,-0E0,6.103418E-2,7.621855E-2,-0E0],"split_indices":[33,35,111,31,84,2,0,0,0,81,0,57,0,0,0,0,0],"split_type":[0,0,0,0,0,0,0,0,0,0,0,0,0,0,0,0,0],"sum_hessian":[4.41372E1,2.8590416E1,1.5546784E1,2.1376215E1,7.214201E0,1.3782992E1,1.7637919E0,1.7864557E1,3.5116577E0,5.267289E0,1.9469118E0,1.23516655E1,1.4313272E0,1.3089821E0,3.958307E0,1.1155778E1,1.1958873E0],"tree_param":{"num_deleted":"0","num_feature":"120","num_nodes":"17","size_leaf_vector":"1"}},{"base_weights":[-2.2957513E-2,-4.7252215E-2,7.127938E-2],"categories":[],"categories_nodes":[],"categories_segments":[],"categories_sizes":[],"default_left":[0,0,0],"id":87,"left_children":[1,-1,-1],"loss_changes":[1.153528E1,0E0,0E0],"parents":[2147483647,0,0],"right_children":[2,-1,-1],"split_conditions":[1E0,-4.7252215E-2,7.127938E-2],"split_indices":[41,0,0],"split_type":[0,0,0],"sum_hessian":[3.3582397E1,2.1911053E1,1.1671343E1],"tree_param":{"num_deleted":"0","num_feature":"120","num_nodes":"3","size_leaf_vector":"1"}},{"base_weights":[1.5372575E-3,-4.1071877E-1,7.496629E-2,-4.6691474E-2,-0E0],"categories":[],"categories_nodes":[],"categories_segments":[],"categories_sizes":[],"default_left":[0,0,0,0,0],"id":88,"left_children":[1,3,-1,-1,-1],"loss_changes":[1.2012192E1,4.8450541E-1,0E0,0E0,0E0],"parents":[2147483647,0,0,1,1],"right_children":[2,4,-1,-1,-1],"split_conditions":[1E0,1E0,7.496629E-2,-4.6691474E-2,-0E0],"split_indices":[61,72,0,0,0],"split_type":[0,0,0,0,0],"sum_hessian":[3.5850307E1,2.2542532E1,1.33077755E1,1.9438995E1,3.1035376E0],"tree_param":{"num_deleted":"0","num_feature":"120","num_nodes":"5","size_leaf_vector":"1"}},{"base_weights":[-0E0,-4.0635014E-1,2.8911382E-1,-4.4930924E-2,-0E0,4.7169787E-1,-1.542155E-2,7.415641E-1,-0E0,-0E0,8.7080054E-2],"categories":[],"categories_nodes":[],"categories_segments":[],"categories_sizes":[],"default_left":[0,0,0,0,0,0,0,0,0,0,0],"id":89,"left_children":[1,3,5,-1,-1,7,-1,9,-1,-1,-1],"loss_changes":[4.783639E0,2.789395E-1,2.358183E0,0E0,0E0,2.4337935E0,0E0,1.2750154E0,0E0,0E0,0E0],"parents":[2147483647,0,0,1,1,2,2,5,5,7,7],"right_children":[2,4,6,-1,-1,8,-1,10,-1,-1,-1],"split_conditions":[1E0,1E0,1E0,-4.4930924E-2,-0E0,1E0,-1.542155E-2,1E0,-0E0,-0E0,8.7080054E-2],"split_indices":[81,119,100,0,0,28,0,97,0,0,0],"split_type":[0,0,0,0,0,0,0,0,0,0,0],"sum_hessian":[3.897561E1,1.5663295E1,2.3312315E1,1.4010937E1,1.6523584E0,1.8064262E1,5.248052E0,1.1139226E1,6.925037E0,1.6543852E0,9.484841E0],"tree_param":{"num_deleted":"0","num_feature":"120","num_nodes":"11","size_leaf_vector":"1"}},{"base_weights":[-3.020799E-2,-3.6690697E-2,6.105566E-1,7.166294E-2,-0E0],"categories":[],"categories_nodes":[],"categories_segments":[],"categories_sizes":[],"default_left":[0,0,0,0,0],"id":90,"left_children":[1,-1,3,-1,-1],"loss_changes":[7.6218476E0,0E0,8.502388E-1,0E0,0E0],"parents":[2147483647,0,0,2,2],"right_children":[2,-1,4,-1,-1],"split_conditions":[1E0,-3.6690697E-2,1E0,7.166294E-2,-0E0],"split_indices":[103,0,21,0,0],"split_type":[0,0,0,0,0],"sum_hessian":[3.441907E1,2.3866241E1,1.0552832E1,9.0415125E0,1.5113189E0],"tree_param":{"num_deleted":"0","num_feature":"120","num_nodes":"5","size_leaf_vector":"1"}},{"base_weights":[-7.373441E-2,1.659962E-2,-3.232667E-2,-6.7636535E-2,3.2027802E-1,-1.7387566E-1,9.6770495E-2,4.4574705E-1,-0E0,-2.859739E-1,1.3366207E-3,-0E0,4.5601334E-2,6.2430084E-2,-0E0,-3.339794E-2,-0E0],"categories":[],"categories_nodes":[],"categories_segments":[],"categories_sizes":[],"default_left":[0,0,0,0,0,0,0,0,0,0,0,0,0,0,0,0,0],"id":91,"left_children":[1,3,-1,5,7,9,11,13,-1,15,-1,-1,-1,-1,-1,-1,-1],"loss_changes":[1.2435477E0,9.9951273E-1,0E0,4.5096987E-1,6.394971E-1,6.2212193E-1,6.238857E-1,4.6398485E-1,0E0,2.8271782E-1,0E0,0E0,0E0,0E0,0E0,0E0,0E0],"parents":[2147483647,0,0,1,1,3,3,4,4,5,5,6,6,7,7,9,9],"right_children":[2,4,-1,6,8,10,12,14,-1,16,-1,-1,-1,-1,-1,-1,-1],"split_conditions":[1E0,1E0,-3.232667E-2,1E0,1E0,1E0,1E0,1E0,-0E0,1E0,1.3366207E-3,-0E0,4.5601334E-2,6.2430084E-2,-0E0,-3.339794E-2,-0E0],"split_indices":[99,116,0,85,15,96,73,105,0,92,0,0,0,0,0,0,0],"split_type":[0,0,0,0,0,0,0,0,0,0,0,0,0,0,0,0,0],"sum_hessian":[4.0324875E1,2.7349844E1,1.2975031E1,1.9441391E1,7.908452E0,1.5469767E1,3.9716249E0,6.817732E0,1.0907203E0,1.26874275E1,2.782339E0,1.7475398E0,2.224085E0,4.1758447E0,2.6418874E0,1.1570041E1,1.1173862E0],"tree_param":{"num_deleted":"0","num_feature":"120","num_nodes":"17","size_leaf_vector":"1"}},{"base_weights":[-4.7332346E-2,-3.031895E-1,5.920154E-2,-4.516321E-2,-0E0],"categories":[],"categories_nodes":[],"categories_segments":[],"categories_sizes":[],"default_left":[0,0,0,0,0],"id":92,"left_children":[1,3,-1,-1,-1],"loss_changes":[5.1375175E0,1.2961903E0,0E0,0E0,0E0],"parents":[2147483647,0,0,1,1],"right_children":[2,4,-1,-1,-1],"split_conditions":[1E0,1E0,5.920154E-2,-4.516321E-2,-0E0],"split_indices":[11,6,0,0,0],"split_type":[0,0,0,0,0],"sum_hessian":[3.1074806E1,2.3685936E1,7.3888707E0,1.6479973E1,7.205963E0],"tree_param":{"num_deleted":"0","num_feature":"120","num_nodes":"5","size_leaf_vector":"1"}},{"base_weights":[8.298584E-2,-3.0057985E-2,3.3596826E-1,5.1110154E-1,-1.730484E-2,6.409161E-1,-7.7347136E-3,7.18313E-2,-0E0],"categories":[],"categories_nodes":[],"categories_segments":[],"categories_sizes":[],"default_left":[0,0,0,0,0,0,0,0,0],"id":93,"left_children":[1,-1,3,5,-1,7,-1,-1,-1],"loss_changes":[3.9321458E0,0E0,2.7098958E0,2.199893E0,0E0,1.1026287E0,0E0,0E0,0E0],"parents":[2147483647,0,0,2,2,3,3,5,5],"right_children":[2,-1,4,6,-1,8,-1,-1,-1],"split_conditions":[1E0,-3.0057985E-2,1E0,1E0,-1.730484E-2,1E0,-7.7347136E-3,7.18313E-2,-0E0],"split_indices":[21,0,111,1,0,117,0,0,0],"split_type":[0,0,0,0,0,0,0,0,0],"sum_hessian":[3.8117405E1,1.3503199E1,2.4614206E1,1.9771917E1,4.842289E0,1.7517658E1,2.2542574E0,1.5879145E1,1.638514E0],"tree_param":{"num_deleted":"0","num_feature":"120","num_nodes":"9","size_leaf_vector":"1"}},{"base_weights":[-3.1003218E-2,-4.6628743E-2,6.7114115E-2],"categories":[],"categories_nodes":[],"categories_segments":[],"categories_sizes":[],"default_left":[0,0,0],"id":94,"left_children":[1,-1,-1],"loss_changes":[1.0037319E1,0E0,0E0],"parents":[2147483647,0,0],"right_children":[2,-1,-1],"split_conditions":[1E0,-4.6628743E-2,6.7114115E-2],"split_indices":[40,0,0],"split_type":[0,0,0],"sum_hessian":[3.1487488E1,2.052403E1,1.0963457E1],"tree_param":{"num_deleted":"0","num_feature":"120","num_nodes":"3","size_leaf_vector":"1"}},{"base_weights":[-0E0,-4.649146E-2,5.938E-1,-0E0,7.349058E-2,4.5833986E-2,-1.3937761E-2],"categories":[],"categories_nodes":[],"categories_segments":[],"categories_sizes":[],"default_left":[0,0,0,0,0,0,0],"id":95,"left_children":[1,-1,3,5,-1,-1,-1],"loss_changes":[9.4675865E0,0E0,8.1651926E-1,5.4649425E-1,0E0,0E0,0E0],"parents":[2147483647,0,0,2,2,3,3],"right_children":[2,-1,4,6,-1,-1,-1],"split_conditions":[1E0,-4.649146E-2,1E0,1E0,7.349058E-2,4.5833986E-2,-1.3937761E-2],"split_indices":[63,0,61,14,0,0,0],"split_type":[0,0,0,0,0,0,0],"sum_hessian":[3.2423397E1,1.8567554E1,1.3855841E1,3.6452925E0,1.0210548E1,1.2912654E0,2.354027E0],"tree_param":{"num_deleted":"0","num_feature":"120","num_nodes":"7","size_leaf_vector":"1"}},{"base_weights":[5.3012643E-2,-4.3435622E-2,3.22954E-1,5.231079E-1,-2.1675363E-2,-1.4567423E-2,6.68598E-1,7.874643E-2,-0E0],"categories":[],"categories_nodes":[],"categories_segments":[],"categories_sizes":[],"default_left":[0,0,0,0,0,0,0,0,0],"id":96,"left_children":[1,-1,3,5,-1,-1,7,-1,-1],"loss_changes":[5.6071596E0,0E0,3.5720174E0,2.8515692E0,0E0,0E0,1.6095743E0,0E0,0E0],"parents":[2147483647,0,0,2,2,3,3,6,6],"right_children":[2,-1,4,6,-1,-1,8,-1,-1],"split_conditions":[1E0,-4.3435622E-2,1E0,1E0,-2.1675363E-2,-1.4567423E-2,1E0,7.874643E-2,-0E0],"split_indices":[80,0,100,83,0,0,15,0,0],"split_type":[0,0,0,0,0,0,0,0,0],"sum_hessian":[4.140075E1,1.3219627E1,2.8181122E1,2.1931356E1,6.2497654E0,2.6902688E0,1.9241087E1,1.6187243E1,3.0538433E0],"tree_param":{"num_deleted":"0","num_feature":"120","num_nodes":"9","size_leaf_vector":"1"}},{"base_weights":[-0E0,-4.1297518E-2,4.9839845E-1,5.575805E-1,-0E0,-0E0,6.865399E-2],"categories":[],"categories_nodes":[],"categories_segments":[],"categories_sizes":[],"default_left":[0,0,0,0,0,0,0],"id":97,"left_children":[1,-1,3,5,-1,-1,-1],"loss_changes":[7.981719E0,0E0,6.2700653E-1,7.671361E-1,0E0,0E0,0E0],"parents":[2147483647,0,0,2,2,3,3],"right_children":[2,-1,4,6,-1,-1,-1],"split_conditions":[1E0,-4.1297518E-2,1E0,1E0,-0E0,-0E0,6.865399E-2],"split_indices":[100,0,9,118,0,0,0],"split_type":[0,0,0,0,0,0,0],"sum_hessian":[3.647975E1,1.9252275E1,1.7227476E1,1.5580242E1,1.6472344E0,4.0162663E0,1.1563975E1],"tree_param":{"num_deleted":"0","num_feature":"120","num_nodes":"7","size_leaf_vector":"1"}},{"base_weights":[5.328363E-2,2.2577439E-1,-2.6606178E-2,3.341163E-1,-1.9826317E-2,4.571566E-1,-1.5670303E-2,6.474615E-1,-0E0,7.4998724E-1,-0E0,8.616948E-2,-0E0],"categories":[],"categories_nodes":[],"categories_segments":[],"categories_sizes":[],"default_left":[0,0,0,0,0,0,0,0,0,0,0,0,0],"id":98,"left_children":[1,3,-1,5,-1,7,-1,9,-1,11,-1,-1,-1],"loss_changes":[2.1550558E0,1.4766486E0,0E0,1.8424873E0,0E0,2.417562E0,0E0,8.6650705E-1,0E0,8.3469534E-1,0E0,0E0,0E0],"parents":[2147483647,0,0,1,1,3,3,5,5,7,7,9,9],"right_children":[2,4,-1,6,-1,8,-1,10,-1,12,-1,-1,-1],"split_conditions":[1E0,1E0,-2.6606178E-2,1E0,-1.9826317E-2,1E0,-1.5670303E-2,1E0,-0E0,1E0,-0E0,8.616948E-2,-0E0],"split_indices":[39,61,0,57,0,86,0,36,0,26,0,0,0],"split_type":[0,0,0,0,0,0,0,0,0,0,0,0,0],"sum_hessian":[3.776385E1,2.6743223E1,1.102063E1,2.3348104E1,3.395117E0,2.0352152E1,2.9959536E0,1.5411951E1,4.940201E0,1.2772028E1,2.6399226E0,1.0556889E1,2.2151392E0],"tree_param":{"num_deleted":"0","num_feature":"120","num_nodes":"13","size_leaf_vector":"1"}},{"base_weights":[-1.1069535E-1,-3.9996773E-1,4.8365977E-1,-4.6064712E-2,-0E0,-0E0,5.9232093E-2],"categories":[],"categories_nodes":[],"categories_segments":[],"categories_sizes":[],"default_left":[0,0,0,0,0,0,0],"id":99,"left_children":[1,3,5,-1,-1,-1,-1],"loss_changes":[5.5475984E0,2.7034068E-1,6.330688E-1,0E0,0E0,0E0,0E0],"parents":[2147483647,0,0,1,1,2,2],"right_children":[2,4,6,-1,-1,-1,-1],"split_conditions":[1E0,1E0,1E0,-4.6064712E-2,-0E0,-0E0,5.9232093E-2],"split_indices":[11,5,14,0,0,0,0],"split_type":[0,0,0,0,0,0,0],"sum_hessian":[3.0628136E1,2.1953115E1,8.67502E0,1.7578348E1,4.3747673E0,1.419743E0,7.2552776E0],"tree_param":{"num_deleted":"0","num_feature":"120","num_nodes":"7","size_leaf_vector":"1"}},{"base_weights":[1.1281954E-1,-1.6013722E-1,4.3612957E-1,-4.1026127E-2,1.5012364E-1,6.429537E-1,-1.1477416E-2,6.2793866E-2,-2.0000821E-2,7.623853E-2,-0E0],"categories":[],"categories_nodes":[],"categories_segments":[],"categories_sizes":[],"default_left":[0,0,0,0,0,0,0,0,0,0,0],"id":100,"left_children":[1,3,5,-1,7,9,-1,-1,-1,-1,-1],"loss_changes":[3.982234E0,1.9822228E0,2.972923E0,0E0,1.9752364E0,1.9075651E0,0E0,0E0,0E0,0E0,0E0],"parents":[2147483647,0,0,1,1,2,2,4,4,5,5],"right_children":[2,4,6,-1,8,10,-1,-1,-1,-1,-1],"split_conditions":[1E0,1E0,1E0,-4.1026127E-2,1E0,1E0,-1.1477416E-2,6.2793866E-2,-2.0000821E-2,7.623853E-2,-0E0],"split_indices":[32,15,111,0,1,1,0,0,0,0,0],"split_type":[0,0,0,0,0,0,0,0,0,0,0],"sum_hessian":[4.0205833E1,2.0397116E1,1.980872E1,1.2899038E1,7.498077E0,1.5600122E1,4.2085967E0,4.0431447E0,3.4549322E0,1.408845E1,1.5116717E0],"tree_param":{"num_deleted":"0","num_feature":"120","num_nodes":"11","size_leaf_vector":"1"}},{"base_weights":[-1.0206882E-2,-4.5216274E-2,6.3085906E-2],"categories":[],"categories_nodes":[],"categories_segments":[],"categories_sizes":[],"default_left":[0,0,0],"id":101,"left_children":[1,-1,-1],"loss_changes":[8.245907E0,0E0,0E0],"parents":[2147483647,0,0],"right_children":[2,-1,-1],"split_conditions":[1E0,-4.5216274E-2,6.3085906E-2],"split_indices":[40,0,0],"split_type":[0,0,0],"sum_hessian":[2.772819E1,1.7510729E1,1.0217461E1],"tree_param":{"num_deleted":"0","num_feature":"120","num_nodes":"3","size_leaf_vector":"1"}},{"base_weights":[-0E0,-3.793752E-1,5.8682597E-1,-4.632376E-2,-0E0,-0E0,6.2852226E-2],"categories":[],"categories_nodes":[],"categories_segments":[],"categories_sizes":[],"default_left":[0,0,0,0,0,0,0],"id":102,"left_children":[1,3,5,-1,-1,-1,-1],"loss_changes":[8.479182E0,9.147122E-1,3.662033E-1,0E0,0E0,0E0,0E0],"parents":[2147483647,0,0,1,1,2,2],"right_children":[2,4,6,-1,-1,-1,-1],"split_conditions":[1E0,1E0,1E0,-4.632376E-2,-0E0,-0E0,6.2852226E-2],"split_indices":[75,78,77,0,0,0,0],"split_type":[0,0,0,0,0,0,0],"sum_hessian":[3.584874E1,2.1723045E1,1.4125693E1,1.8503036E1,3.2200081E0,1.0133083E0,1.3112386E1],"tree_param":{"num_deleted":"0","num_feature":"120","num_nodes":"7","size_leaf_vector":"1"}},{"base_weights":[2.9489587E-3,-4.2635355E-2,2.7001044E-1,5.256473E-1,-2.4749333E-2,-0E0,6.753803E-2],"categories":[],"categories_nodes":[],"categories_segments":[],"categories_sizes":[],"default_left":[0,0,0,0,0,0,0],"id":103,"left_children":[1,-1,3,5,-1,-1,-1],"loss_changes":[4.2553253E0,0E0,3.7356153E0,1.4019971E0,0E0,0E0,0E0],"parents":[2147483647,0,0,2,2,3,3],"right_children":[2,-1,4,6,-1,-1,-1],"split_conditions":[1E0,-4.2635355E-2,1E0,1E0,-2.4749333E-2,-0E0,6.753803E-2],"split_indices":[80,0,107,90,0,0,0],"split_type":[0,0,0,0,0,0,0],"sum_hessian":[3.6475292E1,1.2323804E1,2.4151487E1,1.7448755E1,6.702731E0,4.199833E0,1.3248922E1],"tree_param":{"num_deleted":"0","num_feature":"120","num_nodes":"7","size_leaf_vector":"1"}},{"base_weights":[-4.1363616E-2,-4.5177065E-2,2.8292137E-1,-8.336621E-3,5.105387E-1,6.2413063E-2,-0E0],"categories":[],"categories_nodes":[],"categories_segments":[],"categories_sizes":[],"default_left":[0,0,0,0,0,0,0],"id":104,"left_children":[1,-1,3,-1,5,-1,-1],"loss_changes":[4.341163E0,0E0,1.8228576E0,0E0,8.708358E-1,0E0,0E0],"parents":[2147483647,0,0,2,2,4,4],"right_children":[2,-1,4,-1,6,-1,-1],"split_conditions":[1E0,-4.5177065E-2,1E0,-8.336621E-3,1E0,6.2413063E-2,-0E0],"split_indices":[111,0,107,0,3,0,0],"split_type":[0,0,0,0,0,0,0],"sum_hessian":[2.9389462E1,1.4159778E1,1.5229683E1,4.3959737E0,1.083371E1,9.153768E0,1.6799419E0],"tree_param":{"num_deleted":"0","num_feature":"120","num_nodes":"7","size_leaf_vector":"1"}},{"base_weights":[4.6157684E-2,2.0129697E-1,-2.2590625E-1,3.016826E-1,-2.0002086E-2,-3.361268E-2,-0E0,4.3848473E-1,-0E0,5.615313E-1,-0E0,6.226161E-1,-0E0,8.043134E-2,1.7889008E-3],"categories":[],"categories_nodes":[],"categories_segments":[],"categories_sizes":[],"default_left":[0,0,0,0,0,0,0,0,0,0,0,0,0,0,0],"id":105,"left_children":[1,3,5,7,-1,-1,-1,9,-1,11,-1,13,-1,-1,-1],"loss_changes":[1.7703834E0,1.3410734E0,5.9676385E-1,1.1837435E0,0E0,0E0,0E0,1.1469748E0,0E0,4.991989E-1,0E0,6.311674E-1,0E0,0E0,0E0],"parents":[2147483647,0,0,1,1,2,2,3,3,7,7,9,9,11,11],"right_children":[2,4,6,8,-1,-1,-1,10,-1,12,-1,14,-1,-1,-1],"split_conditions":[1E0,1E0,1E0,1E0,-2.0002086E-2,-3.361268E-2,-0E0,1E0,-0E0,1E0,-0E0,1E0,-0E0,8.043134E-2,1.7889008E-3],"split_indices":[32,54,105,111,0,0,0,96,0,118,0,15,0,0,0],"split_type":[0,0,0,0,0,0,0,0,0,0,0,0,0,0,0],"sum_hessian":[4.045012E1,2.8267075E1,1.21830435E1,2.480293E1,3.4641426E0,1.0236757E1,1.946286E0,1.7370785E1,7.4321465E0,1.3839344E1,3.5314403E0,1.2358163E1,1.4811811E0,7.977537E0,4.380626E0],"tree_param":{"num_deleted":"0","num_feature":"120","num_nodes":"15","size_leaf_vector":"1"}},{"base_weights":[-6.2945455E-2,-3.7752447E-1,4.064609E-1,-4.5527585E-2,-0E0,5.441625E-2,-0E0],"categories":[],"categories_nodes":[],"categories_segments":[],"categories_sizes":[],"default_left":[0,0,0,0,0,0,0],"id":106,"left_children":[1,3,5,-1,-1,-1,-1],"loss_changes":[4.648847E0,6.152141E-1,1.077267E0,0E0,0E0,0E0,0E0],"parents":[2147483647,0,0,1,1,2,2],"right_children":[2,4,6,-1,-1,-1,-1],"split_conditions":[1E0,1E0,1E0,-4.5527585E-2,-0E0,5.441625E-2,-0E0],"split_indices":[0,110,60,0,0,0,0],"split_type":[0,0,0,0,0,0,0],"sum_hessian":[2.96391E1,1.913896E1,1.050014E1,1.5815803E1,3.3231566E0,9.054313E0,1.4458277E0],"tree_param":{"num_deleted":"0","num_feature":"120","num_nodes":"7","size_leaf_vector":"1"}},{"base_weights":[1.10884205E-1,-2.1693607E-1,4.777306E-1,-4.33279E-2,5.630541E-2,6.1910814E-1,-1.1041275E-2,-6.066969E-3,3.6062554E-2,6.890855E-1,-0E0,7.625425E-2,-0E0],"categories":[],"categories_nodes":[],"categories_segments":[],"categories_sizes":[],"default_left":[0,0,0,0,0,0,0,0,0,0,0,0,0],"id":107,"left_children":[1,3,5,-1,7,9,-1,-1,-1,11,-1,-1,-1],"loss_changes":[5.217652E0,1.6167424E0,2.306273E0,0E0,6.0404277E-1,1.1830196E0,0E0,0E0,0E0,6.888838E-1,0E0,0E0,0E0],"parents":[2147483647,0,0,1,1,2,2,4,4,5,5,9,9],"right_children":[2,4,6,-1,8,10,-1,-1,-1,12,-1,-1,-1],"split_conditions":[1E0,1E0,1E0,-4.33279E-2,1E0,1E0,-1.1041275E-2,-6.066969E-3,3.6062554E-2,1E0,-0E0,7.625425E-2,-0E0],"split_indices":[32,38,111,0,15,1,0,0,0,92,0,0,0],"split_type":[0,0,0,0,0,0,0,0,0,0,0,0,0],"sum_hessian":[3.935617E1,1.9559856E1,1.9796316E1,1.2632195E1,6.92766E0,1.7288204E1,2.5081115E0,3.2088587E0,3.7188013E0,1.6253843E1,1.0343599E0,1.4274501E1,1.9793439E0],"tree_param":{"num_deleted":"0","num_feature":"120","num_nodes":"13","size_leaf_vector":"1"}},{"base_weights":[-2.4435977E-2,-4.4991177E-2,6.032918E-2],"categories":[],"categories_nodes":[],"categories_segments":[],"categories_sizes":[],"default_left":[0,0,0],"id":108,"left_children":[1,-1,-1],"loss_changes":[7.6997957E0,0E0,0E0],"parents":[2147483647,0,0],"right_children":[2,-1,-1],"split_conditions":[1E0,-4.4991177E-2,6.032918E-2],"split_indices":[40,0,0],"split_type":[0,0,0],"sum_hessian":[2.7387238E1,1.7441591E1,9.945646E0],"tree_param":{"num_deleted":"0","num_feature":"120","num_nodes":"3","size_leaf_vector":"1"}},{"base_weights":[6.4514633E-3,-4.1452214E-1,5.7884675E-1,-4.5079358E-2,-0E0,-0E0,6.517425E-2],"categories":[],"categories_nodes":[],"categories_segments":[],"categories_sizes":[],"default_left":[0,0,0,0,0,0,0],"id":109,"left_children":[1,3,5,-1,-1,-1,-1],"loss_changes":[8.775864E0,3.5942435E-1,8.1771517E-1,0E0,0E0,0E0,0E0],"parents":[2147483647,0,0,1,1,2,2],"right_children":[2,4,6,-1,-1,-1,-1],"split_conditions":[1E0,1E0,1E0,-4.5079358E-2,-0E0,-0E0,6.517425E-2],"split_indices":[60,61,68,0,0,0,0],"split_type":[0,0,0,0,0,0,0],"sum_hessian":[3.3742195E1,1.8595053E1,1.5147142E1,1.7337317E1,1.2577363E0,1.4849505E0,1.3662192E1],"tree_param":{"num_deleted":"0","num_feature":"120","num_nodes":"7","size_leaf_vector":"1"}},{"base_weights":[-0E0,-4.189703E-2,2.5921214E-1,4.487392E-1,-2.7002105E-2,-0E0,6.82565E-1,7.8471266E-2,-0E0],"categories":[],"categories_nodes":[],"categories_segments":[],"categories_sizes":[],"default_left":[0,0,0,0,0,0,0,0,0],"id":110,"left_children":[1,-1,3,5,-1,-1,7,-1,-1],"loss_changes":[3.839528E0,0E0,2.6555872E0,2.2151377E0,0E0,0E0,4.4262266E-1,0E0,0E0],"parents":[2147483647,0,0,2,2,3,3,6,6],"right_children":[2,-1,4,6,-1,-1,8,-1,-1],"split_conditions":[1E0,-4.189703E-2,1E0,1E0,-2.7002105E-2,-0E0,1E0,7.8471266E-2,-0E0],"split_indices":[80,0,100,82,0,0,35,0,0],"split_type":[0,0,0,0,0,0,0,0,0],"sum_hessian":[3.436904E1,1.1883434E1,2.2485605E1,1.805974E1,4.4258666E0,6.067244E0,1.1992496E1,9.548937E0,2.4435587E0],"tree_param":{"num_deleted":"0","num_feature":"120","num_nodes":"9","size_leaf_vector":"1"}},{"base_weights":[-1.2634012E-2,-3.9488328E-1,4.026744E-1,-4.4063028E-2,-0E0,-0E0,5.993097E-1,6.592012E-2,-0E0],"categories":[],"categories_nodes":[],"categories_segments":[],"categories_sizes":[],"default_left":[0,0,0,0,0,0,0,0,0],"id":111,"left_children":[1,3,5,-1,-1,-1,7,-1,-1],"loss_changes":[5.135632E0,3.5662174E-1,1.5770152E0,0E0,0E0,0E0,3.5244608E-1,0E0,0E0],"parents":[2147483647,0,0,1,1,2,2,6,6],"right_children":[2,4,6,-1,-1,-1,8,-1,-1],"split_conditions":[1E0,1E0,1E0,-4.4063028E-2,-0E0,-0E0,1E0,6.592012E-2,-0E0],"split_indices":[100,117,118,0,0,0,36,0,0],"split_type":[0,0,0,0,0,0,0,0,0],"sum_hessian":[3.0397617E1,1.7108244E1,1.3289373E1,1.5380163E1,1.728081E0,3.4478028E0,9.84157E0,8.772114E0,1.0694561E0],"tree_param":{"num_deleted":"0","num_feature":"120","num_nodes":"9","size_leaf_vector":"1"}},{"base_weights":[1.4155562E-2,-4.460937E-2,3.1530613E-1,4.297431E-2,-3.1731747E-2,-0E0,7.208973E-2,-2.8846025E-2,3.8604856E-2,8.494336E-2,-3.4589544E-2,3.3497503E-1,-1.5568027E-2,4.324711E-2,-0E0],"categories":[],"categories_nodes":[],"categories_segments":[],"categories_sizes":[],"default_left":[0,0,0,0,0,0,0,0,0,0,0,0,0,0,0],"id":112,"left_children":[1,3,5,7,-1,-1,-1,9,-1,11,-1,13,-1,-1,-1],"loss_changes":[9.787049E-1,1.0261986E0,1.632618E0,8.9807665E-1,0E0,0E0,0E0,8.783121E-1,0E0,8.616724E-1,0E0,2.8074127E-1,0E0,0E0,0E0],"parents":[2147483647,0,0,1,1,2,2,3,3,7,7,9,9,11,11],"right_children":[2,4,6,8,-1,-1,-1,10,-1,12,-1,14,-1,-1,-1],"split_conditions":[1E0,1E0,1E0,1E0,-3.1731747E-2,-0E0,7.208973E-2,1E0,3.8604856E-2,1E0,-3.4589544E-2,1E0,-1.5568027E-2,4.324711E-2,-0E0],"split_indices":[100,81,23,85,0,0,0,3,0,57,0,99,0,0,0],"split_type":[0,0,0,0,0,0,0,0,0,0,0,0,0,0,0],"sum_hessian":[3.821223E1,2.9907509E1,8.304722E0,2.0499369E1,9.408142E0,4.383211E0,3.9215105E0,1.5297942E1,5.2014256E0,9.47526E0,5.8226824E0,6.4925823E0,2.9826777E0,4.996169E0,1.4964131E0],"tree_param":{"num_deleted":"0","num_feature":"120","num_nodes":"15","size_leaf_vector":"1"}},{"base_weights":[-1.4250471E-2,-4.381182E-2,3.553779E-1,6.627688E-1,-1.362099E-2,-0E0,8.039304E-2],"categories":[],"categories_nodes":[],"categories_segments":[],"categories_sizes":[],"default_left":[0,0,0,0,0,0,0],"id":113,"left_children":[1,-1,3,5,-1,-1,-1],"loss_changes":[4.8019004E0,0E0,2.860962E0,1.4913602E0,0E0,0E0,0E0],"parents":[2147483647,0,0,2,2,3,3],"right_children":[2,-1,4,6,-1,-1,-1],"split_conditions":[1E0,-4.381182E-2,1E0,1E0,-1.362099E-2,-0E0,8.039304E-2],"split_indices":[1,0,72,8,0,0,0],"split_type":[0,0,0,0,0,0,0],"sum_hessian":[2.8127207E1,1.4276219E1,1.3850987E1,9.559448E0,4.2915387E0,1.0751656E0,8.4842825E0],"tree_param":{"num_deleted":"0","num_feature":"120","num_nodes":"7","size_leaf_vector":"1"}},{"base_weights":[4.0636845E-2,-4.390005E-2,3.3570498E-1,4.6573955E-1,-2.1382561E-2,5.9105754E-1,-2.528281E-3,6.2246263E-2,-0E0],"categories":[],"categories_nodes":[],"categories_segments":[],"categories_sizes":[],"default_left":[0,0,0,0,0,0,0,0,0],"id":114,"left_children":[1,-1,3,5,-1,7,-1,-1,-1],"loss_changes":[5.9548206E0,0E0,2.3319423E0,2.0697007E0,0E0,3.7259054E-1,0E0,0E0,0E0],"parents":[2147483647,0,0,2,2,3,3,5,5],"right_children":[2,-1,4,6,-1,8,-1,-1,-1],"split_conditions":[1E0,-4.390005E-2,1E0,1E0,-2.1382561E-2,1E0,-2.528281E-3,6.2246263E-2,-0E0],"split_indices":[20,0,2,111,0,117,0,0,0],"split_type":[0,0,0,0,0,0,0,0,0],"sum_hessian":[4.0764442E1,1.4049669E1,2.6714773E1,2.319774E1,3.5170329E0,1.9941212E1,3.2565274E0,1.8843046E1,1.0981654E0],"tree_param":{"num_deleted":"0","num_feature":"120","num_nodes":"9","size_leaf_vector":"1"}},{"base_weights":[-5.925805E-3,-4.451828E-2,5.8841106E-2],"categories":[],"categories_nodes":[],"categories_segments":[],"categories_sizes":[],"default_left":[0,0,0],"id":115,"left_children":[1,-1,-1],"loss_changes":[7.5126133E0,0E0,0E0],"parents":[2147483647,0,0],"right_children":[2,-1,-1],"split_conditions":[1E0,-4.451828E-2,5.8841106E-2],"split_indices":[41,0,0],"split_type":[0,0,0],"sum_hessian":[2.7321857E1,1.682241E1,1.0499446E1],"tree_param":{"num_deleted":"0","num_feature":"120","num_nodes":"3","size_leaf_vector":"1"}},{"base_weights":[2.274917E-2,-4.1041415E-2,5.3883326E-1,6.2442392E-2,-0E0],"categories":[],"categories_nodes":[],"categories_segments":[],"categories_sizes":[],"default_left":[0,0,0,0,0],"id":116,"left_children":[1,-1,3,-1,-1],"loss_changes":[7.8950257E0,0E0,1.2093067E0,0E0,0E0],"parents":[2147483647,0,0,2,2],"right_children":[2,-1,4,-1,-1],"split_conditions":[1E0,-4.1041415E-2,1E0,6.2442392E-2,-0E0],"split_indices":[63,0,10,0,0],"split_type":[0,0,0,0,0],"sum_hessian":[3.27531E1,1.6864965E1,1.5888136E1,1.467722E1,1.2109156E0],"tree_param":{"num_deleted":"0","num_feature":"120","num_nodes":"5","size_leaf_vector":"1"}},{"base_weights":[-0E0,-2.8872266E-1,3.4805012E-1,-3.8594704E-2,-0E0,5.1759815E-1,-1.4415288E-2,-0E0,6.1797675E-2],"categories":[],"categories_nodes":[],"categories_segments":[],"categories_sizes":[],"default_left":[0,0,0,0,0,0,0,0,0],"id":117,"left_children":[1,3,5,-1,-1,7,-1,-1,-1],"loss_changes":[3.680309E0,6.064582E-1,1.9234669E0,0E0,0E0,8.045113E-1,0E0,0E0,0E0],"parents":[2147483647,0,0,1,1,2,2,5,5],"right_children":[2,4,6,-1,-1,8,-1,-1,-1],"split_conditions":[1E0,1E0,1E0,-3.8594704E-2,-0E0,1E0,-1.4415288E-2,-0E0,6.1797675E-2],"split_indices":[118,111,101,0,0,95,0,0,0],"split_type":[0,0,0,0,0,0,0,0,0],"sum_hessian":[3.4136936E1,1.7457228E1,1.667971E1,1.3400762E1,4.056466E0,1.3878947E1,2.8007627E0,2.3344126E0,1.1544534E1],"tree_param":{"num_deleted":"0","num_feature":"120","num_nodes":"9","size_leaf_vector":"1"}},{"base_weights":[-0E0,-3.822663E-1,3.9057434E-1,-4.290204E-2,-0E0,-0E0,5.301678E-1,6.670437E-2,-0E0],"categories":[],"categories_nodes":[],"categories_segments":[],"categories_sizes":[],"default_left":[0,0,0,0,0,0,0,0,0],"id":118,"left_children":[1,3,5,-1,-1,-1,7,-1,-1],"loss_changes":[4.630911E0,2.6736283E-1,9.204073E-1,0E0,0E0,0E0,5.6994486E-1,0E0,0E0],"parents":[2147483647,0,0,1,1,2,2,6,6],"right_children":[2,4,6,-1,-1,-1,8,-1,-1],"split_conditions":[1E0,1E0,1E0,-4.290204E-2,-0E0,-0E0,1E0,6.670437E-2,-0E0],"split_indices":[100,87,111,0,0,0,87,0,0],"split_type":[0,0,0,0,0,0,0,0,0],"sum_hessian":[2.9062544E1,1.5762391E1,1.3300153E1,1.3760575E1,2.0018156E0,3.2645237E0,1.0035628E1,7.2522497E0,2.783379E0],"tree_param":{"num_deleted":"0","num_feature":"120","num_nodes":"9","size_leaf_vector":"1"}},{"base_weights":[5.899435E-2,1.3150653E-1,-2.5228176E-2,2.2523707E-1,-1.6914802E-2,3.101176E-1,-1.5263262E-2,4.3146813E-1,-0E0,5.701112E-1,6.637505E-2,6.619672E-2,-0E0,-7.054665E-3,4.2777863E-1,-0E0,7.443987E-2],"categories":[],"categories_nodes":[],"categories_segments":[],"categories_sizes":[],"default_left":[0,0,0,0,0,0,0,0,0,0,0,0,0,0,0,0,0],"id":119,"left_children":[1,3,-1,5,-1,7,-1,9,-1,11,13,-1,-1,-1,15,-1,-1],"loss_changes":[8.065868E-1,1.0916085E0,0E0,1.1653215E0,0E0,1.1595378E0,0E0,3.4552217E-1,0E0,4.5109653E-1,8.160548E-1,0E0,0E0,0E0,1.0695972E0,0E0,0E0],"parents":[2147483647,0,0,1,1,3,3,5,5,7,7,9,9,10,10,14,14],"right_children":[2,4,-1,6,-1,8,-1,10,-1,12,14,-1,-1,-1,16,-1,-1],"split_conditions":[1E0,1E0,-2.5228176E-2,1E0,-1.6914802E-2,1E0,-1.5263262E-2,1E0,-0E0,1E0,1E0,6.619672E-2,-0E0,-7.054665E-3,1E0,-0E0,7.443987E-2],"split_indices":[61,35,0,40,0,15,0,84,0,93,23,0,0,0,104,0,0],"split_type":[0,0,0,0,0,0,0,0,0,0,0,0,0,0,0,0,0],"sum_hessian":[3.8616016E1,3.4393997E1,4.22202E0,2.8946655E1,5.4473424E0,2.5944485E1,3.0021708E0,1.914811E1,6.796374E0,1.1485824E1,7.6622868E0,9.290546E0,2.1952765E0,4.133916E0,3.5283706E0,1.1027004E0,2.4256704E0],"tree_param":{"num_deleted":"0","num_feature":"120","num_nodes":"17","size_leaf_vector":"1"}},{"base_weights":[-5.6429632E-2,-3.817979E-1,3.9450824E-1,-4.500893E-2,-0E0,6.0424298E-2,-9.320292E-3],"categories":[],"categories_nodes":[],"categories_segments":[],"categories_sizes":[],"default_left":[0,0,0,0,0,0,0],"id":120,"left_children":[1,3,5,-1,-1,-1,-1],"loss_changes":[4.706392E0,7.666278E-1,1.8208195E0,0E0,0E0,0E0,0E0],"parents":[2147483647,0,0,1,1,2,2],"right_children":[2,4,6,-1,-1,-1,-1],"split_conditions":[1E0,1E0,1E0,-4.500893E-2,-0E0,6.0424298E-2,-9.320292E-3],"split_indices":[0,11,72,0,0,0,0],"split_type":[0,0,0,0,0,0,0],"sum_hessian":[3.0137217E1,1.8883211E1,1.1254006E1,1.7091566E1,1.7916452E0,9.13644E0,2.1175663E0],"tree_param":{"num_deleted":"0","num_feature":"120","num_nodes":"7","size_leaf_vector":"1"}},{"base_weights":[1.2053073E-2,-1.765418E-1,3.491437E-1,-3.0220503E-2,-0E0,-0E0,4.3223706E-1,1.5182692E-1,-1.6985307E-2,5.089119E-1,-0E0,3.0553553E-2,-0E0,5.793717E-2,-0E0],"categories":[],"categories_nodes":[],"categories_segments":[],"categories_sizes":[],"default_left":[0,0,0,0,0,0,0,0,0,0,0,0,0,0,0],"id":121,"left_children":[1,3,5,-1,7,-1,9,11,-1,13,-1,-1,-1,-1,-1],"loss_changes":[2.6533728E0,6.296264E-1,7.8216887E-1,0E0,2.603625E-1,0E0,6.32987E-1,3.5929602E-1,0E0,5.381727E-1,0E0,0E0,0E0,0E0,0E0],"parents":[2147483647,0,0,1,1,2,2,4,4,6,6,7,7,9,9],"right_children":[2,4,6,-1,8,-1,10,12,-1,14,-1,-1,-1,-1,-1],"split_conditions":[1E0,1E0,1E0,-3.0220503E-2,1E0,-0E0,1E0,1E0,-1.6985307E-2,1E0,-0E0,3.0553553E-2,-0E0,