{"learner":{"attributes":{},"feature_names":[],"feature_types":[],"gradient_booster":{"model":{"gbtree_model_param":{"num_parallel_tree":"1","num_trees":"1400"},"iteration_indptr":[0,7,14,21,28,35,42,49,56,63,70,77,84,91,98,105,112,119,126,133,140,147,154,161,168,175,182,189,196,203,210,217,224,231,238,245,252,259,266,273,280,287,294,301,308,315,322,329,336,343,350,357,364,371,378,385,392,399,406,413,420,427,434,441,448,455,462,469,476,483,490,497,504,511,518,525,532,539,546,553,560,567,574,581,588,595,602,609,616,623,630,637,644,651,658,665,672,679,686,693,700,707,714,721,728,735,742,749,756,763,770,777,784,791,798,805,812,819,826,833,840,847,854,861,868,875,882,889,896,903,910,917,924,931,938,945,952,959,966,973,980,987,994,1001,1008,1015,1022,1029,1036,1043,1050,1057,1064,1071,1078,1085,1092,1099,1106,1113,1120,1127,1134,1141,1148,1155,1162,1169,1176,1183,1190,1197,1204,1211,1218,1225,1232,1239,1246,1253,1260,1267,1274,1281,1288,1295,1302,1309,1316,1323,1330,1337,1344,1351,1358,1365,1372,1379,1386,1393,1400],"tree_info":[0,1,2,3,4,5,6,0,1,2,3,4,5,6,0,1,2,3,4,5,6,0,1,2,3,4,5,6,0,1,2,3,4,5,6,0,1,2,3,4,5,6,0,1,2,3,4,5,6,0,1,2,3,4,5,6,0,1,2,3,4,5,6,0,1,2,3,4,5,6,0,1,2,3,4,5,6,0,1,2,3,4,5,6,0,1,2,3,4,5,6,0,1,2,3,4,5,6,0,1,2,3,4,5,6,0,1,2,3,4,5,6,0,1,2,3,4,5,6,0,1,2,3,4,5,6,0,1,2,3,4,5,6,0,1,2,3,4,5,6,0,1,2,3,4,5,6,0,1,2,3,4,5,6,0,1,2,3,4,5,6,0,1,2,3,4,5,6,0,1,2,3,4,5,6,0,1,2,3,4,5,6,0,1,2,3,4,5,6,0,1,2,3,4,5,6,0,1,2,3,4,5,6,0,1,2,3,4,5,6,0,1,2,3,4,5,6,0,1,2,3,4,5,6,0,1,2,3,4,5,6,0,1,2,3,4,5,6,0,1,2,3,4,5,6,0,1,2,3,4,5,6,0,1,2,3,4,5,6,0,1,2,3,4,5,6,0,1,2,3,4,5,6,0,1,2,3,4,5,6,0,1,2,3,4,5,6,0,1,2,3,4,5,6,0,1,2,3,4,5,6,0,1,2,3,4,5,6,0,1,2,3,4,5,6,0,1,2,3,4,5,6,0,1,2,3,4,5,6,0,1,2,3,4,5,6,0,1,2,3,4,5,6,0,1,2,3,4,5,6,0,1,2,3,4,5,6,0,1,2,3,4,5,6,0,1,2,3,4,5,6,0,1,2,3,4,5,6,0,1,2,3,4,5,6,0,1,2,3,4,5,6,0,1,2,3,4,5,6,0,1,2,3,4,5,6,0,1,2,3,4,5,6,0,1,2,3,4,5,6,0,1,2,3,4,5,6,0,1,2,3,4,5,6,0,1,2,3,4,5,6,0,1,2,3,4,5,6,0,1,2,3,4,5,6,0,1,2,3,4,5,6,0,1,2,3,4,5,6,0,1,2,3,4,5,6,0,1,2,3,4,5,6,0,1,2,3,4,5,6,0,1,2,3,4,5,6,0,1,2,3,4,5,6,0,1,2,3,4,5,6,0,1,2,3,4,5,6,0,1,2,3,4,5,6,0,1,2,3,4,5,6,0,1,2,3,4,5,6,0,1,2,3,4,5,6,0,1,2,3,4,5,6,0,1,2,3,4,5,6,0,1,2,3,4,5,6,0,1,2,3,4,5,6,0,1,2,3,4,5,6,0,1,2,3,4,5,6,0,1,2,3,4,5,6,0,1,2,3,4,5,6,0,1,2,3,4,5,6,0,1,2,3,4,5,6,0,1,2,3,4,5,6,0,1,2,3,4,5,6,0,1,2,3,4,5,6,0,1,2,3,4,5,6,0,1,2,3,4,5,6,0,1,2,3,4,5,6,0,1,2,3,4,5,6,0,1,2,3,4,5,6,0,1,2,3,4,5,6,0,1,2,3,4,5,6,0,1,2,3,4,5,6,0,1,2,3,4,5,6,0,1,2,3,4,5,6,0,1,2,3,4,5,6,0,1,2,3,4,5,6,0,1,2,3,4,5,6,0,1,2,3,4,5,6,0,1,2,3,4,5,6,0,1,2,3,4,5,6,0,1,2,3,4,5,6,0,1,2,3,4,5,6,0,1,2,3,4,5,6,0,1,2,3,4,5,6,0,1,2,3,4,5,6,0,1,2,3,4,5,6,0,1,2,3,4,5,6,0,1,2,3,4,5,6,0,1,2,3,4,5,6,0,1,2,3,4,5,6,0,1,2,3,4,5,6,0,1,2,3,4,5,6,0,1,2,3,4,5,6,0,1,2,3,4,5,6,0,1,2,3,4,5,6,0,1,2,3,4,5,6,0,1,2,3,4,5,6,0,1,2,3,4,5,6,0,1,2,3,4,5,6,0,1,2,3,4,5,6,0,1,2,3,4,5,6,0,1,2,3,4,5,6,0,1,2,3,4,5,6,0,1,2,3,4,5,6,0,1,2,3,4,5,6,0,1,2,3,4,5,6,0,1,2,3,4,5,6,0,1,2,3,4,5,6,0,1,2,3,4,5,6,0,1,2,3,4,5,6,0,1,2,3,4,5,6,0,1,2,3,4,5,6,0,1,2,3,4,5,6,0,1,2,3,4,5,6,0,1,2,3,4,5,6,0,1,2,3,4,5,6,0,1,2,3,4,5,6,0,1,2,3,4,5,6,0,1,2,3,4,5,6,0,1,2,3,4,5,6,0,1,2,3,4,5,6,0,1,2,3,4,5,6,0,1,2,3,4,5,6,0,1,2,3,4,5,6,0,1,2,3,4,5,6,0,1,2,3,4,5,6,0,1,2,3,4,5,6,0,1,2,3,4,5,6,0,1,2,3,4,5,6,0,1,2,3,4,5,6,0,1,2,3,4,5,6,0,1,2,3,4,5,6,0,1,2,3,4,5,6,0,1,2,3,4,5,6,0,1,2,3,4,5,6,0,1,2,3,4,5,6,0,1,2,3,4,5,6,0,1,2,3,4,5,6,0,1,2,3,4,5,6,0,1,2,3,4,5,6,0,1,2,3,4,5,6,0,1,2,3,4,5,6,0,1,2,3,4,5,6,0,1,2,3,4,5,6,0,1,2,3,4,5,6,0,1,2,3,4,5,6,0,1,2,3,4,5,6,0,1,2,3,4,5,6,0,1,2,3,4,5,6,0,1,2,3,4,5,6,0,1,2,3,4,5,6,0,1,2,3,4,5,6,0,1,2,3,4,5,6,0,1,2,3,4,5,6,0,1,2,3,4,5,6,0,1,2,3,4,5,6,0,1,2,3,4,5,6,0,1,2,3,4,5,6,0,1,2,3,4,5,6,0,1,2,3,4,5,6,0,1,2,3,4,5,6,0,1,2,3,4,5,6,0,1,2,3,4,5,6,0,1,2,3,4,5,6,0,1,2,3,4,5,6,0,1,2,3,4,5,6,0,1,2,3,4,5,6,0,1,2,3,4,5,6,0,1,2,3,4,5,6,0,1,2,3,4,5,6,0,1,2,3,4,5,6,0,1,2,3,4,5,6,0,1,2,3,4,5,6],"trees":[{"base_weights":[-1.735491E-8,2.5427923E-1,-4.4046143E-1,4.6125332E-1,-5.7550013E-2,-5.295885E-1,5.511811E-2,7.459166E-1,-5.7431366E-2,-3.904797E-1,-5.7925522E-2,1.3723387E0,-8.4524065E-2,-5.6881666E-2,9.102729E-3,2.2997944E0,3.5342374E-1,-2.403296E-1,9.7072415E-2,3.0298078E0,4.162537E-2,-5.6245435E-2,1.0221741E0,6.0111616E-2,-5.6965053E-2,3.4008095E-1,2.0026007E-1,2.241793E-2,2.4807394E-1,-2.834008E-1,9.7072415E-2,2.1571647E-2,-5.5801596E-2],"categories":[],"categories_nodes":[],"categories_segments":[],"categories_sizes":[],"default_left":[0,0,0,0,0,0,0,0,0,0,0,0,0,0,0,0,0,0,0,0,0,0,0,0,0,0,0,0,0,0,0,0,0],"id":0,"left_children":[1,3,5,7,-1,9,-1,11,-1,13,-1,15,17,-1,-1,19,21,23,-1,25,-1,-1,27,29,-1,-1,-1,-1,-1,31,-1,-1,-1],"loss_changes":[6.550412E0,6.394699E0,1.9211116E0,8.807667E0,0E0,1.1343336E-1,0E0,1.216638E1,0E0,4.7641385E-1,0E0,1.2510345E1,1.6906167E0,0E0,0E0,9.440025E0,4.0187025E0,8.8561976E-1,0E0,1.2236557E0,0E0,0E0,4.336432E0,1.5143001E0,0E0,0E0,0E0,0E0,0E0,4.9568158E-1,0E0,0E0,0E0],"parents":[2147483647,0,0,1,1,2,2,3,3,5,5,7,7,9,9,11,11,12,12,15,15,16,16,17,17,19,19,22,22,23,23,29,29],"right_children":[2,4,6,8,-1,10,-1,12,-1,14,-1,16,18,-1,-1,20,22,24,-1,26,-1,-1,28,30,-1,-1,-1,-1,-1,32,-1,-1,-1],"split_conditions":[1E0,1E0,1E0,1E0,-5.7550013E-2,1E0,5.511811E-2,1E0,-5.7431366E-2,1E0,-5.7925522E-2,1E0,1E0,-5.6881666E-2,9.102729E-3,1E0,1E0,1E0,9.7072415E-2,1E0,4.162537E-2,-5.6245435E-2,1E0,1E0,-5.6965053E-2,3.4008095E-1,2.0026007E-1,2.241793E-2,2.4807394E-1,1E0,9.7072415E-2,2.1571647E-2,-5.5801596E-2],"split_indices":[32,40,105,61,0,29,0,111,0,84,0,15,9,0,0,119,12,26,0,90,0,0,71,89,0,0,0,0,0,86,0,0,0],"split_type":[0,0,0,0,0,0,0,0,0,0,0,0,0,0,0,0,0,0,0,0,0,0,0,0,0,0,0,0,0,0,0,0,0],"sum_hessian":[5.8285717E1,3.6979595E1,2.1306124E1,2.9632656E1,7.346939E0,1.9591839E1,1.7142859E0,2.3265308E1,6.3673472E0,5.3877554E0,1.42040825E1,1.3224491E1,1.0040817E1,3.9183676E0,1.4693879E0,6.8571434E0,6.3673472E0,8.816327E0,1.2244899E0,4.8979597E0,1.9591838E0,2.6938777E0,3.6734695E0,4.6530614E0,4.1632657E0,3.4285717E0,1.4693879E0,2.4489799E0,1.2244899E0,3.4285717E0,1.2244899E0,1.2244899E0,2.2040818E0],"tree_param":{"num_deleted":"0","num_feature":"120","num_nodes":"33","size_leaf_vector":"1"}},{"base_weights":[-1.7127478E-1,-4.6849006E-1,2.5667496E0,-5.2398115E-1,1.7257318E-1,1.9838055E0,3.3480954E-1,-5.61442E-1,4.3505263E-2,2.7559054E-1,1.1023622E-1,-5.819273E-2,-4.312115E-1,-5.5500496E-2,9.7072415E-2,2.1571647E-2,-5.7315767E-2],"categories":[],"categories_nodes":[],"categories_segments":[],"categories_sizes":[],"default_left":[0,0,0,0,0,0,0,0,0,0,0,0,0,0,0,0,0],"id":1,"left_children":[1,3,5,7,-1,9,-1,11,13,-1,-1,-1,15,-1,-1,-1,-1],"loss_changes":[4.7633533E1,6.5136223E0,1.9469185E0,1.0978651E0,0E0,2.0976124E0,0E0,1.03881836E-1,1.8761503E0,0E0,0E0,0E0,6.5123117E-1,0E0,0E0,0E0,0E0],"parents":[2147483647,0,0,1,1,2,2,3,3,5,5,7,7,8,8,12,12],"right_children":[2,4,6,8,-1,10,-1,12,14,-1,-1,-1,16,-1,-1,-1,-1],"split_conditions":[1E0,1E0,1E0,1E0,1.7257318E-1,1E0,3.3480954E-1,1E0,1E0,2.7559054E-1,1.1023622E-1,-5.819273E-2,1E0,-5.5500496E-2,9.7072415E-2,2.1571647E-2,-5.7315767E-2],"split_indices":[10,11,39,0,0,85,0,105,9,0,0,0,83,0,0,0,0],"split_type":[0,0,0,0,0,0,0,0,0,0,0,0,0,0,0,0,0],"sum_hessian":[5.8285717E1,5.2653065E1,5.632653E0,5.1428574E1,1.2244899E0,3.4285717E0,2.2040818E0,4.82449E1,3.1836736E0,1.7142859E0,1.7142859E0,4.1387756E1,6.8571434E0,1.9591838E0,1.2244899E0,1.2244899E0,5.632653E0],"tree_param":{"num_deleted":"0","num_feature":"120","num_nodes":"17","size_leaf_vector":"1"}},{"base_weights":[2.3978466E-1,-5.226082E-1,1.2897335E0,-5.8107357E-2,-3.3175355E-1,1.9786581E0,-5.746427E-2,1.5339662E-1,-5.727036E-2,2.6783867E0,-3.3508855E-1,9.7072415E-2,-5.4616388E-2,1.5328466E0,3.2434838E0,2.1571647E-2,-5.64137E-2,2.2417931E-1,2.914083E-1,3.4530005E-1,2.2047244E-1,-5.392912E-2,9.7072415E-2],"categories":[],"categories_nodes":[],"categories_segments":[],"categories_sizes":[],"default_left":[0,0,0,0,0,0,0,0,0,0,0,0,0,0,0,0,0,0,0,0,0,0,0],"id":2,"left_children":[1,3,5,-1,7,9,-1,11,-1,13,15,-1,-1,17,19,-1,-1,21,-1,-1,-1,-1,-1],"loss_changes":[4.6803627E1,3.5894585E-1,3.169719E1,0E0,9.651931E-1,2.9195312E1,0E0,1.650473E0,0E0,8.445389E0,5.500273E-1,0E0,0E0,8.52621E0,1.2325287E0,0E0,0E0,1.5051795E0,0E0,0E0,0E0,0E0,0E0],"parents":[2147483647,0,0,1,1,2,2,4,4,5,5,7,7,9,9,10,10,13,13,14,14,17,17],"right_children":[2,4,6,-1,8,10,-1,12,-1,14,16,-1,-1,18,20,-1,-1,22,-1,-1,-1,-1,-1],"split_conditions":[1E0,1E0,1E0,-5.8107357E-2,1E0,1E0,-5.746427E-2,1E0,-5.727036E-2,1E0,1E0,9.7072415E-2,-5.4616388E-2,1E0,1E0,2.1571647E-2,-5.64137E-2,1E0,2.914083E-1,3.4530005E-1,2.2047244E-1,-5.392912E-2,9.7072415E-2],"split_indices":[20,32,3,0,80,111,0,6,0,32,88,0,0,15,84,0,0,24,0,0,0,0,0],"split_type":[0,0,0,0,0,0,0,0,0,0,0,0,0,0,0,0,0,0,0,0,0,0,0],"sum_hessian":[5.8285717E1,3.379592E1,2.4489798E1,2.5714287E1,8.081634E0,1.7877552E1,6.6122456E0,2.6938777E0,5.3877554E0,1.3714287E1,4.1632657E0,1.2244899E0,1.4693879E0,4.6530614E0,9.061225E0,1.2244899E0,2.9387758E0,2.4489799E0,2.2040818E0,7.346939E0,1.7142859E0,1.2244899E0,1.2244899E0],"tree_param":{"num_deleted":"0","num_feature":"120","num_nodes":"23","size_leaf_vector":"1"}},{"base_weights":[-6.850992E-2,-5.821904E-2,3.4530005E-1],"categories":[],"categories_nodes":[],"categories_segments":[],"categories_sizes":[],"default_left":[0,0,0],"id":3,"left_children":[1,-1,-1],"loss_changes":[1.0581677E2,0E0,0E0],"parents":[2147483647,0,0],"right_children":[2,-1,-1],"split_conditions":[1E0,-5.821904E-2,3.4530005E-1],"split_indices":[40,0,0],"split_type":[0,0,0],"sum_hessian":[5.8285717E1,5.0938778E1,7.346939E0],"tree_param":{"num_deleted":"0","num_feature":"120","num_nodes":"3","size_leaf_vector":"1"}},{"base_weights":[3.4254935E-2,-5.21329E-1,3.0251725E0,-5.8206912E-2,3.4804222E-1,1.3875124E-1,3.4514025E-1,1.1023622E-1,-5.4616388E-2],"categories":[],"categories_nodes":[],"categories_segments":[],"categories_sizes":[],"default_left":[0,0,0,0,0,0,0,0,0],"id":4,"left_children":[1,3,5,-1,7,-1,-1,-1,-1],"loss_changes":[9.717758E1,2.6248732E0,5.9158325E0,0E0,2.2751021E0,0E0,0E0,0E0,0E0],"parents":[2147483647,0,0,1,1,2,2,4,4],"right_children":[2,4,6,-1,8,-1,-1,-1,-1],"split_conditions":[1E0,1E0,1E0,-5.8206912E-2,1E0,1.3875124E-1,3.4514025E-1,1.1023622E-1,-5.4616388E-2],"split_indices":[61,60,75,0,6,0,0,0,0],"split_type":[0,0,0,0,0,0,0,0,0],"sum_hessian":[5.8285717E1,4.9224495E1,9.061225E0,4.604082E1,3.1836736E0,1.9591838E0,7.1020412E0,1.7142859E0,1.4693879E0],"tree_param":{"num_deleted":"0","num_feature":"120","num_nodes":"9","size_leaf_vector":"1"}},{"base_weights":[5.138241E-2,-2.6870328E-1,2.2444503E0,-5.034898E-1,4.3409124E-1,3.0900674E0,-5.511811E-2,-5.531989E-1,4.3505263E-2,1.2936344E0,-5.735746E-2,3.4179032E-1,2.0026007E-1,-5.8161236E-2,2.1571647E-2,9.7072415E-2,-5.5500496E-2,2.0293996E0,-5.5500496E-2,2.8772306E0,-5.392912E-2,2.0026007E-1,3.3480954E-1],"categories":[],"categories_nodes":[],"categories_segments":[],"categories_sizes":[],"default_left":[0,0,0,0,0,0,0,0,0,0,0,0,0,0,0,0,0,0,0,0,0,0,0],"id":5,"left_children":[1,3,5,7,9,11,-1,13,15,17,-1,-1,-1,-1,-1,-1,-1,19,-1,21,-1,-1,-1],"loss_changes":[4.1045307E1,8.443595E0,1.7775139E1,1.0439196E0,1.11907425E1,1.3592834E0,0E0,7.798414E-1,1.8761503E0,9.575493E0,0E0,0E0,0E0,0E0,0E0,0E0,0E0,1.1039803E1,0E0,8.8354874E-1,0E0,0E0,0E0],"parents":[2147483647,0,0,1,1,2,2,3,3,4,4,5,5,7,7,8,8,9,9,17,17,19,19],"right_children":[2,4,6,8,10,12,-1,14,16,18,-1,-1,-1,-1,-1,-1,-1,20,-1,22,-1,-1,-1],"split_conditions":[1E0,1E0,1E0,1E0,1E0,1E0,-5.511811E-2,1E0,1E0,1E0,-5.735746E-2,3.4179032E-1,2.0026007E-1,-5.8161236E-2,2.1571647E-2,9.7072415E-2,-5.5500496E-2,1E0,-5.5500496E-2,1E0,-5.392912E-2,2.0026007E-1,3.3480954E-1],"split_indices":[87,118,100,92,101,36,0,106,1,15,0,0,0,0,0,0,0,13,0,88,0,0,0],"split_type":[0,0,0,0,0,0,0,0,0,0,0,0,0,0,0,0,0,0,0,0,0,0,0],"sum_hessian":[5.8285717E1,5.0938778E1,7.346939E0,3.8204082E1,1.27346945E1,5.632653E0,1.7142859E0,3.5020412E1,3.1836736E0,6.8571434E0,5.8775516E0,4.1632657E0,1.4693879E0,3.379592E1,1.2244899E0,1.2244899E0,1.9591838E0,4.8979597E0,1.9591838E0,3.6734695E0,1.2244899E0,1.4693879E0,2.2040818E0],"tree_param":{"num_deleted":"0","num_feature":"120","num_nodes":"23","size_leaf_vector":"1"}},{"base_weights":[-8.56374E-2,-5.6121796E-1,2.0560567E0,-5.8199067E-2,-3.48574E-1,3.4804222E-1,2.7815838E0,-5.655687E-2,2.1571647E-2,-5.4616388E-2,1.1023622E-1,3.4223628E-1,1.7394223E0,9.7072415E-2,2.2047244E-1],"categories":[],"categories_nodes":[],"categories_segments":[],"categories_sizes":[],"default_left":[0,0,0,0,0,0,0,0,0,0,0,0,0,0,0],"id":6,"left_children":[1,3,5,-1,7,9,11,-1,-1,-1,-1,-1,13,-1,-1],"loss_changes":[5.958405E1,1.9109917E-1,1.3076756E1,0E0,5.642159E-1,2.2751021E0,4.377743E0,0E0,0E0,0E0,0E0,0E0,8.7288094E-1,0E0,0E0],"parents":[2147483647,0,0,1,1,2,2,4,4,5,5,6,6,12,12],"right_children":[2,4,6,-1,8,10,12,-1,-1,-1,-1,-1,14,-1,-1],"split_conditions":[1E0,1E0,1E0,-5.8199067E-2,1E0,1E0,1E0,-5.655687E-2,2.1571647E-2,-5.4616388E-2,1.1023622E-1,3.4223628E-1,1E0,9.7072415E-2,2.2047244E-1],"split_indices":[100,117,111,0,36,105,23,0,0,0,0,0,25,0,0],"split_type":[0,0,0,0,0,0,0,0,0,0,0,0,0,0,0],"sum_hessian":[5.8285717E1,4.7755104E1,1.0530613E1,4.3346943E1,4.4081635E0,3.1836736E0,7.346939E0,3.1836736E0,1.2244899E0,1.4693879E0,1.7142859E0,4.4081635E0,2.9387758E0,1.2244899E0,1.7142859E0],"tree_param":{"num_deleted":"0","num_feature":"120","num_nodes":"15","size_leaf_vector":"1"}},{"base_weights":[1.5010327E-3,2.366634E-1,-4.2995563E-1,4.2030066E-1,-5.6880742E-2,-5.215137E-1,5.030653E-2,6.628015E-1,-5.6757845E-2,-3.8014123E-1,-5.7302494E-2,1.1609213E0,-7.845589E-2,-5.642743E-2,1.1090774E-2,1.8105224E0,3.2912588E-1,-5.697141E-2,2.4746938E-1,2.2708359E0,3.768777E-2,-5.606985E-2,9.3626064E-1,-2.7147436E-1,8.7914276E-1,2.5588283E-1,9.746378E-2,2.2003461E-1,2.0907299E-1,-5.5180248E-2,2.1512238E-2,-5.312499E-2,1.9215004E-1,9.87834E-2,-5.423236E-2],"categories":[],"categories_nodes":[],"categories_segments":[],"categories_sizes":[],"default_left":[0,0,0,0,0,0,0,0,0,0,0,0,0,0,0,0,0,0,0,0,0,0,0,0,0,0,0,0,0,0,0,0,0,0,0],"id":7,"left_children":[1,3,5,7,-1,9,-1,11,-1,13,-1,15,17,-1,-1,19,21,-1,23,25,-1,-1,27,29,31,-1,-1,33,-1,-1,-1,-1,-1,-1,-1],"loss_changes":[5.907431E0,5.597805E0,1.7808208E0,7.4028206E0,0E0,1.1478138E-1,0E0,9.140687E0,0E0,4.8594874E-1,0E0,7.9361305E0,1.6205763E0,0E0,0E0,5.382965E0,3.6240976E0,0E0,2.0239167E0,2.084713E0,0E0,0E0,3.234347E0,4.7919747E-1,4.1822853E0,0E0,0E0,1.5520829E0,0E0,0E0,0E0,0E0,0E0,0E0,0E0],"parents":[2147483647,0,0,1,1,2,2,3,3,5,5,7,7,9,9,11,11,12,12,15,15,16,16,18,18,19,19,22,22,23,23,24,24,27,27],"right_children":[2,4,6,8,-1,10,-1,12,-1,14,-1,16,18,-1,-1,20,22,-1,24,26,-1,-1,28,30,32,-1,-1,34,-1,-1,-1,-1,-1,-1,-1],"split_conditions":[1E0,1E0,1E0,1E0,-5.6880742E-2,1E0,5.030653E-2,1E0,-5.6757845E-2,1E0,-5.7302494E-2,1E0,1E0,-5.642743E-2,1.1090774E-2,1E0,1E0,-5.697141E-2,1E0,1E0,3.768777E-2,-5.606985E-2,1E0,1E0,1E0,2.5588283E-1,9.746378E-2,1E0,2.0907299E-1,-5.5180248E-2,2.1512238E-2,-5.312499E-2,1.9215004E-1,9.87834E-2,-5.423236E-2],"split_indices":[32,40,105,61,0,29,0,111,0,119,0,15,98,0,0,119,73,0,34,8,0,0,71,22,104,0,0,114,0,0,0,0,0,0,0],"split_type":[0,0,0,0,0,0,0,0,0,0,0,0,0,0,0,0,0,0,0,0,0,0,0,0,0,0,0,0,0,0,0,0,0,0,0],"sum_hessian":[5.8022594E1,3.7583256E1,2.0439337E1,3.0644512E1,6.9387455E0,1.8653008E1,1.7863295E0,2.4631075E1,6.0134373E0,5.205232E0,1.3447776E1,1.4697705E1,9.93337E0,3.7748353E0,1.4303966E0,8.186606E0,6.5110984E0,3.9319901E0,6.0013795E0,6.152705E0,2.0339012E0,2.6438649E0,3.8672335E0,3.3259819E0,2.6753976E0,4.954493E0,1.1982124E0,2.460076E0,1.4071574E0,2.1017592E0,1.2242227E0,1.1578153E0,1.5175823E0,1.2109286E0,1.2491475E0],"tree_param":{"num_deleted":"0","num_feature":"120","num_nodes":"35","size_leaf_vector":"1"}},{"base_weights":[-1.6243435E-1,-4.588558E-1,2.0198345E0,-5.156212E-1,1.3718294E-1,2.6811573E-1,1.451341E0,-5.544657E-1,4.301429E-2,1.9062198E0,2.7621267E-2,-5.7606306E-2,-4.22611E-1,1.2814808E-1,-5.5719096E-2,1.3060129E-1,2.4930084E-1,2.5129378E-2,-5.6694735E-2],"categories":[],"categories_nodes":[],"categories_segments":[],"categories_sizes":[],"default_left":[0,0,0,0,0,0,0,0,0,0,0,0,0,0,0,0,0,0,0],"id":8,"left_children":[1,3,5,7,-1,-1,9,11,13,15,-1,-1,17,-1,-1,-1,-1,-1,-1],"loss_changes":[3.713743E1,5.3187256E0,2.1925812E0,1.0668612E0,0E0,0E0,2.037774E0,1.06287956E-1,2.5110407E0,6.6140175E-1,0E0,0E0,6.787529E-1,0E0,0E0,0E0,0E0,0E0,0E0],"parents":[2147483647,0,0,1,1,2,2,3,3,6,6,7,7,8,8,9,9,12,12],"right_children":[2,4,6,8,-1,-1,10,12,14,16,-1,-1,18,-1,-1,-1,-1,-1,-1],"split_conditions":[1E0,1E0,1E0,1E0,1.3718294E-1,2.6811573E-1,1E0,1E0,1E0,1E0,2.7621267E-2,-5.7606306E-2,1E0,1.2814808E-1,-5.5719096E-2,1.3060129E-1,2.4930084E-1,2.5129378E-2,-5.6694735E-2],"split_indices":[11,10,62,0,0,0,114,1,69,80,0,0,74,0,0,0,0,0,0],"split_type":[0,0,0,0,0,0,0,0,0,0,0,0,0,0,0,0,0,0,0],"sum_hessian":[5.7167564E1,5.040054E1,6.7670217E0,4.895441E1,1.4461302E0,2.9563293E0,3.8106923E0,4.577239E1,3.1820207E0,2.7024074E0,1.108285E0,3.9040756E1,6.7316337E0,1.0016676E0,2.180353E0,1.4953905E0,1.2070168E0,1.174377E0,5.5572567E0],"tree_param":{"num_deleted":"0","num_feature":"120","num_nodes":"19","size_leaf_vector":"1"}},{"base_weights":[2.1986571E-1,-5.14226E-1,1.0880706E0,-5.7484448E-2,-3.2134068E-1,1.5823036E0,-5.6786697E-2,1.3983168E-1,-5.6636244E-2,2.0377254E0,-3.2448146E-1,1.2522213E-1,-5.5203408E-2,1.2762053E0,2.3681302E0,2.3093998E-2,-5.5972315E-2,-5.4488074E-2,1.8489212E0,2.5104114E-1,1.00573115E-1,3.2821354E-2,2.3608764E-1],"categories":[],"categories_nodes":[],"categories_segments":[],"categories_sizes":[],"default_left":[0,0,0,0,0,0,0,0,0,0,0,0,0,0,0,0,0,0,0,0,0,0,0],"id":9,"left_children":[1,3,5,-1,7,9,-1,11,-1,13,15,-1,-1,17,19,-1,-1,-1,21,-1,-1,-1,-1],"loss_changes":[3.7935715E1,3.5886765E-1,2.2401379E1,0E0,9.0554386E-1,1.8321293E1,0E0,2.2520714E0,0E0,3.970787E0,5.537429E-1,0E0,0E0,5.6865005E0,2.020729E0,0E0,0E0,0E0,3.1122246E0,0E0,0E0,0E0,0E0],"parents":[2147483647,0,0,1,1,2,2,4,4,5,5,7,7,9,9,10,10,13,13,14,14,18,18],"right_children":[2,4,6,-1,8,10,-1,12,-1,14,16,-1,-1,18,20,-1,-1,-1,22,-1,-1,-1,-1],"split_conditions":[1E0,1E0,1E0,-5.7484448E-2,1E0,1E0,-5.6786697E-2,1E0,-5.6636244E-2,1E0,1E0,1.2522213E-1,-5.5203408E-2,1E0,1E0,2.3093998E-2,-5.5972315E-2,-5.4488074E-2,1E0,2.5104114E-1,1.00573115E-1,3.2821354E-2,2.3608764E-1],"split_indices":[20,32,3,0,80,111,0,62,0,32,96,0,0,36,92,0,0,0,94,0,0,0,0],"split_type":[0,0,0,0,0,0,0,0,0,0,0,0,0,0,0,0,0,0,0,0,0,0,0],"sum_hessian":[5.9333954E1,3.217221E1,2.7161741E1,2.4328442E1,7.84377E0,2.0921833E1,6.2399063E0,2.736377E0,5.107393E0,1.6882666E1,4.039169E0,1.0182427E0,1.7181342E0,5.255651E0,1.1627014E1,1.2022959E0,2.8368728E0,1.2585745E0,3.9970763E0,1.0451278E1,1.1757363E0,1.048054E0,2.9490223E0],"tree_param":{"num_deleted":"0","num_feature":"120","num_nodes":"23","size_leaf_vector":"1"}},{"base_weights":[-6.6148214E-2,-5.7610203E-2,2.4783862E-1],"categories":[],"categories_nodes":[],"categories_segments":[],"categories_sizes":[],"default_left":[0,0,0],"id":10,"left_children":[1,-1,-1],"loss_changes":[7.529232E1,0E0,0E0],"parents":[2147483647,0,0],"right_children":[2,-1,-1],"split_conditions":[1E0,-5.7610203E-2,2.4783862E-1],"split_indices":[40,0,0],"split_type":[0,0,0],"sum_hessian":[5.7814476E1,4.822666E1,9.587815E0],"tree_param":{"num_deleted":"0","num_feature":"120","num_nodes":"3","size_leaf_vector":"1"}},{"base_weights":[3.1425152E-2,-5.1290405E-1,2.2493312E0,-5.760416E-2,3.2603583E-1,2.6563138E-2,2.4604247E0,-5.4767933E-2,1.045497E-1,1.6933319E-1,2.54431E-1],"categories":[],"categories_nodes":[],"categories_segments":[],"categories_sizes":[],"default_left":[0,0,0,0,0,0,0,0,0,0,0],"id":11,"left_children":[1,3,5,-1,7,-1,9,-1,-1,-1,-1],"loss_changes":[7.061471E1,2.506691E0,4.7611427E0,0E0,2.1639087E0,0E0,2.3872757E-1,0E0,0E0,0E0,0E0],"parents":[2147483647,0,0,1,1,2,2,4,4,6,6],"right_children":[2,4,6,-1,8,-1,10,-1,-1,-1,-1],"split_conditions":[1E0,1E0,1E0,-5.760416E-2,1E0,2.6563138E-2,1E0,-5.4767933E-2,1.045497E-1,1.6933319E-1,2.54431E-1],"split_indices":[61,60,60,0,109,0,1,0,0,0,0],"split_type":[0,0,0,0,0,0,0,0,0,0,0],"sum_hessian":[5.8295616E1,4.686954E1,1.1426074E1,4.361823E1,3.251313E0,1.1206715E0,1.0305403E1,1.47904E0,1.7722731E0,1.2247006E0,9.080703E0],"tree_param":{"num_deleted":"0","num_feature":"120","num_nodes":"11","size_leaf_vector":"1"}},{"base_weights":[4.8179414E-2,-2.5807634E-1,1.7614595E0,-4.9448514E-1,3.9676616E-1,2.2925153E0,-5.4527532E-2,-5.4592586E-1,4.4315044E-2,1.1086771E0,-5.6751758E-2,1.6225988E-1,2.5455433E-1,-5.7556868E-2,2.0678772E-2,-5.5511065E-2,1.2352792E-1,-5.4743018E-2,1.6468687E0,6.23222E-2,2.0182724E0,2.2980873E-1,1.1207719E-1],"categories":[],"categories_nodes":[],"categories_segments":[],"categories_sizes":[],"default_left":[0,0,0,0,0,0,0,0,0,0,0,0,0,0,0,0,0,0,0,0,0,0,0],"id":12,"left_children":[1,3,5,7,9,11,-1,13,15,17,-1,-1,-1,-1,-1,-1,-1,-1,19,-1,21,-1,-1],"loss_changes":[3.0707727E1,7.7079554E0,1.0996468E1,1.015008E0,9.144285E0,8.130188E-1,0E0,7.5619316E-1,2.4076567E0,6.9034023E0,0E0,0E0,0E0,0E0,0E0,0E0,0E0,0E0,2.0771017E0,0E0,7.989464E-1,0E0,0E0],"parents":[2147483647,0,0,1,1,2,2,3,3,4,4,5,5,7,7,8,8,9,9,18,18,20,20],"right_children":[2,4,6,8,10,12,-1,14,16,18,-1,-1,-1,-1,-1,-1,-1,-1,20,-1,22,-1,-1],"split_conditions":[1E0,1E0,1E0,1E0,1E0,1E0,-5.4527532E-2,1E0,1E0,1E0,-5.6751758E-2,1.6225988E-1,2.5455433E-1,-5.7556868E-2,2.0678772E-2,-5.5511065E-2,1.2352792E-1,-5.4743018E-2,1E0,6.23222E-2,1E0,2.2980873E-1,1.1207719E-1],"split_indices":[87,118,100,92,101,32,0,106,88,80,0,0,0,0,0,0,0,0,82,0,36,0,0],"split_type":[0,0,0,0,0,0,0,0,0,0,0,0,0,0,0,0,0,0,0,0,0,0,0],"sum_hessian":[5.8337505E1,4.9562878E1,8.774629E0,3.6434074E1,1.3128804E1,7.1330714E0,1.6415572E0,3.325756E1,3.1765132E0,7.544143E0,5.5846615E0,2.1587744E0,4.974297E0,3.2020103E1,1.2374569E0,2.1485257E0,1.0279875E0,1.8499166E0,5.6942267E0,1.5872682E0,4.1069584E0,3.0118842E0,1.095074E0],"tree_param":{"num_deleted":"0","num_feature":"120","num_nodes":"23","size_leaf_vector":"1"}},{"base_weights":[-8.090496E-2,-5.5437833E-1,1.6522675E0,-5.758809E-2,-3.52615E-1,-5.5595495E-2,2.0720623E0,-5.6267377E-2,2.0899398E-2,1.2090011E0,2.3569775E0,1.6725142E-1,3.6000494E-2,2.549451E-1,1.8420793E0,1.0505344E-1,2.4462472E-1],"categories":[],"categories_nodes":[],"categories_segments":[],"categories_sizes":[],"default_left":[0,0,0,0,0,0,0,0,0,0,0,0,0,0,0,0,0],"id":13,"left_children":[1,3,5,-1,7,-1,9,-1,-1,11,13,-1,-1,-1,15,-1,-1],"loss_changes":[4.7480743E1,1.7679882E-1,1.1624901E1,0E0,5.5837816E-1,0E0,2.2856522E0,0E0,0E0,1.0415916E0,2.9882812E-1,0E0,0E0,0E0,9.243555E-1,0E0,0E0],"parents":[2147483647,0,0,1,1,2,2,4,4,6,6,9,9,10,10,14,14],"right_children":[2,4,6,-1,8,-1,10,-1,-1,12,14,-1,-1,-1,16,-1,-1],"split_conditions":[1E0,1E0,1E0,-5.758809E-2,1E0,-5.5595495E-2,1E0,-5.6267377E-2,2.0899398E-2,1E0,1E0,1.6725142E-1,3.6000494E-2,2.549451E-1,1E0,1.0505344E-1,2.4462472E-1],"split_indices":[101,117,107,0,36,0,103,0,0,23,89,0,0,0,37,0,0],"split_type":[0,0,0,0,0,0,0,0,0,0,0,0,0,0,0,0,0],"sum_hessian":[5.764861E1,4.533254E1,1.231607E1,4.0799034E1,4.5335045E0,1.9621664E0,1.0353903E1,3.2992833E0,1.2342215E0,2.69986E0,7.654043E0,1.6836597E0,1.0162003E0,5.2837834E0,2.3702598E0,1.1445801E0,1.2256798E0],"tree_param":{"num_deleted":"0","num_feature":"120","num_nodes":"17","size_leaf_vector":"1"}},{"base_weights":[2.7214678E-3,2.2055693E-1,-4.1918588E-1,3.849282E-1,-5.6260467E-2,-5.133856E-1,4.6206724E-2,5.9463555E-1,-5.6130596E-2,-3.694651E-1,-5.670171E-2,1.0081544E0,-7.55593E-2,-5.587786E-2,1.1452875E-2,1.5061426E0,3.0374196E-1,-5.6405645E-2,2.290746E-1,1.9981909E0,5.8188707E-1,-5.5665582E-2,8.401096E-1,-2.6140514E-1,7.7380013E-1,2.1284385E-1,1.2210357E-1,1.3212068E-1,-5.498249E-2,1.2876564E0,-5.3386092E-2,2.2082757E-2,-5.4729115E-2,-5.2581098E-2,1.5822965E-1,1.5902793E-2,2.0559071E-1],"categories":[],"categories_nodes":[],"categories_segments":[],"categories_sizes":[],"default_left":[0,0,0,0,0,0,0,0,0,0,0,0,0,0,0,0,0,0,0,0,0,0,0,0,0,0,0,0,0,0,0,0,0,0,0,0,0],"id":14,"left_children":[1,3,5,7,-1,9,-1,11,-1,13,-1,15,17,-1,-1,19,21,-1,23,25,27,-1,29,31,33,-1,-1,-1,-1,35,-1,-1,-1,-1,-1,-1,-1],"loss_changes":[5.307019E0,4.923784E0,1.6559591E0,6.2907953E0,0E0,1.165266E-1,0E0,7.174961E0,0E0,4.7573948E-1,0E0,5.567108E0,1.4952954E0,0E0,0E0,4.1352386E0,3.162797E0,0E0,1.6784341E0,3.534794E-1,2.9081476E0,0E0,2.6508446E0,4.7262728E-1,3.1994998E0,0E0,0E0,0E0,0E0,2.7390637E0,0E0,0E0,0E0,0E0,0E0,0E0,0E0],"parents":[2147483647,0,0,1,1,2,2,3,3,5,5,7,7,9,9,11,11,12,12,15,15,16,16,18,18,19,19,20,20,22,22,23,23,24,24,29,29],"right_children":[2,4,6,8,-1,10,-1,12,-1,14,-1,16,18,-1,-1,20,22,-1,24,26,28,-1,30,32,34,-1,-1,-1,-1,36,-1,-1,-1,-1,-1,-1,-1],"split_conditions":[1E0,1E0,1E0,1E0,-5.6260467E-2,1E0,4.6206724E-2,1E0,-5.6130596E-2,1E0,-5.670171E-2,1E0,1E0,-5.587786E-2,1.1452875E-2,1E0,1E0,-5.6405645E-2,1E0,1E0,1E0,-5.5665582E-2,1E0,1E0,1E0,2.1284385E-1,1.2210357E-1,1.3212068E-1,-5.498249E-2,1E0,-5.3386092E-2,2.2082757E-2,-5.4729115E-2,-5.2581098E-2,1.5822965E-1,1.5902793E-2,2.0559071E-1],"split_indices":[32,40,105,61,0,29,0,111,0,119,0,15,98,0,0,90,12,0,34,93,119,0,70,112,104,0,0,0,0,62,0,0,0,0,0,0,0],"split_type":[0,0,0,0,0,0,0,0,0,0,0,0,0,0,0,0,0,0,0,0,0,0,0,0,0,0,0,0,0,0,0,0,0,0,0,0,0],"sum_hessian":[5.754315E1,3.798091E1,1.9562243E1,3.143428E1,6.54663E0,1.7710825E1,1.8514181E0,2.5761988E1,5.6722937E0,5.022311E0,1.2688514E1,1.5900652E1,9.861335E0,3.5990834E0,1.4232277E0,9.248534E0,6.652118E0,3.7549336E0,6.106401E0,5.9596086E0,3.2889256E0,2.5530071E0,4.099111E0,3.2405598E0,2.8658412E0,4.9552546E0,1.0043538E0,1.9792113E0,1.3097144E0,3.096698E0,1.002413E0,1.2145735E0,2.0259864E0,1.1125101E0,1.7533312E0,1.3030709E0,1.7936271E0],"tree_param":{"num_deleted":"0","num_feature":"120","num_nodes":"37","size_leaf_vector":"1"}},{"base_weights":[-1.5459858E-1,-4.492615E-1,1.650702E0,-5.074262E-1,1.1648214E-1,2.0916124E-1,1.2374389E0,-5.4778284E-1,4.464138E-2,1.5802518E0,2.539062E-2,-5.7025205E-2,-4.0815046E-1,1.1191326E-1,-5.5048354E-2,1.06461875E-1,2.0994118E-1,2.420008E-2,-5.615597E-2],"categories":[],"categories_nodes":[],"categories_segments":[],"categories_sizes":[],"default_left":[0,0,0,0,0,0,0,0,0,0,0,0,0,0,0,0,0,0,0],"id":15,"left_children":[1,3,5,7,-1,-1,9,11,13,15,-1,-1,17,-1,-1,-1,-1,-1,-1],"loss_changes":[2.9869383E1,4.5870714E0,1.1771393E0,1.0411673E0,0E0,0E0,1.4140029E0,1.13059044E-1,2.15162E0,6.274786E-1,0E0,0E0,6.4942634E-1,0E0,0E0,0E0,0E0,0E0,0E0],"parents":[2147483647,0,0,1,1,2,2,3,3,6,6,7,7,8,8,9,9,12,12],"right_children":[2,4,6,8,-1,-1,10,12,14,16,-1,-1,18,-1,-1,-1,-1,-1,-1],"split_conditions":[1E0,1E0,1E0,1E0,1.1648214E-1,2.0916124E-1,1E0,1E0,1E0,1E0,2.539062E-2,-5.7025205E-2,1E0,1.1191326E-1,-5.5048354E-2,1.06461875E-1,2.0994118E-1,2.420008E-2,-5.615597E-2],"split_indices":[11,10,62,0,0,0,114,105,69,96,0,0,83,0,0,0,0,0,0],"split_type":[0,0,0,0,0,0,0,0,0,0,0,0,0,0,0,0,0,0,0],"sum_hessian":[5.591078E1,4.8130062E1,7.7807217E0,4.6522163E1,1.6078988E0,3.5679522E0,4.212769E0,4.335374E1,3.1684222E0,3.0789294E0,1.1338397E0,3.707875E1,6.274992E0,1.0979806E0,2.0704415E0,1.6977644E0,1.381165E0,1.1869454E0,5.0880466E0],"tree_param":{"num_deleted":"0","num_feature":"120","num_nodes":"19","size_leaf_vector":"1"}},{"base_weights":[2.0329247E-1,-5.06262E-1,9.457568E-1,-5.6914616E-2,-3.1104892E-1,1.3282886E0,-5.6191552E-2,1.3198659E-1,-5.6064516E-2,1.6586263E0,-3.1296858E-1,1.1396785E-1,-5.486132E-2,1.0944515E0,1.8867176E0,2.3719987E-2,-5.5445697E-2,-5.37425E-2,1.5266141E0,1.9816631E-1,8.827752E-2,2.3836222E-2,1.9400048E0,1.2106544E-1,2.1877292E-1],"categories":[],"categories_nodes":[],"categories_segments":[],"categories_sizes":[],"default_left":[0,0,0,0,0,0,0,0,0,0,0,0,0,0,0,0,0,0,0,0,0,0,0,0,0],"id":16,"left_children":[1,3,5,-1,7,9,-1,11,-1,13,15,-1,-1,17,19,-1,-1,-1,21,-1,-1,-1,23,-1,-1],"loss_changes":[3.161467E1,3.5921288E-1,1.6981926E1,0E0,8.590198E-1,1.2745502E1,0E0,2.0214143E0,0E0,2.303566E0,5.455017E-1,0E0,0E0,4.210343E0,1.1359024E0,0E0,0E0,0E0,2.4323435E0,0E0,0E0,0E0,3.6922932E-1,0E0,0E0],"parents":[2147483647,0,0,1,1,2,2,4,4,5,5,7,7,9,9,10,10,13,13,14,14,18,18,22,22],"right_children":[2,4,6,-1,8,10,-1,12,-1,14,16,-1,-1,18,20,-1,-1,-1,22,-1,-1,-1,24,-1,-1],"split_conditions":[1E0,1E0,1E0,-5.6914616E-2,1E0,1E0,-5.6191552E-2,1E0,-5.6064516E-2,1E0,1E0,1.1396785E-1,-5.486132E-2,1E0,1E0,2.3719987E-2,-5.5445697E-2,-5.37425E-2,1E0,1.9816631E-1,8.827752E-2,2.3836222E-2,1E0,1.2106544E-1,2.1877292E-1],"split_indices":[20,32,3,0,80,111,0,18,0,32,94,0,0,36,92,0,0,0,82,0,0,0,22,0,0],"split_type":[0,0,0,0,0,0,0,0,0,0,0,0,0,0,0,0,0,0,0,0,0,0,0,0,0],"sum_hessian":[5.9819626E1,3.0603983E1,2.9215645E1,2.300259E1,7.6013937E0,2.3312592E1,5.9030523E0,2.7562125E0,4.845181E0,1.940572E1,3.9068716E0,1.083918E0,1.6722945E0,5.753785E0,1.3651936E1,1.1923006E0,2.714571E0,1.199611E0,4.554174E0,1.2383414E1,1.2685217E0,1.1446755E0,3.4094985E0,1.0136926E0,2.3958058E0],"tree_param":{"num_deleted":"0","num_feature":"120","num_nodes":"25","size_leaf_vector":"1"}},{"base_weights":[-6.421697E-2,-5.7048585E-2,1.959652E-1],"categories":[],"categories_nodes":[],"categories_segments":[],"categories_sizes":[],"default_left":[0,0,0],"id":17,"left_children":[1,-1,-1],"loss_changes":[5.8561325E1,0E0,0E0],"parents":[2147483647,0,0],"right_children":[2,-1,-1],"split_conditions":[1E0,-5.7048585E-2,1.959652E-1],"split_indices":[40,0,0],"split_type":[0,0,0],"sum_hessian":[5.6944977E1,4.560799E1,1.1336984E1],"tree_param":{"num_deleted":"0","num_feature":"120","num_nodes":"3","size_leaf_vector":"1"}},{"base_weights":[2.9057808E-2,-5.0478566E-1,1.8066492E0,-5.704196E-2,3.0369788E-1,2.253431E-2,1.9557303E0,-5.441342E-2,9.5077194E-2,1.185163E-1,2.0156045E-1],"categories":[],"categories_nodes":[],"categories_segments":[],"categories_sizes":[],"default_left":[0,0,0,0,0,0,0,0,0,0,0],"id":18,"left_children":[1,3,5,-1,7,-1,9,-1,-1,-1,-1],"loss_changes":[5.5122818E1,2.3880253E0,3.118534E0,0E0,1.9278835E0,0E0,3.2614517E-1,0E0,0E0,0E0,0E0],"parents":[2147483647,0,0,1,1,2,2,4,4,6,6],"right_children":[2,4,6,-1,8,-1,10,-1,-1,-1,-1],"split_conditions":[1E0,1E0,1E0,-5.704196E-2,1E0,2.253431E-2,1E0,-5.441342E-2,9.5077194E-2,1.185163E-1,2.0156045E-1],"split_indices":[61,60,65,0,78,0,79,0,0,0,0],"split_type":[0,0,0,0,0,0,0,0,0,0,0],"sum_hessian":[5.789178E1,4.45763E1,1.3315481E1,4.125648E1,3.3198214E0,1.1688302E0,1.2146651E1,1.4438795E0,1.875942E0,1.0256896E0,1.1120961E1],"tree_param":{"num_deleted":"0","num_feature":"120","num_nodes":"11","size_leaf_vector":"1"}},{"base_weights":[4.5653637E-2,-2.4813128E-1,1.4612924E0,-4.8568627E-1,3.6485872E-1,1.839472E0,-5.3935964E-2,-5.3895754E-1,4.6557408E-2,9.6265864E-1,-5.612112E-2,1.400985E0,2.0383167E-1,-5.6989945E-2,1.9354712E-2,-5.483661E-2,1.0813569E-1,1.410377E0,-5.484255E-2,1.9355811E-1,7.4289E-2,1.825102E0,-5.2524168E-2,1.2814647E-1,2.1212648E-1],"categories":[],"categories_nodes":[],"categories_segments":[],"categories_sizes":[],"default_left":[0,0,0,0,0,0,0,0,0,0,0,0,0,0,0,0,0,0,0,0,0,0,0,0,0],"id":19,"left_children":[1,3,5,7,9,11,-1,13,15,17,-1,19,-1,-1,-1,-1,-1,21,-1,-1,-1,23,-1,-1,-1],"loss_changes":[2.4209217E1,7.039364E0,7.6680317E0,9.890547E-1,7.541327E0,4.4997406E-1,0E0,7.2808456E-1,2.0648475E0,5.6627803E0,0E0,8.9469624E-1,0E0,0E0,0E0,0E0,0E0,5.230932E0,0E0,0E0,0E0,5.7995605E-1,0E0,0E0,0E0],"parents":[2147483647,0,0,1,1,2,2,3,3,4,4,5,5,7,7,8,8,9,9,11,11,17,17,21,21],"right_children":[2,4,6,8,10,12,-1,14,16,18,-1,20,-1,-1,-1,-1,-1,22,-1,-1,-1,24,-1,-1,-1],"split_conditions":[1E0,1E0,1E0,1E0,1E0,1E0,-5.3935964E-2,1E0,1E0,1E0,-5.612112E-2,1E0,2.0383167E-1,-5.6989945E-2,1.9354712E-2,-5.483661E-2,1.0813569E-1,1E0,-5.484255E-2,1.9355811E-1,7.4289E-2,1E0,-5.2524168E-2,1.2814647E-1,2.1212648E-1],"split_indices":[87,118,100,92,101,99,0,106,88,15,0,27,0,0,0,0,0,13,0,0,0,88,0,0,0],"split_type":[0,0,0,0,0,0,0,0,0,0,0,0,0,0,0,0,0,0,0,0,0,0,0,0,0],"sum_hessian":[5.8022984E1,4.811934E1,9.9036455E0,3.46947E1,1.3424639E1,8.335968E0,1.5676771E0,3.153696E1,3.1577375E0,8.155877E0,5.2687616E0,2.8518043E0,5.484164E0,3.028009E1,1.2568703E0,2.0348663E0,1.1228712E0,6.29685E0,1.8590263E0,1.4664396E0,1.3853648E0,5.190455E0,1.1063954E0,2.0183163E0,3.1721387E0],"tree_param":{"num_deleted":"0","num_feature":"120","num_nodes":"25","size_leaf_vector":"1"}},{"base_weights":[-7.661285E-2,-5.476898E-1,1.3826207E0,-5.7015117E-2,-3.4206507E-1,-5.506715E-2,1.689803E0,-5.570515E-2,2.0232482E-2,1.0392514E0,1.8908757E0,1.3986051E-1,3.245076E-2,1.9685702E0,1.1746734E-1,2.0571426E-1,1.4346655E-1],"categories":[],"categories_nodes":[],"categories_segments":[],"categories_sizes":[],"default_left":[0,0,0,0,0,0,0,0,0,0,0,0,0,0,0,0,0],"id":20,"left_children":[1,3,5,-1,7,-1,9,-1,-1,11,13,-1,-1,15,-1,-1,-1],"loss_changes":[3.9144646E1,1.7926502E-1,8.346983E0,0E0,5.365401E-1,0E0,1.375473E0,0E0,0E0,7.4041367E-1,2.7279663E-1,0E0,0E0,8.429909E-2,0E0,0E0,0E0],"parents":[2147483647,0,0,1,1,2,2,4,4,6,6,9,9,10,10,13,13],"right_children":[2,4,6,-1,8,-1,10,-1,-1,12,14,-1,-1,16,-1,-1,-1],"split_conditions":[1E0,1E0,1E0,-5.7015117E-2,1E0,-5.506715E-2,1E0,-5.570515E-2,2.0232482E-2,1E0,1E0,1.3986051E-1,3.245076E-2,1E0,1.1746734E-1,2.0571426E-1,1.4346655E-1],"split_indices":[101,117,107,0,36,0,103,0,0,23,39,0,0,8,0,0,0],"split_type":[0,0,0,0,0,0,0,0,0,0,0,0,0,0,0,0,0],"sum_hessian":[5.673486E1,4.293639E1,1.379847E1,3.8548306E1,4.3880863E0,1.8809843E0,1.1917485E1,3.1441114E0,1.2439747E0,2.959419E0,8.958067E0,1.9056373E0,1.0537817E0,7.9236374E0,1.0344292E0,6.551479E0,1.3721586E0],"tree_param":{"num_deleted":"0","num_feature":"120","num_nodes":"17","size_leaf_vector":"1"}},{"base_weights":[4.116159E-3,2.0786597E-1,-4.0896052E-1,3.5679808E-1,-5.5674937E-2,-5.0564665E-1,4.209877E-2,5.4128855E-1,-5.553269E-2,-3.5905564E-1,-5.6155402E-2,8.932319E-1,-7.40743E-2,-5.5464268E-2,1.312121E-2,1.1533513E0,-4.455695E-2,-3.0049098E-1,5.614044E-1,1.5082668E0,4.6519452E-1,-5.5767544E-2,1.0876735E-1,2.2042263E-1,-5.659754E-2,1.9925866E-1,-5.45906E-2,1.7855506E-1,8.4306836E-1,-1.579589E-1,1.0923405E0,1.1361947E-1,-5.3828847E-2,1.5383067E-2,1.4448293E-1,-5.394838E-2,2.716657E-2,2.5247565E-2,1.8385212E-1],"categories":[],"categories_nodes":[],"categories_segments":[],"categories_sizes":[],"default_left":[0,0,0,0,0,0,0,0,0,0,0,0,0,0,0,0,0,0,0,0,0,0,0,0,0,0,0,0,0,0,0,0,0,0,0,0,0,0,0],"id":21,"left_children":[1,3,5,7,-1,9,-1,11,-1,13,-1,15,17,-1,-1,19,21,23,25,27,29,-1,-1,31,-1,-1,-1,-1,33,35,37,-1,-1,-1,-1,-1,-1,-1,-1],"loss_changes":[4.7996783E0,4.3686504E0,1.5329025E0,5.419009E0,0E0,1.18484974E-1,0E0,5.786309E0,0E0,4.8174512E-1,0E0,4.1483965E0,1.4272285E0,0E0,0E0,3.1783085E0,2.2593133E0,1.0209568E0,4.2447624E0,1.4597473E0,1.8424106E0,0E0,0E0,1.8216681E0,0E0,0E0,0E0,0E0,1.1216487E0,4.129514E-1,1.4202156E0,0E0,0E0,0E0,0E0,0E0,0E0,0E0,0E0],"parents":[2147483647,0,0,1,1,2,2,3,3,5,5,7,7,9,9,11,11,12,12,15,15,16,16,17,17,18,18,19,19,20,20,23,23,28,28,29,29,30,30],"right_children":[2,4,6,8,-1,10,-1,12,-1,14,-1,16,18,-1,-1,20,22,24,26,28,30,-1,-1,32,-1,-1,-1,-1,34,36,38,-1,-1,-1,-1,-1,-1,-1,-1],"split_conditions":[1E0,1E0,1E0,1E0,-5.5674937E-2,1E0,4.209877E-2,1E0,-5.553269E-2,1E0,-5.6155402E-2,1E0,1E0,-5.5464268E-2,1.312121E-2,1E0,1E0,1E0,1E0,1E0,1E0,-5.5767544E-2,1.0876735E-1,1E0,-5.659754E-2,1.9925866E-1,-5.45906E-2,1.7855506E-1,1E0,1E0,1E0,1.1361947E-1,-5.3828847E-2,1.5383067E-2,1.4448293E-1,-5.394838E-2,2.716657E-2,2.5247565E-2,1.8385212E-1],"split_indices":[32,40,105,61,0,29,0,86,0,84,0,111,9,0,0,8,23,82,15,82,85,0,0,100,0,0,0,0,100,62,71,0,0,0,0,0,0,0,0],"split_type":[0,0,0,0,0,0,0,0,0,0,0,0,0,0,0,0,0,0,0,0,0,0,0,0,0,0,0,0,0,0,0,0,0,0,0,0,0,0,0],"sum_hessian":[5.682648E1,3.8088856E1,1.8737625E1,3.1924019E1,6.1648393E0,1.6817518E1,1.9201077E0,2.6587057E1,5.3369613E0,4.848038E0,1.196948E1,1.6884933E1,9.702125E0,3.4561238E0,1.3919142E0,1.3200465E1,3.6844678E0,7.192279E0,2.5098453E0,8.630255E0,4.5702105E0,2.57035E0,1.114118E0,2.4338107E0,4.758468E0,1.0599401E0,1.4499052E0,5.972311E0,2.6579435E0,2.3299282E0,2.2402825E0,1.0802203E0,1.3535904E0,1.2974496E0,1.3604939E0,1.2205007E0,1.1094273E0,1.1169422E0,1.1233404E0],"tree_param":{"num_deleted":"0","num_feature":"120","num_nodes":"39","size_leaf_vector":"1"}},{"base_weights":[-1.4741427E-1,-4.4021422E-1,1.4044371E0,-5.422188E-1,4.7856802E-1,2.8016169E-2,1.5533775E0,-5.6617986E-2,-4.006543E-1,1.9998117E-1,-5.571368E-2,9.355789E-2,1.8264565E-1,-5.555153E-2,3.2225262E-2],"categories":[],"categories_nodes":[],"categories_segments":[],"categories_sizes":[],"default_left":[0,0,0,0,0,0,0,0,0,0,0,0,0,0,0],"id":22,"left_children":[1,3,5,7,9,-1,11,-1,13,-1,-1,-1,-1,-1,-1],"loss_changes":[2.4867691E1,4.3373747E0,1.4115047E0,1.17925644E-1,7.4379315E0,0E0,1.1198711E0,0E0,7.279682E-1,0E0,0E0,0E0,0E0,0E0,0E0],"parents":[2147483647,0,0,1,1,2,2,3,3,4,4,6,6,8,8],"right_children":[2,4,6,8,10,-1,12,-1,14,-1,-1,-1,-1,-1,-1],"split_conditions":[1E0,1E0,1E0,1E0,1E0,2.8016169E-2,1E0,-5.6617986E-2,1E0,1.9998117E-1,-5.571368E-2,9.355789E-2,1.8264565E-1,-5.555153E-2,3.2225262E-2],"split_indices":[10,0,5,58,74,0,20,0,97,0,0,0,0,0,0],"split_type":[0,0,0,0,0,0,0,0,0,0,0,0,0,0,0],"sum_hessian":[5.4492542E1,4.5903248E1,8.589293E0,4.1353146E1,4.5501037E0,1.0384755E0,7.5508175E0,3.511044E1,6.242707E0,1.805337E0,2.7447667E0,2.4502077E0,5.10061E0,5.160402E0,1.082305E0],"tree_param":{"num_deleted":"0","num_feature":"120","num_nodes":"15","size_leaf_vector":"1"}},{"base_weights":[1.8925996E-1,-4.986254E-1,8.393009E-1,-5.637414E-2,-3.0217966E-1,1.148965E0,-5.5617787E-2,1.1823733E-1,-5.551674E-2,1.4059683E0,-3.0218002E-1,1.05013944E-1,-5.4720234E-2,1.4731724E0,2.1990087E-2,2.1811983E-2,-5.4818667E-2,9.85684E-1,1.5926592E0,3.9793536E-2,1.4287733E-1,1.2182037E0,1.6913398E-1,1.8328998E-2,1.7012711E-1],"categories":[],"categories_nodes":[],"categories_segments":[],"categories_sizes":[],"default_left":[0,0,0,0,0,0,0,0,0,0,0,0,0,0,0,0,0,0,0,0,0,0,0,0,0],"id":23,"left_children":[1,3,5,-1,7,9,-1,11,-1,13,15,-1,-1,17,-1,-1,-1,19,21,-1,-1,23,-1,-1,-1],"loss_changes":[2.6825975E1,3.560381E-1,1.3388187E1,0E0,8.0173707E-1,9.465782E0,0E0,1.8503313E0,0E0,1.6799927E0,5.0908685E-1,0E0,0E0,1.0262413E0,0E0,0E0,0E0,1.052876E0,3.9081573E-1,0E0,0E0,1.8317242E0,0E0,0E0,0E0],"parents":[2147483647,0,0,1,1,2,2,4,4,5,5,7,7,9,9,10,10,13,13,17,17,18,18,21,21],"right_children":[2,4,6,-1,8,10,-1,12,-1,14,16,-1,-1,18,-1,-1,-1,20,22,-1,-1,24,-1,-1,-1],"split_conditions":[1E0,1E0,1E0,-5.637414E-2,1E0,1E0,-5.5617787E-2,1E0,-5.551674E-2,1E0,1E0,1.05013944E-1,-5.4720234E-2,1E0,2.1990087E-2,2.1811983E-2,-5.4818667E-2,1E0,1E0,3.9793536E-2,1.4287733E-1,1E0,1.6913398E-1,1.8328998E-2,1.7012711E-1],"split_indices":[20,32,3,0,80,111,0,3,0,117,88,0,0,28,0,0,0,31,81,0,0,99,0,0,0],"split_type":[0,0,0,0,0,0,0,0,0,0,0,0,0,0,0,0,0,0,0,0,0,0,0,0,0],"sum_hessian":[5.979915E1,2.9065155E1,3.0733995E1,2.168894E1,7.3762155E0,2.5166975E1,5.567019E0,2.7911406E0,4.585075E0,2.1383066E1,3.78391E0,1.1386828E0,1.6524576E0,2.0213533E1,1.1695315E0,1.2183843E0,2.5655258E0,4.161235E0,1.60523E1,1.8702269E0,2.2910078E0,3.6263113E0,1.2425988E1,1.1978993E0,2.428412E0],"tree_param":{"num_deleted":"0","num_feature":"120","num_nodes":"25","size_leaf_vector":"1"}},{"base_weights":[-6.2793866E-2,-5.6527343E-2,1.6340968E-1],"categories":[],"categories_nodes":[],"categories_segments":[],"categories_sizes":[],"default_left":[0,0,0],"id":24,"left_children":[1,-1,-1],"loss_changes":[4.7712337E1,0E0,0E0],"parents":[2147483647,0,0],"right_children":[2,-1,-1],"split_conditions":[1E0,-5.6527343E-2,1.6340968E-1],"split_indices":[40,0,0],"split_type":[0,0,0],"sum_hessian":[5.574919E1,4.3063892E1,1.2685298E1],"tree_param":{"num_deleted":"0","num_feature":"120","num_nodes":"3","size_leaf_vector":"1"}},{"base_weights":[2.6959723E-2,-4.9695823E-1,1.5202037E0,-5.652067E-2,2.858306E-1,1.8312033E-2,1.6378051E0,8.7570585E-2,-5.4048814E-2,1.688747E-1,9.875932E-2],"categories":[],"categories_nodes":[],"categories_segments":[],"categories_sizes":[],"default_left":[0,0,0,0,0,0,0,0,0,0,0],"id":25,"left_children":[1,3,5,-1,7,-1,9,-1,-1,-1,-1],"loss_changes":[4.4845947E1,2.283391E0,2.3110504E0,0E0,1.7385674E0,0E0,2.8607178E-1,0E0,0E0,0E0,0E0],"parents":[2147483647,0,0,1,1,2,2,4,4,6,6],"right_children":[2,4,6,-1,8,-1,10,-1,-1,-1,-1],"split_conditions":[1E0,1E0,1E0,-5.652067E-2,1E0,1.8312033E-2,1E0,8.7570585E-2,-5.4048814E-2,1.688747E-1,9.875932E-2],"split_indices":[61,60,60,0,113,0,81,0,0,0,0],"split_type":[0,0,0,0,0,0,0,0,0,0,0],"sum_hessian":[5.712646E1,4.2338383E1,1.4788079E1,3.8968647E1,3.3697371E0,1.2161883E0,1.3571891E1,1.9626818E0,1.4070553E0,1.2437717E1,1.1341727E0],"tree_param":{"num_deleted":"0","num_feature":"120","num_nodes":"11","size_leaf_vector":"1"}},{"base_weights":[4.3373898E-2,-2.392E-1,1.2556237E0,-4.7713464E-1,3.3808458E-1,1.5476823E0,-5.3407308E-2,-5.3227985E-1,4.9452264E-2,8.528174E-1,-5.5530615E-2,1.1354992E0,1.6964273E-1,-5.6467474E-2,1.8837117E-2,9.757655E-2,-5.4271806E-2,1.2153313E0,-5.4220624E-2,1.6664355E-1,2.5495544E-2,1.5287718E0,-5.1728155E-2,1.09603725E-1,1.7578594E-1],"categories":[],"categories_nodes":[],"categories_segments":[],"categories_sizes":[],"default_left":[0,0,0,0,0,0,0,0,0,0,0,0,0,0,0,0,0,0,0,0,0,0,0,0,0],"id":26,"left_children":[1,3,5,7,9,11,-1,13,15,17,-1,19,-1,-1,-1,-1,-1,21,-1,-1,-1,23,-1,-1,-1],"loss_changes":[1.971321E1,6.4282703E0,5.768591E0,9.637852E-1,6.339861E0,3.8231277E-1,0E0,7.102976E-1,1.8242401E0,4.4762707E0,0E0,1.2614775E0,0E0,0E0,0E0,0E0,0E0,3.855095E0,0E0,0E0,0E0,3.9353275E-1,0E0,0E0,0E0],"parents":[2147483647,0,0,1,1,2,2,3,3,4,4,5,5,7,7,8,8,9,9,11,11,17,17,21,21],"right_children":[2,4,6,8,10,12,-1,14,16,18,-1,20,-1,-1,-1,-1,-1,22,-1,-1,-1,24,-1,-1,-1],"split_conditions":[1E0,1E0,1E0,1E0,1E0,1E0,-5.3407308E-2,1E0,1E0,1E0,-5.5530615E-2,1E0,1.6964273E-1,-5.6467474E-2,1.8837117E-2,9.757655E-2,-5.4271806E-2,1E0,-5.4220624E-2,1.6664355E-1,2.5495544E-2,1E0,-5.1728155E-2,1.09603725E-1,1.7578594E-1],"split_indices":[87,118,100,92,101,32,0,106,16,15,0,22,0,0,0,0,0,13,0,0,0,88,0,0,0],"split_type":[0,0,0,0,0,0,0,0,0,0,0,0,0,0,0,0,0,0,0,0,0,0,0,0,0],"sum_hessian":[5.736071E1,4.6582626E1,1.0778084E1,3.2999035E1,1.3583592E1,9.277604E0,1.5004793E0,2.9869919E1,3.1291158E0,8.621057E0,4.962536E0,2.689152E0,6.5884523E0,2.860567E1,1.2642477E0,1.1950146E0,1.9341011E0,6.8530807E0,1.7679759E0,1.6219336E0,1.0672184E0,5.813202E0,1.0398791E0,2.212446E0,3.600756E0],"tree_param":{"num_deleted":"0","num_feature":"120","num_nodes":"25","size_leaf_vector":"1"}},{"base_weights":[-7.2747946E-2,-5.413306E-1,1.1932825E0,-5.6488223E-2,-3.3064184E-1,-5.448552E-2,1.431667E0,-5.515231E-2,2.0034995E-2,7.558061E-2,1.553609E0,1.6690366E0,9.163163E-2,1.7379615E-1,1.2300625E-1],"categories":[],"categories_nodes":[],"categories_segments":[],"categories_sizes":[],"default_left":[0,0,0,0,0,0,0,0,0,0,0,0,0,0,0],"id":27,"left_children":[1,3,5,-1,7,-1,9,-1,-1,-1,11,13,-1,-1,-1],"loss_changes":[3.3101254E1,1.833477E-1,6.3241444E0,0E0,5.1945144E-1,0E0,9.7740173E-1,0E0,0E0,0E0,6.679287E-1,6.839371E-2,0E0,0E0,0E0],"parents":[2147483647,0,0,1,1,2,2,4,4,6,6,10,10,11,11],"right_children":[2,4,6,-1,8,-1,10,-1,-1,-1,12,14,-1,-1,-1],"split_conditions":[1E0,1E0,1E0,-5.6488223E-2,1E0,-5.448552E-2,1E0,-5.515231E-2,2.0034995E-2,7.558061E-2,1E0,1E0,9.163163E-2,1.7379615E-1,1.2300625E-1],"split_indices":[101,117,107,0,36,0,111,0,0,0,87,8,0,0,0],"split_type":[0,0,0,0,0,0,0,0,0,0,0,0,0,0,0],"sum_hessian":[5.5588535E1,4.061381E1,1.4974724E1,3.6379097E1,4.2347126E0,1.7905669E0,1.3184157E1,2.9879308E0,1.246782E0,2.1251838E0,1.1058973E1,9.226042E0,1.8329313E0,7.718258E0,1.5077844E0],"tree_param":{"num_deleted":"0","num_feature":"120","num_nodes":"15","size_leaf_vector":"1"}},{"base_weights":[5.9847496E-3,1.979964E-1,-3.988767E-1,3.340954E-1,-5.5108424E-2,-4.9806544E-1,3.8456377E-2,4.9875677E-1,-5.49674E-2,-3.482575E-1,-5.5651456E-2,8.044833E-1,-6.888239E-2,-5.4983914E-2,1.39151085E-2,1.0240297E0,-4.1050058E-2,-2.9043898E-1,5.2269596E-1,1.3136531E0,4.311903E-1,-5.5362314E-2,1.0014396E-1,2.0988141E-1,-5.6035727E-2,1.6890557E-1,-5.3795792E-2,1.5347753E-1,7.610951E-1,7.8234875E-1,-5.395409E-2,1.0396484E-1,-5.3392578E-2,1.5309296E-2,1.24774255E-1,1.4598118E-1,3.0269539E-2],"categories":[],"categories_nodes":[],"categories_segments":[],"categories_sizes":[],"default_left":[0,0,0,0,0,0,0,0,0,0,0,0,0,0,0,0,0,0,0,0,0,0,0,0,0,0,0,0,0,0,0,0,0,0,0,0,0],"id":28,"left_children":[1,3,5,7,-1,9,-1,11,-1,13,-1,15,17,-1,-1,19,21,23,25,27,29,-1,-1,31,-1,-1,-1,-1,33,35,-1,-1,-1,-1,-1,-1,-1],"loss_changes":[4.3590775E0,3.8958473E0,1.4209547E0,4.720175E0,0E0,1.212039E-1,0E0,4.7320356E0,0E0,4.7664624E-1,0E0,3.2916641E0,1.2768443E0,0E0,0E0,2.357936E0,2.0574489E0,9.6619266E-1,3.379753E0,1.0315285E0,1.6662505E0,0E0,0E0,1.6289892E0,0E0,0E0,0E0,0E0,8.343792E-1,1.1059468E0,0E0,0E0,0E0,0E0,0E0,0E0,0E0],"parents":[2147483647,0,0,1,1,2,2,3,3,5,5,7,7,9,9,11,11,12,12,15,15,16,16,17,17,18,18,19,19,20,20,23,23,28,28,29,29],"right_children":[2,4,6,8,-1,10,-1,12,-1,14,-1,16,18,-1,-1,20,22,24,26,28,30,-1,-1,32,-1,-1,-1,-1,34,36,-1,-1,-1,-1,-1,-1,-1],"split_conditions":[1E0,1E0,1E0,1E0,-5.5108424E-2,1E0,3.8456377E-2,1E0,-5.49674E-2,1E0,-5.5651456E-2,1E0,1E0,-5.4983914E-2,1.39151085E-2,1E0,1E0,1E0,1E0,1E0,1E0,-5.5362314E-2,1.0014396E-1,1E0,-5.6035727E-2,1.6890557E-1,-5.3795792E-2,1.5347753E-1,1E0,1E0,-5.395409E-2,1.0396484E-1,-5.3392578E-2,1.5309296E-2,1.24774255E-1,1.4598118E-1,3.0269539E-2],"split_indices":[32,40,105,61,0,29,0,86,0,119,0,111,9,0,0,8,34,82,15,82,95,0,0,117,0,0,0,0,100,14,0,0,0,0,0,0,0],"split_type":[0,0,0,0,0,0,0,0,0,0,0,0,0,0,0,0,0,0,0,0,0,0,0,0,0,0,0,0,0,0,0,0,0,0,0,0,0],"sum_hessian":[5.5872284E1,3.7933056E1,1.7939228E1,3.2147617E1,5.785438E0,1.5955573E1,1.9836556E0,2.7135393E1,5.012224E0,4.67336E0,1.1282213E1,1.7609379E1,9.526014E0,3.2969882E0,1.3763715E0,1.3962773E1,3.6466055E0,6.9674754E0,2.558539E0,9.298523E0,4.66425E0,2.4760642E0,1.1705413E0,2.449439E0,4.5180364E0,1.1903313E0,1.3682077E0,6.5139976E0,2.7845256E0,3.439448E0,1.2248015E0,1.139016E0,1.310423E0,1.2963567E0,1.4881688E0,1.3410293E0,2.098419E0],"tree_param":{"num_deleted":"0","num_feature":"120","num_nodes":"37","size_leaf_vector":"1"}},{"base_weights":[-1.4131989E-1,-4.9129164E-1,9.886794E-1,-5.3606474E-1,7.027998E-2,1.4631702E0,-2.9563814E-1,-5.6073017E-2,-3.856873E-1,1.0205296E0,1.5940468E-1,-5.4633327E-2,2.6338741E-2,2.523372E-2,-5.511715E-2,2.1888467E-2,1.6723774E-1],"categories":[],"categories_nodes":[],"categories_segments":[],"categories_sizes":[],"default_left":[0,0,0,0,0,0,0,0,0,0,0,0,0,0,0,0,0],"id":29,"left_children":[1,3,5,7,-1,9,11,-1,13,15,-1,-1,-1,-1,-1,-1,-1],"loss_changes":[2.1025629E1,2.206523E0,7.7073584E0,1.2361336E-1,0E0,3.7031555E-1,5.0154555E-1,0E0,6.303098E-1,1.2057493E0,0E0,0E0,0E0,0E0,0E0,0E0,0E0],"parents":[2147483647,0,0,1,1,2,2,3,3,5,5,6,6,8,8,9,9],"right_children":[2,4,6,8,-1,10,12,-1,14,16,-1,-1,-1,-1,-1,-1,-1],"split_conditions":[1E0,1E0,1E0,1E0,7.027998E-2,1E0,1E0,-5.6073017E-2,1E0,1E0,1.5940468E-1,-5.4633327E-2,2.6338741E-2,2.523372E-2,-5.511715E-2,2.1888467E-2,1.6723774E-1],"split_indices":[0,10,72,105,0,17,10,0,83,34,0,0,0,0,0,0,0],"split_type":[0,0,0,0,0,0,0,0,0,0,0,0,0,0,0,0,0],"sum_hessian":[5.294365E1,4.0467113E1,1.2476536E1,3.905773E1,1.4093841E0,9.1004505E0,3.376085E0,3.331965E1,5.7380805E0,2.2774832E0,6.822967E0,2.3323934E0,1.0436918E0,1.1709596E0,4.5671206E0,1.081289E0,1.1961942E0],"tree_param":{"num_deleted":"0","num_feature":"120","num_nodes":"17","size_leaf_vector":"1"}},{"base_weights":[1.774784E-1,-4.9139547E-1,7.5789684E-1,-5.58786E-2,-2.9358494E-1,1.0167872E0,-5.5055805E-2,1.0945364E-1,-5.5027056E-2,1.2256428E0,-2.9997626E-1,1.2024943E-1,-5.439625E-2,6.8576396E-1,1.437285E-1,3.311854E-2,-5.5271413E-2,-2.4120441E-1,1.3768799E0,-5.5417012E-2,2.404049E-2,9.467451E-2,1.5253063E-1],"categories":[],"categories_nodes":[],"categories_segments":[],"categories_sizes":[],"default_left":[0,0,0,0,0,0,0,0,0,0,0,0,0,0,0,0,0,0,0,0,0,0,0],"id":30,"left_children":[1,3,5,-1,7,9,-1,11,-1,13,15,-1,-1,17,-1,-1,-1,19,21,-1,-1,-1,-1],"loss_changes":[2.3121994E1,3.5267258E-1,1.0853664E1,0E0,7.5566965E-1,7.364622E0,0E0,2.1385858E0,0E0,2.531433E0,6.1300135E-1,0E0,0E0,4.3084574E0,0E0,0E0,0E0,4.557706E-1,1.0061884E-1,0E0,0E0,0E0,0E0],"parents":[2147483647,0,0,1,1,2,2,4,4,5,5,7,7,9,9,10,10,13,13,17,17,18,18],"right_children":[2,4,6,-1,8,10,-1,12,-1,14,16,-1,-1,18,-1,-1,-1,20,22,-1,-1,-1,-1],"split_conditions":[1E0,1E0,1E0,-5.58786E-2,1E0,1E0,-5.5055805E-2,1E0,-5.5027056E-2,1E0,1E0,1.2024943E-1,-5.439625E-2,1E0,1.437285E-1,3.311854E-2,-5.5271413E-2,1E0,1E0,-5.5417012E-2,2.404049E-2,9.467451E-2,1.5253063E-1],"split_indices":[20,32,3,0,80,87,0,16,0,32,90,0,0,15,0,0,0,99,34,0,0,0,0],"split_type":[0,0,0,0,0,0,0,0,0,0,0,0,0,0,0,0,0,0,0,0,0,0,0],"sum_hessian":[5.9362034E1,2.7586596E1,3.1775438E1,2.0440426E1,7.14617E0,2.6545458E1,5.2299805E0,2.8027503E0,4.3434196E0,2.2917385E1,3.6280727E0,1.0171763E0,1.7855741E0,6.5733714E0,1.6344013E1,1.028518E0,2.5995545E0,2.8354228E0,3.7379487E0,1.7094797E0,1.1259431E0,1.1482396E0,2.589709E0],"tree_param":{"num_deleted":"0","num_feature":"120","num_nodes":"23","size_leaf_vector":"1"}},{"base_weights":[-6.1618857E-2,-5.6041032E-2,1.412382E-1],"categories":[],"categories_nodes":[],"categories_segments":[],"categories_sizes":[],"default_left":[0,0,0],"id":31,"left_children":[1,-1,-1],"loss_changes":[4.005512E1,0E0,0E0],"parents":[2147483647,0,0],"right_children":[2,-1,-1],"split_conditions":[1E0,-5.6041032E-2,1.412382E-1],"split_indices":[40,0,0],"split_type":[0,0,0],"sum_hessian":[5.427287E1,4.0597084E1,1.3675786E1],"tree_param":{"num_deleted":"0","num_feature":"120","num_nodes":"3","size_leaf_vector":"1"}},{"base_weights":[2.4938744E-2,-4.8932752E-1,1.3177295E0,-5.6028236E-2,2.661164E-1,1.7401328E-2,1.4112723E0,8.0836885E-2,-5.3957112E-2,8.5609876E-2,1.45441E-1],"categories":[],"categories_nodes":[],"categories_segments":[],"categories_sizes":[],"default_left":[0,0,0,0,0,0,0,0,0,0,0],"id":32,"left_children":[1,3,5,-1,7,-1,9,-1,-1,-1,-1],"loss_changes":[3.739766E1,2.1721926E0,1.688055E0,0E0,1.5829113E0,0E0,2.2953415E-1,0E0,0E0,0E0,0E0],"parents":[2147483647,0,0,1,1,2,2,4,4,6,6],"right_children":[2,4,6,-1,8,-1,10,-1,-1,-1,-1],"split_conditions":[1E0,1E0,1E0,-5.6028236E-2,1E0,1.7401328E-2,1E0,8.0836885E-2,-5.3957112E-2,8.5609876E-2,1.45441E-1],"split_indices":[61,60,60,0,95,0,78,0,0,0,0],"split_type":[0,0,0,0,0,0,0,0,0,0,0],"sum_hessian":[5.605375E1,4.0146E1,1.5907747E1,3.672267E1,3.4233308E0,1.2243286E0,1.4683418E1,2.0459864E0,1.3773445E0,1.208956E0,1.34744625E1],"tree_param":{"num_deleted":"0","num_feature":"120","num_nodes":"11","size_leaf_vector":"1"}},{"base_weights":[4.1266263E-2,-2.3092458E-1,1.1045501E0,-4.6865925E-1,3.1415957E-1,1.3417879E0,-5.289049E-2,-5.256801E-1,5.0671607E-2,7.660515E-1,-5.499574E-2,1.4127356E0,7.832684E-2,-5.59705E-2,1.8580616E-2,-5.4204334E-2,1.188994E-1,1.068104E0,-5.3579707E-2,9.052678E-2,1.4796096E-1,2.1422842E-1,1.4419522E0,-5.604024E-2,8.2624815E-2,9.172898E-2,1.5768586E-1],"categories":[],"categories_nodes":[],"categories_segments":[],"categories_sizes":[],"default_left":[0,0,0,0,0,0,0,0,0,0,0,0,0,0,0,0,0,0,0,0,0,0,0,0,0,0,0],"id":33,"left_children":[1,3,5,7,9,11,-1,13,15,17,-1,19,-1,-1,-1,-1,-1,21,-1,-1,-1,23,25,-1,-1,-1,-1],"loss_changes":[1.6377096E1,5.8546133E0,4.5400457E0,9.33094E-1,5.4097605E0,2.8949738E-1,0E0,6.9598293E-1,2.2232995E0,3.6228757E0,0E0,1.6590881E-1,0E0,0E0,0E0,0E0,0E0,2.3292341E0,0E0,0E0,0E0,1.1693171E0,2.1807861E-1,0E0,0E0,0E0,0E0],"parents":[2147483647,0,0,1,1,2,2,3,3,4,4,5,5,7,7,8,8,9,9,11,11,17,17,21,21,22,22],"right_children":[2,4,6,8,10,12,-1,14,16,18,-1,20,-1,-1,-1,-1,-1,22,-1,-1,-1,24,26,-1,-1,-1,-1],"split_conditions":[1E0,1E0,1E0,1E0,1E0,1E0,-5.289049E-2,1E0,1E0,1E0,-5.499574E-2,1E0,7.832684E-2,-5.59705E-2,1.8580616E-2,-5.4204334E-2,1.188994E-1,1E0,-5.3579707E-2,9.052678E-2,1.4796096E-1,1E0,1E0,-5.604024E-2,8.2624815E-2,9.172898E-2,1.5768586E-1],"split_indices":[87,118,100,92,101,57,0,106,116,15,0,90,0,0,0,0,0,97,0,0,0,89,82,0,0,0,0],"split_type":[0,0,0,0,0,0,0,0,0,0,0,0,0,0,0,0,0,0,0,0,0,0,0,0,0,0,0],"sum_hessian":[5.6398544E1,4.4965958E1,1.1432588E1,3.1319983E1,1.3645973E1,9.998319E0,1.4342687E0,2.8220266E1,3.0997164E0,8.967663E0,4.678311E0,8.735698E0,1.2626208E0,2.6952662E1,1.2676044E0,2.072806E0,1.0269105E0,7.2934127E0,1.6742499E0,1.1864111E0,7.549287E0,2.2687814E0,5.0246315E0,1.0050843E0,1.263697E0,1.1872519E0,3.8373795E0],"tree_param":{"num_deleted":"0","num_feature":"120","num_nodes":"27","size_leaf_vector":"1"}},{"base_weights":[-6.9433086E-2,-5.3511655E-1,1.0480903E0,-5.5988487E-2,-3.1913713E-1,-5.396497E-2,1.2414649E0,-5.4631855E-2,2.0074503E-2,7.904571E-1,1.3751478E0,1.0543195E-1,2.3458483E-2,1.1627852E0,1.5838087E-1,1.3677321E-1,9.907344E-1,1.3566938E-1,5.1585E-2],"categories":[],"categories_nodes":[],"categories_segments":[],"categories_sizes":[],"default_left":[0,0,0,0,0,0,0,0,0,0,0,0,0,0,0,0,0,0,0],"id":34,"left_children":[1,3,5,-1,7,-1,9,-1,-1,11,13,-1,-1,15,-1,-1,17,-1,-1],"loss_changes":[2.833966E1,1.8770313E-1,4.9855347E0,0E0,5.0537956E-1,0E0,7.541294E-1,0E0,0E0,4.896822E-1,2.9899597E-1,0E0,0E0,6.830692E-2,0E0,0E0,5.39145E-1,0E0,0E0],"parents":[2147483647,0,0,1,1,2,2,4,4,6,6,9,9,10,10,13,13,16,16],"right_children":[2,4,6,-1,8,-1,10,-1,-1,12,14,-1,-1,16,-1,-1,18,-1,-1],"split_conditions":[1E0,1E0,1E0,-5.5988487E-2,1E0,-5.396497E-2,1E0,-5.4631855E-2,2.0074503E-2,1E0,1E0,1.0543195E-1,2.3458483E-2,1E0,1.5838087E-1,1.3677321E-1,1E0,1.3566938E-1,5.1585E-2],"split_indices":[101,117,107,0,36,0,103,0,0,23,26,0,0,98,0,0,82,0,0],"split_type":[0,0,0,0,0,0,0,0,0,0,0,0,0,0,0,0,0,0,0],"sum_hessian":[5.424841E1,3.83286E1,1.5919807E1,3.424248E1,4.0861206E0,1.7089632E0,1.4210844E1,2.8399959E0,1.2461246E0,3.4072037E0,1.080364E1,2.2496612E0,1.1575425E0,5.680067E0,5.1235733E0,2.2750583E0,3.4050086E0,1.8181789E0,1.5868297E0],"tree_param":{"num_deleted":"0","num_feature":"120","num_nodes":"19","size_leaf_vector":"1"}},{"base_weights":[7.816296E-3,1.890788E-1,-3.885665E-1,3.1426126E-1,-5.458006E-2,-4.9034193E-1,3.498574E-2,4.630811E-1,-5.4454785E-2,-3.377694E-1,-5.5152863E-2,7.3190105E-1,-5.8240633E-2,-5.4573458E-2,1.4683212E-2,9.2596114E-1,-5.9199E-2,-5.522445E-2,2.2018252E-1,1.1042523E0,2.85084E-1,-5.5429127E-2,7.854114E-2,6.4036703E-1,-2.4027146E-1,1.2321699E0,4.0009085E-2,6.9729936E-1,-5.4857355E-2,-6.438244E-3,1.73426E-1,2.6626496E-2,-5.372842E-2,1.4020249E-1,9.790075E-2,2.2717347E-2,1.14116095E-1],"categories":[],"categories_nodes":[],"categories_segments":[],"categories_sizes":[],"default_left":[0,0,0,0,0,0,0,0,0,0,0,0,0,0,0,0,0,0,0,0,0,0,0,0,0,0,0,0,0,0,0,0,0,0,0,0,0],"id":35,"left_children":[1,3,5,7,-1,9,-1,11,-1,13,-1,15,17,-1,-1,19,21,-1,23,25,27,-1,-1,29,31,33,-1,35,-1,-1,-1,-1,-1,-1,-1,-1,-1],"loss_changes":[3.9477477E0,3.4853697E0,1.3129561E0,4.15042E0,0E0,1.2322426E-1,0E0,3.867074E0,0E0,4.7235727E-1,0E0,2.798544E0,1.3147178E0,0E0,0E0,1.6385384E0,1.5814352E0,0E0,1.2010381E0,9.775257E-1,1.177739E0,0E0,0E0,2.5023818E0,4.6515107E-1,2.7551174E-1,0E0,4.4625556E-1,0E0,0E0,0E0,0E0,0E0,0E0,0E0,0E0,0E0],"parents":[2147483647,0,0,1,1,2,2,3,3,5,5,7,7,9,9,11,11,12,12,15,15,16,16,18,18,19,19,20,20,23,23,24,24,25,25,27,27],"right_children":[2,4,6,8,-1,10,-1,12,-1,14,-1,16,18,-1,-1,20,22,-1,24,26,28,-1,-1,30,32,34,-1,36,-1,-1,-1,-1,-1,-1,-1,-1,-1],"split_conditions":[1E0,1E0,1E0,1E0,-5.458006E-2,1E0,3.498574E-2,1E0,-5.4454785E-2,1E0,-5.5152863E-2,1E0,1E0,-5.4573458E-2,1.4683212E-2,1E0,1E0,-5.522445E-2,1E0,1E0,1E0,-5.5429127E-2,7.854114E-2,1E0,1E0,1E0,4.0009085E-2,1E0,-5.4857355E-2,-6.438244E-3,1.73426E-1,2.6626496E-2,-5.372842E-2,1.4020249E-1,9.790075E-2,2.2717347E-2,1.14116095E-1],"split_indices":[32,40,105,61,0,29,0,111,0,84,0,99,98,0,0,39,109,0,26,36,77,0,0,23,99,114,0,11,0,0,0,0,0,0,0,0,0],"split_type":[0,0,0,0,0,0,0,0,0,0,0,0,0,0,0,0,0,0,0,0,0,0,0,0,0,0,0,0,0,0,0,0,0,0,0,0,0],"sum_hessian":[5.474255E1,3.760047E1,1.7142078E1,3.2176605E1,5.4238634E0,1.5095142E1,2.0469363E0,2.7463617E1,4.71299E0,4.507491E0,1.0587651E1,1.8093367E1,9.370252E0,3.1451466E0,1.3623446E0,1.4515586E1,3.5777798E0,3.34208E0,6.028171E0,1.1299716E1,3.2158706E0,2.277268E0,1.3005118E0,3.1314826E0,2.8966885E0,9.499126E0,1.8005891E0,2.1627972E0,1.0530732E0,1.9617339E0,1.1697488E0,1.0745182E0,1.8221704E0,5.4133363E0,4.0857906E0,1.1237421E0,1.0390552E0],"tree_param":{"num_deleted":"0","num_feature":"120","num_nodes":"37","size_leaf_vector":"1"}},{"base_weights":[-1.3555694E-1,-4.8397213E-1,8.898808E-1,-5.301532E-1,6.364673E-2,1.2843447E0,-2.8662455E-1,-5.5683415E-2,-3.744108E-1,9.1149056E-1,1.3926777E-1,-5.394985E-2,2.3125783E-2,-5.4444086E-2,3.394995E-2,2.0279754E-2,1.4490396E-1],"categories":[],"categories_nodes":[],"categories_segments":[],"categories_sizes":[],"default_left":[0,0,0,0,0,0,0,0,0,0,0,0,0,0,0,0,0],"id":36,"left_children":[1,3,5,7,-1,9,11,-1,13,15,-1,-1,-1,-1,-1,-1,-1],"loss_changes":[1.8390213E1,2.0203714E0,6.097101E0,1.326046E-1,0E0,2.688141E-1,4.5258775E-1,0E0,7.111615E-1,9.212043E-1,0E0,0E0,0E0,0E0,0E0,0E0,0E0],"parents":[2147483647,0,0,1,1,2,2,3,3,5,5,6,6,8,8,9,9],"right_children":[2,4,6,8,-1,10,12,-1,14,16,-1,-1,-1,-1,-1,-1,-1],"split_conditions":[1E0,1E0,1E0,1E0,6.364673E-2,1E0,1E0,-5.5683415E-2,1E0,1E0,1.3926777E-1,-5.394985E-2,2.3125783E-2,-5.4444086E-2,3.394995E-2,2.0279754E-2,1.4490396E-1],"split_indices":[0,11,72,58,0,17,10,0,97,34,0,0,0,0,0,0,0],"split_type":[0,0,0,0,0,0,0,0,0,0,0,0,0,0,0,0,0],"sum_hessian":[5.125256E1,3.8294094E1,1.2958465E1,3.6828808E1,1.465287E0,9.6977825E0,3.2606814E0,3.1222412E1,5.6063967E0,2.3952682E0,7.3025146E0,2.1880946E0,1.0725868E0,4.547152E0,1.0592445E0,1.0925717E0,1.3026966E0],"tree_param":{"num_deleted":"0","num_feature":"120","num_nodes":"17","size_leaf_vector":"1"}},{"base_weights":[1.669991E-1,-4.8453555E-1,6.9228363E-1,-5.5404957E-2,-2.8631043E-1,9.144349E-1,-5.4526754E-2,1.0219603E-1,-5.4584812E-2,1.0937585E0,-2.8437382E-1,1.1751497E-1,-5.457861E-2,1.1405133E0,1.8748648E-2,2.2973731E-2,-5.4086983E-2,7.748593E-1,1.2276301E0,3.1527143E-2,1.0947336E0,9.772687E-1,1.2907748E-1,7.970306E-2,1.2864186E-1,1.4773726E-2,1.3259232E-1],"categories":[],"categories_nodes":[],"categories_segments":[],"categories_sizes":[],"default_left":[0,0,0,0,0,0,0,0,0,0,0,0,0,0,0,0,0,0,0,0,0,0,0,0,0,0,0],"id":37,"left_children":[1,3,5,-1,7,9,-1,11,-1,13,15,-1,-1,17,-1,-1,-1,19,21,-1,23,25,-1,-1,-1,-1,-1],"loss_changes":[2.009523E1,3.454857E-1,8.983444E0,0E0,7.1296644E-1,5.961563E0,0E0,2.076134E0,0E0,9.96315E-1,4.9624443E-1,0E0,0E0,6.3179207E-1,0E0,0E0,0E0,6.508286E-1,1.6249657E-1,0E0,5.201769E-2,1.1630716E0,0E0,0E0,0E0,0E0,0E0],"parents":[2147483647,0,0,1,1,2,2,4,4,5,5,7,7,9,9,10,10,13,13,17,17,18,18,20,20,21,21],"right_children":[2,4,6,-1,8,10,-1,12,-1,14,16,-1,-1,18,-1,-1,-1,20,22,-1,24,26,-1,-1,-1,-1,-1],"split_conditions":[1E0,1E0,1E0,-5.5404957E-2,1E0,1E0,-5.4526754E-2,1E0,-5.4584812E-2,1E0,1E0,1.1751497E-1,-5.457861E-2,1E0,1.8748648E-2,2.2973731E-2,-5.4086983E-2,1E0,1E0,3.1527143E-2,1E0,1E0,1.2907748E-1,7.970306E-2,1.2864186E-1,1.4773726E-2,1.3259232E-1],"split_indices":[20,32,3,0,80,111,0,60,0,117,94,0,0,28,0,0,0,31,81,0,15,99,0,0,0,0,0],"split_type":[0,0,0,0,0,0,0,0,0,0,0,0,0,0,0,0,0,0,0,0,0,0,0,0,0,0,0],"sum_hessian":[5.8518585E1,2.6123793E1,3.239479E1,1.9208286E1,6.9155064E0,2.7486782E1,4.9080095E0,2.7938972E0,4.121609E0,2.3917805E1,3.5689764E0,1.0213506E0,1.7725466E0,2.2719835E1,1.1979687E0,1.1914036E0,2.3775728E0,4.561866E0,1.815797E1,1.9535755E0,2.6082904E0,3.9891422E0,1.4168828E1,1.223654E0,1.3846364E0,1.2226181E0,2.766524E0],"tree_param":{"num_deleted":"0","num_feature":"120","num_nodes":"27","size_leaf_vector":"1"}},{"base_weights":[-6.0992815E-2,-5.558286E-2,1.24897085E-1],"categories":[],"categories_nodes":[],"categories_segments":[],"categories_sizes":[],"default_left":[0,0,0],"id":38,"left_children":[1,-1,-1],"loss_changes":[3.42077E1,0E0,0E0],"parents":[2147483647,0,0],"right_children":[2,-1,-1],"split_conditions":[1E0,-5.558286E-2,1.24897085E-1],"split_indices":[40,0,0],"split_type":[0,0,0],"sum_hessian":[5.2564903E1,3.8194565E1,1.4370339E1],"tree_param":{"num_deleted":"0","num_feature":"120","num_nodes":"3","size_leaf_vector":"1"}},{"base_weights":[2.30113E-2,-5.3053635E-1,1.0666317E0,-5.5563923E-2,1.5244625E-2,-5.4646607E-2,1.2171423E0,7.117308E-1,1.2846433E-1,2.269519E-2,1.1904813E-1],"categories":[],"categories_nodes":[],"categories_segments":[],"categories_sizes":[],"default_left":[0,0,0,0,0,0,0,0,0,0,0],"id":39,"left_children":[1,3,5,-1,-1,-1,7,9,-1,-1,-1],"loss_changes":[3.1722649E1,6.236906E-1,4.6869965E0,0E0,0E0,0E0,5.0346756E-1,5.0185347E-1,0E0,0E0,0E0],"parents":[2147483647,0,0,1,1,2,2,6,6,7,7],"right_children":[2,4,6,-1,-1,-1,8,10,-1,-1,-1],"split_conditions":[1E0,1E0,1E0,-5.5563923E-2,1.5244625E-2,-5.4646607E-2,1E0,1E0,1.2846433E-1,2.269519E-2,1.1904813E-1],"split_indices":[60,61,62,0,0,0,61,114,0,0,0],"split_type":[0,0,0,0,0,0,0,0,0,0,0],"sum_hessian":[5.4714626E1,3.578372E1,1.893091E1,3.4533108E1,1.2506095E0,1.5931596E0,1.7337751E1,2.178753E0,1.51589985E1,1.1558021E0,1.0229506E0],"tree_param":{"num_deleted":"0","num_feature":"120","num_nodes":"11","size_leaf_vector":"1"}},{"base_weights":[3.9419536E-2,-2.2279881E-1,9.8590887E-1,-4.603711E-1,2.9454792E-1,1.1834729E0,-5.2319247E-2,-5.191898E-1,5.0087098E-2,6.977927E-1,-5.44939E-2,1.2841938E-1,8.248551E-1,-5.5498213E-2,1.8078862E-2,-5.4490704E-2,1.18643336E-1,9.5472383E-1,-5.2914318E-2,1.3285555E-2,1.3806587E-1,1.9912483E-2,1.26625E0,8.299487E-2,1.3753118E-1],"categories":[],"categories_nodes":[],"categories_segments":[],"categories_sizes":[],"default_left":[0,0,0,0,0,0,0,0,0,0,0,0,0,0,0,0,0,0,0,0,0,0,0,0,0],"id":40,"left_children":[1,3,5,7,9,11,-1,13,15,17,-1,-1,19,-1,-1,-1,-1,21,-1,-1,-1,-1,23,-1,-1],"loss_changes":[1.3747105E1,5.346016E0,3.644309E0,8.964734E-1,4.680647E0,2.7894878E-1,0E0,6.790776E-1,2.2060835E0,2.9848309E0,0E0,0E0,9.878173E-1,0E0,0E0,0E0,0E0,1.7948561E0,0E0,0E0,0E0,0E0,1.4548588E-1,0E0,0E0],"parents":[2147483647,0,0,1,1,2,2,3,3,4,4,5,5,7,7,8,8,9,9,12,12,17,17,22,22],"right_children":[2,4,6,8,10,12,-1,14,16,18,-1,-1,20,-1,-1,-1,-1,22,-1,-1,-1,-1,24,-1,-1],"split_conditions":[1E0,1E0,1E0,1E0,1E0,1E0,-5.2319247E-2,1E0,1E0,1E0,-5.44939E-2,1.2841938E-1,1E0,-5.5498213E-2,1.8078862E-2,-5.4490704E-2,1.18643336E-1,1E0,-5.2914318E-2,1.3285555E-2,1.3806587E-1,1.9912483E-2,1E0,8.299487E-2,1.3753118E-1],"split_indices":[87,118,100,92,101,36,0,106,98,15,0,0,92,0,0,0,0,97,0,0,0,0,82,0,0],"split_type":[0,0,0,0,0,0,0,0,0,0,0,0,0,0,0,0,0,0,0,0,0,0,0,0,0],"sum_hessian":[5.5201637E1,4.3286007E1,1.191563E1,2.967149E1,1.3614518E1,1.0555354E1,1.3602767E0,2.6604246E1,3.0672429E0,9.208246E0,4.4062724E0,8.03934E0,2.5160139E0,2.5329763E1,1.2744842E0,2.0473118E0,1.0199308E0,7.632186E0,1.5760602E0,1.1758871E0,1.3401268E0,2.2759194E0,5.3562665E0,1.2433269E0,4.1129394E0],"tree_param":{"num_deleted":"0","num_feature":"120","num_nodes":"25","size_leaf_vector":"1"}},{"base_weights":[-6.599767E-2,-5.2913225E-1,9.389138E-1,-5.5521082E-2,-3.0778927E-1,-5.3462286E-2,1.1016268E0,1.835357E-2,-5.4633975E-2,4.572093E-2,1.175118E0,9.585358E-1,1.4341326E-1,1.2778947E0,-5.826318E-2,9.548046E-2,1.4294058E-1],"categories":[],"categories_nodes":[],"categories_segments":[],"categories_sizes":[],"default_left":[0,0,0,0,0,0,0,0,0,0,0,0,0,0,0,0,0],"id":41,"left_children":[1,3,5,-1,7,-1,9,-1,-1,-1,11,13,-1,15,-1,-1,-1],"loss_changes":[2.4631636E1,1.9197941E-1,4.0626783E0,0E0,4.8376605E-1,0E0,6.600189E-1,0E0,0E0,0E0,6.178627E-1,3.832014E0,0E0,1.7462254E-1,0E0,0E0,0E0],"parents":[2147483647,0,0,1,1,2,2,4,4,6,6,10,10,11,11,13,13],"right_children":[2,4,6,-1,8,-1,10,-1,-1,-1,12,14,-1,16,-1,-1,-1],"split_conditions":[1E0,1E0,1E0,-5.5521082E-2,1E0,-5.3462286E-2,1E0,1.835357E-2,-5.4633975E-2,4.572093E-2,1E0,1E0,1.4341326E-1,1E0,-5.826318E-2,9.548046E-2,1.4294058E-1],"split_indices":[101,117,107,0,98,0,95,0,0,0,26,23,0,105,0,0,0],"split_type":[0,0,0,0,0,0,0,0,0,0,0,0,0,0,0,0,0],"sum_hessian":[5.2717934E1,3.6119057E1,1.6598879E1,3.2177116E1,3.9419394E0,1.6279064E0,1.4970973E1,1.2959101E0,2.6460292E0,1.6064785E0,1.3364494E1,7.5344367E0,5.8300576E0,6.255303E0,1.2791338E0,2.2300384E0,4.0252647E0],"tree_param":{"num_deleted":"0","num_feature":"120","num_nodes":"17","size_leaf_vector":"1"}},{"base_weights":[9.878699E-3,1.815674E-1,-3.7826827E-1,2.9699236E-1,-5.40679E-2,-4.8285812E-1,3.2546636E-2,4.3201256E-1,-5.395409E-2,-3.2714927E-1,-5.4702617E-2,6.73366E-1,-5.978439E-2,-5.4110795E-2,1.497075E-2,8.4327906E-1,-4.223294E-2,1.671127E-1,-5.4357808E-2,1.0685954E0,3.622446E-1,-5.4477967E-2,8.187608E-2,5.028252E-1,-5.3816855E-2,1.2354757E-1,6.3920236E-1,6.5782815E-1,-5.355672E-2,1.1750968E-1,1.120227E-1,1.32825645E-2,1.0080121E-1,1.01185456E-1,6.7201494E-3,8.191032E-2,-5.3059738E-2],"categories":[],"categories_nodes":[],"categories_segments":[],"categories_sizes":[],"default_left":[0,0,0,0,0,0,0,0,0,0,0,0,0,0,0,0,0,0,0,0,0,0,0,0,0,0,0,0,0,0,0,0,0,0,0,0,0],"id":42,"left_children":[1,3,5,7,-1,9,-1,11,-1,13,-1,15,17,-1,-1,19,21,23,-1,25,27,-1,-1,29,-1,-1,31,33,-1,35,-1,-1,-1,-1,-1,-1,-1],"loss_changes":[3.5801497E0,3.120894E0,1.2284467E0,3.6575963E0,0E0,1.2583113E-1,0E0,3.2990828E0,0E0,4.6179932E-1,0E0,2.2687416E0,1.0223325E0,0E0,0E0,1.5935469E0,1.6325419E0,1.5329417E0,0E0,6.522646E-1,1.3502231E0,0E0,0E0,1.0242188E0,0E0,0E0,5.5868256E-1,7.8206825E-1,0E0,1.3151503E0,0E0,0E0,0E0,0E0,0E0,0E0,0E0],"parents":[2147483647,0,0,1,1,2,2,3,3,5,5,7,7,9,9,11,11,12,12,15,15,16,16,17,17,19,19,20,20,23,23,26,26,27,27,29,29],"right_children":[2,4,6,8,-1,10,-1,12,-1,14,-1,16,18,-1,-1,20,22,24,-1,26,28,-1,-1,30,-1,-1,32,34,-1,36,-1,-1,-1,-1,-1,-1,-1],"split_conditions":[1E0,1E0,1E0,1E0,-5.40679E-2,1E0,3.2546636E-2,1E0,-5.395409E-2,1E0,-5.4702617E-2,1E0,1E0,-5.4110795E-2,1.497075E-2,1E0,1E0,1E0,-5.4357808E-2,1E0,1E0,-5.4477967E-2,8.187608E-2,1E0,-5.3816855E-2,1.2354757E-1,1E0,1E0,-5.355672E-2,1E0,1.120227E-1,1.32825645E-2,1.0080121E-1,1.01185456E-1,6.7201494E-3,8.191032E-2,-5.3059738E-2],"split_indices":[32,40,105,61,0,29,0,86,0,119,0,111,108,0,0,8,23,36,0,82,95,0,0,27,0,0,100,20,0,82,0,0,0,0,0,0,0],"split_type":[0,0,0,0,0,0,0,0,0,0,0,0,0,0,0,0,0,0,0,0,0,0,0,0,0,0,0,0,0,0,0,0,0,0,0,0,0],"sum_hessian":[5.3520313E1,3.714377E1,1.6376547E1,3.2076393E1,5.0673723E0,1.4284895E1,2.0916512E0,2.7660261E1,4.416133E0,4.346821E0,9.938074E0,1.8529726E1,9.130536E0,2.9912271E0,1.3555937E0,1.4959802E1,3.5699236E0,6.2600555E0,2.8704803E0,1.0104644E1,4.8551583E0,2.2773826E0,1.292541E0,4.260684E0,1.9993714E0,7.14145E0,2.9631937E0,3.6727283E0,1.18243E0,2.6967173E0,1.5639668E0,1.306028E0,1.6571656E0,2.251714E0,1.4210143E0,1.2822561E0,1.4144611E0],"tree_param":{"num_deleted":"0","num_feature":"120","num_nodes":"37","size_leaf_vector":"1"}},{"base_weights":[-1.2996559E-1,-4.76778E-1,8.139224E-1,-5.245949E-1,5.979079E-2,1.1508307E0,-2.7560794E-1,-5.5271428E-2,-3.6243123E-1,8.276569E-1,1.2438295E-1,-5.534767E-2,2.1738192E-2,-5.3938117E-2,3.246638E-2,1.8838612E-2,1.2910219E-1],"categories":[],"categories_nodes":[],"categories_segments":[],"categories_sizes":[],"default_left":[0,0,0,0,0,0,0,0,0,0,0,0,0,0,0,0,0],"id":43,"left_children":[1,3,5,7,-1,9,11,-1,13,15,-1,-1,-1,-1,-1,-1,-1],"loss_changes":[1.6259712E1,1.8967705E0,4.932704E0,1.3868618E-1,0E0,2.041359E-1,4.5506853E-1,0E0,6.7820495E-1,7.405299E-1,0E0,0E0,0E0,0E0,0E0,0E0,0E0],"parents":[2147483647,0,0,1,1,2,2,3,3,5,5,6,6,8,8,9,9],"right_children":[2,4,6,8,-1,10,12,-1,14,16,-1,-1,-1,-1,-1,-1,-1],"split_conditions":[1E0,1E0,1E0,1E0,5.979079E-2,1E0,1E0,-5.5271428E-2,1E0,1E0,1.2438295E-1,-5.534767E-2,2.1738192E-2,-5.3938117E-2,3.246638E-2,1.8838612E-2,1.2910219E-1],"split_indices":[0,10,72,58,0,17,104,0,97,34,0,0,0,0,0,0,0],"split_type":[0,0,0,0,0,0,0,0,0,0,0,0,0,0,0,0,0],"sum_hessian":[4.9451866E1,3.620029E1,1.3251572E1,3.4707222E1,1.4930713E0,1.0117406E1,3.1341658E0,2.9373058E1,5.334162E0,2.482075E0,7.635331E0,1.9965572E0,1.1376086E0,4.2588615E0,1.0753009E0,1.1021605E0,1.3799144E0],"tree_param":{"num_deleted":"0","num_feature":"120","num_nodes":"17","size_leaf_vector":"1"}},{"base_weights":[1.5771835E-1,-4.787061E-1,6.3898987E-1,-5.505703E-2,-2.7985692E-1,8.4275085E-1,-5.409598E-2,9.6076354E-2,-5.4184176E-2,1.042135E0,-3.241353E-1,1.0350484E-1,-5.3956296E-2,7.169278E-1,1.1480751E-1,2.8037978E-2,-5.418268E-2,-1.0690425E-2,1.0977486E0,1.21242486E-1,7.6178536E-2],"categories":[],"categories_nodes":[],"categories_segments":[],"categories_sizes":[],"default_left":[0,0,0,0,0,0,0,0,0,0,0,0,0,0,0,0,0,0,0,0,0],"id":44,"left_children":[1,3,5,-1,7,9,-1,11,-1,13,15,-1,-1,17,-1,-1,-1,-1,19,-1,-1],"loss_changes":[1.7636524E1,3.3910084E-1,7.9250755E0,0E0,6.7384106E-1,6.5449276E0,0E0,1.770634E0,0E0,7.419834E-1,5.626832E-1,0E0,0E0,1.9396775E0,0E0,0E0,0E0,0E0,6.989241E-2,0E0,0E0],"parents":[2147483647,0,0,1,1,2,2,4,4,5,5,7,7,9,9,10,10,13,13,18,18],"right_children":[2,4,6,-1,8,10,-1,12,-1,14,16,-1,-1,18,-1,-1,-1,-1,20,-1,-1],"split_conditions":[1E0,1E0,1E0,-5.505703E-2,1E0,1E0,-5.409598E-2,1E0,-5.4184176E-2,1E0,1E0,1.0350484E-1,-5.3956296E-2,1E0,1.1480751E-1,2.8037978E-2,-5.418268E-2,-1.0690425E-2,1E0,1.21242486E-1,7.6178536E-2],"split_indices":[21,32,3,0,80,87,0,60,0,32,111,0,0,15,0,0,0,0,71,0,0],"split_type":[0,0,0,0,0,0,0,0,0,0,0,0,0,0,0,0,0,0,0,0,0],"sum_hessian":[5.7380703E1,2.470793E1,3.267277E1,1.8018984E1,6.688947E0,2.7885849E1,4.786924E0,2.7730732E0,3.9158742E0,2.382551E1,4.060339E0,1.0940689E0,1.6790042E0,6.0451813E0,1.7780329E1,1.0674112E0,2.992928E0,1.9337707E0,4.1114106E0,2.8706686E0,1.240742E0],"tree_param":{"num_deleted":"0","num_feature":"120","num_nodes":"21","size_leaf_vector":"1"}},{"base_weights":[-6.0501475E-2,-5.515635E-2,1.1265973E-1],"categories":[],"categories_nodes":[],"categories_segments":[],"categories_sizes":[],"default_left":[0,0,0],"id":45,"left_children":[1,-1,-1],"loss_changes":[2.9658918E1,0E0,0E0],"parents":[2147483647,0,0],"right_children":[2,-1,-1],"split_conditions":[1E0,-5.515635E-2,1.1265973E-1],"split_indices":[40,0,0],"split_type":[0,0,0],"sum_hessian":[5.067165E1,3.5882027E1,1.4789625E1],"tree_param":{"num_deleted":"0","num_feature":"120","num_nodes":"3","size_leaf_vector":"1"}},{"base_weights":[2.0952903E-2,-5.25051E-1,9.6336716E-1,-5.5125605E-2,1.3286419E-2,-5.4172963E-2,1.0941881E0,6.455915E-1,1.1546439E-1,1.1190062E-1,1.8055072E-2],"categories":[],"categories_nodes":[],"categories_segments":[],"categories_sizes":[],"default_left":[0,0,0,0,0,0,0,0,0,0,0],"id":46,"left_children":[1,3,5,-1,-1,-1,7,9,-1,-1,-1],"loss_changes":[2.7443611E1,5.89571E-1,3.9113846E0,0E0,0E0,0E0,4.145069E-1,5.0121605E-1,0E0,0E0,0E0],"parents":[2147483647,0,0,1,1,2,2,6,6,7,7],"right_children":[2,4,6,-1,-1,-1,8,10,-1,-1,-1],"split_conditions":[1E0,1E0,1E0,-5.5125605E-2,1.3286419E-2,-5.4172963E-2,1E0,1E0,1.1546439E-1,1.1190062E-1,1.8055072E-2],"split_indices":[60,61,62,0,0,0,61,5,0,0,0],"split_type":[0,0,0,0,0,0,0,0,0,0,0],"sum_hessian":[5.3135635E1,3.3671665E1,1.946397E1,3.239747E1,1.274194E0,1.5313748E0,1.7932596E1,2.268399E0,1.5664197E1,1.0543938E0,1.2140052E0],"tree_param":{"num_deleted":"0","num_feature":"120","num_nodes":"11","size_leaf_vector":"1"}},{"base_weights":[3.7675075E-2,-5.5148553E-2,4.215937E-1,7.444537E-1,-3.6950934E-1,-1.767856E-2,1.0345942E0,1.3095479E-1,-5.501277E-2,-5.413709E-2,5.7820195E-1,1.171404E0,4.5007265E-1,-5.1634144E-2,9.096066E-2,5.617602E-4,1.0638257E-1,8.764961E-1,1.2451288E0,-5.8264226E-2,9.822643E-2,2.506423E-2,1.18474565E-1,1.4236566E-1,1.1157391E-1],"categories":[],"categories_nodes":[],"categories_segments":[],"categories_sizes":[],"default_left":[0,0,0,0,0,0,0,0,0,0,0,0,0,0,0,0,0,0,0,0,0,0,0,0,0],"id":47,"left_children":[1,-1,3,5,7,9,11,13,-1,-1,15,17,19,-1,-1,-1,-1,21,23,-1,-1,-1,-1,-1,-1],"loss_changes":[1.2214523E1,0E0,8.3770485E0,5.1426935E0,8.696784E-1,2.0623655E0,1.2939472E0,1.3629997E0,0E0,0E0,8.593955E-1,1.86203E-1,1.9018756E0,0E0,0E0,0E0,0E0,5.595658E-1,8.6688995E-2,0E0,0E0,0E0,0E0,0E0,0E0],"parents":[2147483647,0,0,2,2,3,3,4,4,5,5,6,6,7,7,10,10,11,11,12,12,17,17,18,18],"right_children":[2,-1,4,6,8,10,12,14,-1,-1,16,18,20,-1,-1,-1,-1,22,24,-1,-1,-1,-1,-1,-1],"split_conditions":[1E0,-5.5148553E-2,1E0,1E0,1E0,1E0,1E0,1E0,-5.501277E-2,-5.413709E-2,1E0,1E0,1E0,-5.1634144E-2,9.096066E-2,5.617602E-4,1.0638257E-1,1E0,1E0,-5.8264226E-2,9.822643E-2,2.506423E-2,1.18474565E-1,1.4236566E-1,1.1157391E-1],"split_indices":[80,0,107,82,112,118,33,89,0,0,88,99,90,0,0,0,0,85,25,0,0,0,0,0,0],"split_type":[0,0,0,0,0,0,0,0,0,0,0,0,0,0,0,0,0,0,0,0,0,0,0,0,0],"sum_hessian":[5.3798435E1,2.1208412E1,3.2590023E1,2.3148642E1,9.441381E0,6.4086075E0,1.6740034E1,2.511081E0,6.9303007E0,3.4157808E0,2.992827E0,1.3483706E1,3.2563272E0,1.389594E0,1.1214871E0,1.4198644E0,1.5729624E0,2.9544446E0,1.0529263E1,1.1041842E0,2.152143E0,1.0347846E0,1.9196601E0,4.0041623E0,6.5251E0],"tree_param":{"num_deleted":"0","num_feature":"120","num_nodes":"25","size_leaf_vector":"1"}},{"base_weights":[-6.3150495E-2,-5.232829E-1,8.515642E-1,-5.508656E-2,-2.9545882E-1,-5.303061E-2,9.927596E-1,-5.3669956E-2,2.0724263E-2,5.2010584E-1,1.0782855E0,7.135331E-3,1.0088193E-1,1.1545522E0,6.4149685E-2,1.2045153E-1,8.444641E-2],"categories":[],"categories_nodes":[],"categories_segments":[],"categories_sizes":[],"default_left":[0,0,0,0,0,0,0,0,0,0,0,0,0,0,0,0,0],"id":48,"left_children":[1,3,5,-1,7,-1,9,-1,-1,11,13,-1,-1,15,-1,-1,-1],"loss_changes":[2.1570297E1,1.9793797E-1,3.3997593E0,0E0,4.8373136E-1,0E0,5.745001E-1,0E0,0E0,5.593553E-1,3.6285877E-1,0E0,0E0,6.934166E-2,0E0,0E0,0E0],"parents":[2147483647,0,0,1,1,2,2,4,4,6,6,9,9,10,10,13,13],"right_children":[2,4,6,-1,8,-1,10,-1,-1,12,14,-1,-1,16,-1,-1,-1],"split_conditions":[1E0,1E0,1E0,-5.508656E-2,1E0,-5.303061E-2,1E0,-5.3669956E-2,2.0724263E-2,1E0,1E0,7.135331E-3,1.0088193E-1,1E0,6.4149685E-2,1.2045153E-1,8.444641E-2],"split_indices":[101,117,107,0,36,0,111,0,0,90,87,0,0,8,0,0,0],"split_type":[0,0,0,0,0,0,0,0,0,0,0,0,0,0,0,0,0],"sum_hessian":[5.1043392E1,3.3988712E1,1.7054678E1,3.0191618E1,3.7970946E0,1.555501E0,1.5499177E1,2.5612273E0,1.2358671E0,2.4833298E0,1.3015847E1,1.3543353E0,1.1289945E0,1.0941113E1,2.0747333E0,9.1744375E0,1.7666761E0],"tree_param":{"num_deleted":"0","num_feature":"120","num_nodes":"17","size_leaf_vector":"1"}},{"base_weights":[1.1859539E-2,1.7475584E-1,-3.6770937E-1,2.8172854E-1,-5.358037E-2,-4.7505358E-1,2.9761055E-2,4.0506956E-1,-5.347218E-2,-3.16078E-1,-5.4255374E-2,6.217715E-1,-5.371055E-2,-5.3771436E-2,1.6510088E-2,7.720007E-1,-3.661644E-2,1.6233669E-1,-5.378477E-2,9.720474E-1,3.3735117E-1,-5.422172E-2,7.974319E-2,4.753487E-1,-5.333307E-2,1.12301804E-1,5.847738E-1,6.06868E-1,-5.3392258E-2,1.1827671E-1,1.01744056E-1,1.2054468E-2,9.139127E-2,1.8300144E-2,1.268246E-1,7.500921E-2,-5.2347858E-2],"categories":[],"categories_nodes":[],"categories_segments":[],"categories_sizes":[],"default_left":[0,0,0,0,0,0,0,0,0,0,0,0,0,0,0,0,0,0,0,0,0,0,0,0,0,0,0,0,0,0,0,0,0,0,0,0,0],"id":49,"left_children":[1,3,5,7,-1,9,-1,11,-1,13,-1,15,17,-1,-1,19,21,23,-1,25,27,-1,-1,29,-1,-1,31,33,-1,35,-1,-1,-1,-1,-1,-1,-1],"loss_changes":[3.235046E0,2.7974477E0,1.1362987E0,3.2321067E0,0E0,1.2844944E-1,0E0,2.7625523E0,0E0,4.65698E-1,0E0,1.8680367E0,9.4964683E-1,0E0,0E0,1.3026628E0,1.5609107E0,1.396495E0,0E0,5.46175E-1,1.205115E0,0E0,0E0,8.388159E-1,0E0,0E0,4.6935713E-1,1.0591602E0,0E0,1.159675E0,0E0,0E0,0E0,0E0,0E0,0E0,0E0],"parents":[2147483647,0,0,1,1,2,2,3,3,5,5,7,7,9,9,11,11,12,12,15,15,16,16,17,17,19,19,20,20,23,23,26,26,27,27,29,29],"right_children":[2,4,6,8,-1,10,-1,12,-1,14,-1,16,18,-1,-1,20,22,24,-1,26,28,-1,-1,30,-1,-1,32,34,-1,36,-1,-1,-1,-1,-1,-1,-1],"split_conditions":[1E0,1E0,1E0,1E0,-5.358037E-2,1E0,2.9761055E-2,1E0,-5.347218E-2,1E0,-5.4255374E-2,1E0,1E0,-5.3771436E-2,1.6510088E-2,1E0,1E0,1E0,-5.378477E-2,1E0,1E0,-5.422172E-2,7.974319E-2,1E0,-5.333307E-2,1.12301804E-1,1E0,1E0,-5.3392258E-2,1E0,1.01744056E-1,1.2054468E-2,9.139127E-2,1.8300144E-2,1.268246E-1,7.500921E-2,-5.2347858E-2],"split_indices":[32,40,105,61,0,29,0,86,0,84,0,111,108,0,0,8,34,36,0,82,36,0,0,27,0,0,100,71,0,82,0,0,0,0,0,0,0],"split_type":[0,0,0,0,0,0,0,0,0,0,0,0,0,0,0,0,0,0,0,0,0,0,0,0,0,0,0,0,0,0,0,0,0,0,0,0,0],"sum_hessian":[5.2117382E1,3.6504868E1,1.5612518E1,3.1780722E1,4.724145E0,1.3468136E1,2.1443818E0,2.7653498E1,4.127223E0,4.1834903E0,9.284646E0,1.8757826E1,8.895671E0,2.856161E0,1.3273293E0,1.5258849E1,3.4989777E0,6.1968036E0,2.698868E0,1.0364819E1,4.8940306E0,2.2002027E0,1.298775E0,4.295662E0,1.9011414E0,7.3209257E0,3.0438924E0,3.7609713E0,1.1330593E0,2.66323E0,1.632432E0,1.3194783E0,1.7244143E0,2.3698452E0,1.3911263E0,1.3335015E0,1.3297286E0],"tree_param":{"num_deleted":"0","num_feature":"120","num_nodes":"37","size_leaf_vector":"1"}},{"base_weights":[-1.2448455E-1,-4.6974197E-1,7.524586E-1,-5.189472E-1,5.406047E-2,1.0487335E0,-2.65013E-1,-5.4861613E-2,-3.50159E-1,7.6295453E-1,1.130532E-1,-5.47471E-2,2.0899469E-2,-5.3452294E-2,3.1191582E-2,1.7684441E-2,1.1750703E-1],"categories":[],"categories_nodes":[],"categories_segments":[],"categories_sizes":[],"default_left":[0,0,0,0,0,0,0,0,0,0,0,0,0,0,0,0,0],"id":50,"left_children":[1,3,5,7,-1,9,11,-1,13,15,-1,-1,-1,-1,-1,-1,-1],"loss_changes":[1.4468599E1,1.7315526E0,4.098832E0,1.4467049E-1,0E0,1.5871525E-1,4.298954E-1,0E0,6.475937E-1,6.167989E-1,0E0,0E0,0E0,0E0,0E0,0E0,0E0],"parents":[2147483647,0,0,1,1,2,2,3,3,5,5,6,6,8,8,9,9],"right_children":[2,4,6,8,-1,10,12,-1,14,16,-1,-1,-1,-1,-1,-1,-1],"split_conditions":[1E0,1E0,1E0,1E0,5.406047E-2,1E0,1E0,-5.4861613E-2,1E0,1E0,1.130532E-1,-5.47471E-2,2.0899469E-2,-5.3452294E-2,3.1191582E-2,1.7684441E-2,1.1750703E-1],"split_indices":[0,10,72,58,0,17,104,0,97,34,0,0,0,0,0,0,0],"split_type":[0,0,0,0,0,0,0,0,0,0,0,0,0,0,0,0,0],"sum_hessian":[4.7570515E1,3.4165714E1,1.3404799E1,3.262545E1,1.5402664E0,1.0379382E1,3.0254173E0,2.7556623E1,5.0688257E0,2.539586E0,7.839796E0,1.8860403E0,1.1393769E0,3.979847E0,1.0889785E0,1.1074641E0,1.432122E0],"tree_param":{"num_deleted":"0","num_feature":"120","num_nodes":"17","size_leaf_vector":"1"}},{"base_weights":[1.4937146E-1,-4.7220317E-1,5.92933E-1,-5.4621905E-2,-2.7341732E-1,7.740774E-1,-5.3634714E-2,9.017238E-2,-5.3778857E-2,9.504425E-1,-3.1556156E-1,9.235799E-2,-5.3355332E-2,1.0329688E0,6.0362023E-1,2.5487313E-2,-5.3691734E-2,8.3943605E-1,1.07995905E-1,-1.031347E-2,9.668268E-2,8.7522585E-3,1.1508173E-1],"categories":[],"categories_nodes":[],"categories_segments":[],"categories_sizes":[],"default_left":[0,0,0,0,0,0,0,0,0,0,0,0,0,0,0,0,0,0,0,0,0,0,0],"id":51,"left_children":[1,3,5,-1,7,9,-1,11,-1,13,15,-1,-1,17,19,-1,-1,21,-1,-1,-1,-1,-1],"loss_changes":[1.5476971E1,3.2921457E-1,6.7396784E0,0E0,6.341094E-1,5.460535E0,0E0,1.5264351E0,0E0,6.345024E-1,5.202397E-1,0E0,0E0,8.6919785E-2,1.2730129E0,0E0,0E0,9.882238E-1,0E0,0E0,0E0,0E0,0E0],"parents":[2147483647,0,0,1,1,2,2,4,4,5,5,7,7,9,9,10,10,13,13,14,14,17,17],"right_children":[2,4,6,-1,8,10,-1,12,-1,14,16,-1,-1,18,20,-1,-1,22,-1,-1,-1,-1,-1],"split_conditions":[1E0,1E0,1E0,-5.4621905E-2,1E0,1E0,-5.3634714E-2,1E0,-5.3778857E-2,1E0,1E0,9.235799E-2,-5.3355332E-2,1E0,1E0,2.5487313E-2,-5.3691734E-2,1E0,1.07995905E-1,-1.031347E-2,9.668268E-2,8.7522585E-3,1.1508173E-1],"split_indices":[21,32,3,0,80,87,0,60,0,118,111,0,0,32,35,0,0,99,0,0,0,0,0],"split_type":[0,0,0,0,0,0,0,0,0,0,0,0,0,0,0,0,0,0,0,0,0,0,0],"sum_hessian":[5.5934105E1,2.3290312E1,3.264379E1,1.6843884E1,6.446428E0,2.8158436E1,4.4853554E0,2.7416832E0,3.7047443E0,2.4246723E1,3.9117134E0,1.1529987E0,1.5886846E0,1.9426382E1,4.8203397E0,1.0893395E0,2.8223739E0,4.1638227E0,1.5262561E1,1.6606076E0,3.1597323E0,1.2568731E0,2.9069495E0],"tree_param":{"num_deleted":"0","num_feature":"120","num_nodes":"23","size_leaf_vector":"1"}},{"base_weights":[-6.0210135E-2,-5.4756846E-2,1.0308553E-1],"categories":[],"categories_nodes":[],"categories_segments":[],"categories_sizes":[],"default_left":[0,0,0],"id":52,"left_children":[1,-1,-1],"loss_changes":[2.5965544E1,0E0,0E0],"parents":[2147483647,0,0],"right_children":[2,-1,-1],"split_conditions":[1E0,-5.4756846E-2,1.0308553E-1],"split_indices":[40,0,0],"split_type":[0,0,0],"sum_hessian":[4.8625137E1,3.3645947E1,1.4979194E1],"tree_param":{"num_deleted":"0","num_feature":"120","num_nodes":"3","size_leaf_vector":"1"}},{"base_weights":[1.923921E-2,-5.198027E-1,8.830337E-1,-5.482703E-2,1.08782165E-2,-5.3508162E-2,9.9801815E-1,5.91001E-1,1.05379224E-1,1.6675917E-2,9.947718E-2],"categories":[],"categories_nodes":[],"categories_segments":[],"categories_sizes":[],"default_left":[0,0,0,0,0,0,0,0,0,0,0],"id":53,"left_children":[1,3,5,-1,-1,-1,7,9,-1,-1,-1],"loss_changes":[2.4004585E1,5.740452E-1,3.283454E0,0E0,0E0,0E0,3.544674E-1,4.0140134E-1,0E0,0E0,0E0],"parents":[2147483647,0,0,1,1,2,2,6,6,7,7],"right_children":[2,4,6,-1,-1,-1,8,10,-1,-1,-1],"split_conditions":[1E0,1E0,1E0,-5.482703E-2,1.08782165E-2,-5.3508162E-2,1E0,1E0,1.05379224E-1,1.6675917E-2,9.947718E-2],"split_indices":[60,69,62,0,0,0,61,94,0,0,0],"split_type":[0,0,0,0,0,0,0,0,0,0,0],"sum_hessian":[5.1355293E1,3.164647E1,1.9708824E1,3.028757E1,1.3588977E0,1.4507852E0,1.825804E1,2.3401566E0,1.5917882E1,1.2100539E0,1.1301026E0],"tree_param":{"num_deleted":"0","num_feature":"120","num_nodes":"11","size_leaf_vector":"1"}},{"base_weights":[3.609198E-2,-5.4717876E-2,3.942204E-1,6.844096E-1,-3.6215365E-1,-1.6133364E-2,9.389614E-1,1.2582512E-1,-5.453937E-2,-5.3664483E-2,5.3219956E-1,1.0604161E0,4.0869924E-1,-5.113275E-2,8.432301E-2,-1.1179402E-4,9.736013E-2,7.954044E-1,1.1263391E0,-5.7858568E-2,8.936675E-2,2.2505838E-2,1.0737274E-1,1.3389498E-1,1.0397198E-1],"categories":[],"categories_nodes":[],"categories_segments":[],"categories_sizes":[],"default_left":[0,0,0,0,0,0,0,0,0,0,0,0,0,0,0,0,0,0,0,0,0,0,0,0,0],"id":54,"left_children":[1,-1,3,5,7,9,11,13,-1,-1,15,17,19,-1,-1,-1,-1,21,23,-1,-1,-1,-1,-1,-1],"loss_changes":[1.0948109E1,0E0,7.1511183E0,4.1920576E0,8.1769025E-1,1.8441917E0,1.066843E0,1.2118018E0,0E0,0E0,7.4119884E-1,1.5434837E-1,1.6677716E0,0E0,0E0,0E0,0E0,4.7139E-1,6.228161E-2,0E0,0E0,0E0,0E0,0E0,0E0],"parents":[2147483647,0,0,2,2,3,3,4,4,5,5,6,6,7,7,10,10,11,11,12,12,17,17,18,18],"right_children":[2,-1,4,6,8,10,12,14,-1,-1,16,18,20,-1,-1,-1,-1,22,24,-1,-1,-1,-1,-1,-1],"split_conditions":[1E0,-5.4717876E-2,1E0,1E0,1E0,1E0,1E0,1E0,-5.453937E-2,-5.3664483E-2,1E0,1E0,1E0,-5.113275E-2,8.432301E-2,-1.1179402E-4,9.736013E-2,1E0,1E0,-5.7858568E-2,8.936675E-2,2.2505838E-2,1.0737274E-1,1.3389498E-1,1.0397198E-1],"split_indices":[80,0,107,82,112,118,33,94,0,0,88,99,90,0,0,0,0,85,118,0,0,0,0,0,0],"split_type":[0,0,0,0,0,0,0,0,0,0,0,0,0,0,0,0,0,0,0,0,0,0,0,0,0],"sum_hessian":[5.2208664E1,1.9841213E1,3.236745E1,2.3399538E1,8.967913E0,6.261406E0,1.7138132E1,2.4567578E0,6.5111547E0,3.2132869E0,3.048119E0,1.3862903E1,3.2752283E0,1.3163693E0,1.1403885E0,1.4255114E0,1.6226076E0,3.0217967E0,1.0841106E1,1.0725193E0,2.202709E0,1.0503197E0,1.9714772E0,2.719698E0,8.121408E0],"tree_param":{"num_deleted":"0","num_feature":"120","num_nodes":"25","size_leaf_vector":"1"}},{"base_weights":[-6.0753096E-2,-5.176124E-1,7.778731E-1,-5.4676425E-2,-2.84021E-1,-5.2488744E-2,9.012986E-1,1.8427206E-2,-5.4264326E-2,3.4763757E-2,9.635864E-1,6.479348E-1,1.0770446E0,1.11213885E-2,8.492981E-1,1.5350243E-1,9.966342E-1,5.582856E-2,1.06202856E-1,7.303485E-1,1.1224151E-1,1.0475718E-1,1.38633E-2],"categories":[],"categories_nodes":[],"categories_segments":[],"categories_sizes":[],"default_left":[0,0,0,0,0,0,0,0,0,0,0,0,0,0,0,0,0,0,0,0,0,0,0],"id":55,"left_children":[1,3,5,-1,7,-1,9,-1,-1,-1,11,13,15,-1,17,-1,19,-1,-1,21,-1,-1,-1],"loss_changes":[1.895359E1,2.0248985E-1,2.8529491E0,0E0,4.654189E-1,0E0,5.17436E-1,0E0,0E0,0E0,4.4246864E-1,4.2641246E-1,2.2892475E-1,0E0,1.213274E-1,0E0,2.230463E-1,0E0,0E0,5.876173E-1,0E0,0E0,0E0],"parents":[2147483647,0,0,1,1,2,2,4,4,6,6,10,10,11,11,12,12,14,14,16,16,19,19],"right_children":[2,4,6,-1,8,-1,10,-1,-1,-1,12,14,16,-1,18,-1,20,-1,-1,22,-1,-1,-1],"split_conditions":[1E0,1E0,1E0,-5.4676425E-2,1E0,-5.2488744E-2,1E0,1.8427206E-2,-5.4264326E-2,3.4763757E-2,1E0,1E0,1E0,1.11213885E-2,1E0,1.5350243E-1,1E0,5.582856E-2,1.06202856E-1,1E0,1.1224151E-1,1.0475718E-1,1.38633E-2],"split_indices":[101,117,107,0,116,0,95,0,0,0,105,88,84,0,81,0,86,0,0,23,0,0,0],"split_type":[0,0,0,0,0,0,0,0,0,0,0,0,0,0,0,0,0,0,0,0,0,0,0],"sum_hessian":[4.9264767E1,3.1916084E1,1.734868E1,2.8255737E1,3.6603484E0,1.4732461E0,1.5875435E1,1.3125086E0,2.3478398E0,1.6719542E0,1.4203481E1,3.9328885E0,1.0270592E1,1.1153159E0,2.8175726E0,1.2637701E0,9.006822E0,1.3429171E0,1.4746554E0,3.1078892E0,5.8989325E0,1.9730709E0,1.1348183E0],"tree_param":{"num_deleted":"0","num_feature":"120","num_nodes":"23","size_leaf_vector":"1"}},{"base_weights":[1.3945273E-2,1.6873434E-1,-3.5672596E-1,2.6828042E-1,-5.3115416E-2,-4.6729E-1,2.7972316E-2,3.8175896E-1,-5.301838E-2,-3.0547127E-1,-5.3831965E-2,5.781379E-1,-4.78108E-2,-5.3314783E-2,1.6013864E-2,7.1507037E-1,-3.6003515E-2,1.5662816E-1,-5.3679403E-2,8.9495724E-1,3.1855768E-1,-5.375622E-2,7.281941E-2,-2.7371427E-1,7.001056E-1,1.03454046E-1,5.399774E-1,5.714978E-1,-5.2645683E-2,-5.3920574E-2,3.1779747E-2,1.1351637E-1,1.4150265E-2,1.1310584E-2,8.355714E-2,1.0560645E-1,1.9822204E-2],"categories":[],"categories_nodes":[],"categories_segments":[],"categories_sizes":[],"default_left":[0,0,0,0,0,0,0,0,0,0,0,0,0,0,0,0,0,0,0,0,0,0,0,0,0,0,0,0,0,0,0,0,0,0,0,0,0],"id":56,"left_children":[1,3,5,7,-1,9,-1,11,-1,13,-1,15,17,-1,-1,19,21,23,-1,25,27,-1,-1,29,31,-1,33,35,-1,-1,-1,-1,-1,-1,-1,-1,-1],"loss_changes":[2.9147098E0,2.5105338E0,1.066195E0,2.8684702E0,0E0,1.3054276E-1,0E0,2.3294559E0,0E0,4.4658548E-1,0E0,1.5949855E0,8.8265663E-1,0E0,0E0,1.0762224E0,1.3988552E0,1.4796139E0,0E0,4.693222E-1,1.0964111E0,0E0,0E0,5.757041E-1,6.613891E-1,0E0,3.9441156E-1,6.822367E-1,0E0,0E0,0E0,0E0,0E0,0E0,0E0,0E0,0E0],"parents":[2147483647,0,0,1,1,2,2,3,3,5,5,7,7,9,9,11,11,12,12,15,15,16,16,17,17,19,19,20,20,23,23,24,24,26,26,27,27],"right_children":[2,4,6,8,-1,10,-1,12,-1,14,-1,16,18,-1,-1,20,22,24,-1,26,28,-1,-1,30,32,-1,34,36,-1,-1,-1,-1,-1,-1,-1,-1,-1],"split_conditions":[1E0,1E0,1E0,1E0,-5.3115416E-2,1E0,2.7972316E-2,1E0,-5.301838E-2,1E0,-5.3831965E-2,1E0,1E0,-5.3314783E-2,1.6013864E-2,1E0,1E0,1E0,-5.3679403E-2,1E0,1E0,-5.375622E-2,7.281941E-2,1E0,1E0,1.03454046E-1,1E0,1E0,-5.2645683E-2,-5.3920574E-2,3.1779747E-2,1.1351637E-1,1.4150265E-2,1.1310584E-2,8.355714E-2,1.0560645E-1,1.9822204E-2],"split_indices":[32,40,105,61,0,29,0,86,0,84,0,111,35,0,0,8,34,31,0,82,95,0,0,89,28,0,100,14,0,0,0,0,0,0,0,0,0],"split_type":[0,0,0,0,0,0,0,0,0,0,0,0,0,0,0,0,0,0,0,0,0,0,0,0,0,0,0,0,0,0,0,0,0,0,0,0,0],"sum_hessian":[5.0595383E1,3.5729523E1,1.4865858E1,3.1334452E1,4.395072E0,1.2688234E1,2.1776242E0,2.748101E1,3.8534408E0,4.0321965E0,8.656038E0,1.8835655E1,8.645355E0,2.698274E0,1.3339224E0,1.5388184E1,3.4474714E0,6.144408E0,2.5009465E0,1.0499254E1,4.8889303E0,2.0993085E0,1.3481629E0,3.4568236E0,2.6875846E0,7.3985868E0,3.100667E0,3.7875597E0,1.1013705E0,2.392036E0,1.0647879E0,1.4528463E0,1.2347383E0,1.325196E0,1.775471E0,1.5684992E0,2.2190604E0],"tree_param":{"num_deleted":"0","num_feature":"120","num_nodes":"37","size_leaf_vector":"1"}},{"base_weights":[-1.1914413E-1,-4.6282515E-1,7.0228314E-1,-5.136335E-1,5.0840467E-2,9.6621346E-1,-2.533529E-1,-5.445404E-2,-3.3378452E-1,7.038082E-1,1.04188465E-1,-5.337404E-2,2.2273446E-2,3.1432178E-2,-5.324906E-2,1.586676E-2,1.0833311E-1],"categories":[],"categories_nodes":[],"categories_segments":[],"categories_sizes":[],"default_left":[0,0,0,0,0,0,0,0,0,0,0,0,0,0,0,0,0],"id":57,"left_children":[1,3,5,7,-1,9,11,-1,13,15,-1,-1,-1,-1,-1,-1,-1],"loss_changes":[1.2945034E1,1.6203685E0,3.4374661E0,1.5275574E-1,0E0,1.376276E-1,4.133786E-1,0E0,6.307648E-1,5.3855646E-1,0E0,0E0,0E0,0E0,0E0,0E0,0E0],"parents":[2147483647,0,0,1,1,2,2,3,3,5,5,6,6,8,8,9,9],"right_children":[2,4,6,8,-1,10,12,-1,14,16,-1,-1,-1,-1,-1,-1,-1],"split_conditions":[1E0,1E0,1E0,1E0,5.0840467E-2,1E0,1E0,-5.445404E-2,1E0,1E0,1.04188465E-1,-5.337404E-2,2.2273446E-2,3.1432178E-2,-5.324906E-2,1.586676E-2,1.0833311E-1],"split_indices":[0,11,72,105,0,17,7,0,83,34,0,0,0,0,0,0,0],"split_type":[0,0,0,0,0,0,0,0,0,0,0,0,0,0,0,0,0],"sum_hessian":[4.5639004E1,3.220729E1,1.3431712E1,3.0650951E1,1.5563406E0,1.0524045E1,2.9076676E0,2.5983017E1,4.6679354E0,2.5861452E0,7.937899E0,1.822319E0,1.0853486E0,1.0816867E0,3.5862489E0,1.1196727E0,1.4664726E0],"tree_param":{"num_deleted":"0","num_feature":"120","num_nodes":"17","size_leaf_vector":"1"}},{"base_weights":[1.4187324E-1,-4.6616408E-1,5.549572E-1,-5.4223847E-2,-2.673384E-1,7.1800596E-1,-5.317983E-2,8.470602E-2,-5.3383805E-2,8.7633073E-1,-3.0632722E-1,8.32787E-2,-5.2769322E-2,5.9962773E-1,9.667541E-2,2.4914352E-2,-5.398014E-2,-1.2050479E-2,9.228852E-1,1.0246048E-1,6.2705725E-2],"categories":[],"categories_nodes":[],"categories_segments":[],"categories_sizes":[],"default_left":[0,0,0,0,0,0,0,0,0,0,0,0,0,0,0,0,0,0,0,0,0],"id":58,"left_children":[1,3,5,-1,7,9,-1,11,-1,13,15,-1,-1,17,-1,-1,-1,-1,19,-1,-1],"loss_changes":[1.3679823E1,3.1895638E-1,5.7820473E0,0E0,5.954026E-1,4.604991E0,0E0,1.3266097E0,0E0,5.544319E-1,5.131637E-1,0E0,0E0,1.4757771E0,0E0,0E0,0E0,0E0,6.677127E-2,0E0,0E0],"parents":[2147483647,0,0,1,1,2,2,4,4,5,5,7,7,9,9,10,10,13,13,18,18],"right_children":[2,4,6,-1,8,10,-1,12,-1,14,16,-1,-1,18,-1,-1,-1,-1,20,-1,-1],"split_conditions":[1E0,1E0,1E0,-5.4223847E-2,1E0,1E0,-5.317983E-2,1E0,-5.3383805E-2,1E0,1E0,8.32787E-2,-5.2769322E-2,1E0,9.667541E-2,2.4914352E-2,-5.398014E-2,-1.2050479E-2,1E0,1.0246048E-1,6.2705725E-2],"split_indices":[21,32,3,0,80,87,0,60,0,32,118,0,0,15,0,0,0,0,118,0,0],"split_type":[0,0,0,0,0,0,0,0,0,0,0,0,0,0,0,0,0,0,0,0,0],"sum_hessian":[5.4261295E1,2.1945644E1,3.231565E1,1.57476E1,6.1980443E0,2.8129276E1,4.1863766E0,2.6998174E0,3.498227E0,2.4376068E1,3.7532072E0,1.199082E0,1.5007353E0,6.191795E0,1.8184273E1,1.1087085E0,2.6444988E0,1.9377406E0,4.254054E0,2.9822605E0,1.2717936E0],"tree_param":{"num_deleted":"0","num_feature":"120","num_nodes":"21","size_leaf_vector":"1"}},{"base_weights":[-6.0215693E-2,-5.43844E-2,9.542293E-2],"categories":[],"categories_nodes":[],"categories_segments":[],"categories_sizes":[],"default_left":[0,0,0],"id":59,"left_children":[1,-1,-1],"loss_changes":[2.2902811E1,0E0,0E0],"parents":[2147483647,0,0],"right_children":[2,-1,-1],"split_conditions":[1E0,-5.43844E-2,9.542293E-2],"split_indices":[40,0,0],"split_type":[0,0,0],"sum_hessian":[4.6476128E1,3.1503489E1,1.4972639E1],"tree_param":{"num_deleted":"0","num_feature":"120","num_nodes":"3","size_leaf_vector":"1"}},{"base_weights":[1.744978E-2,-5.146028E-1,8.166446E-1,-5.4443456E-2,1.0075215E-2,-5.2952886E-2,9.202836E-1,5.4360133E-1,9.731882E-2,9.2928715E-2,1.43863205E-2],"categories":[],"categories_nodes":[],"categories_segments":[],"categories_sizes":[],"default_left":[0,0,0,0,0,0,0,0,0,0,0],"id":60,"left_children":[1,3,5,-1,-1,-1,7,9,-1,-1,-1],"loss_changes":[2.1107391E1,5.525713E-1,2.816494E0,0E0,0E0,0E0,3.1490612E-1,3.7199062E-1,0E0,0E0,0E0],"parents":[2147483647,0,0,1,1,2,2,6,6,7,7],"right_children":[2,4,6,-1,-1,-1,8,10,-1,-1,-1],"split_conditions":[1E0,1E0,1E0,-5.4443456E-2,1.0075215E-2,-5.2952886E-2,1E0,1E0,9.731882E-2,9.2928715E-2,1.43863205E-2],"split_indices":[60,69,62,0,0,0,61,5,0,0,0],"split_type":[0,0,0,0,0,0,0,0,0,0,0],"sum_hessian":[4.9440662E1,2.9702353E1,1.9738308E1,2.8339985E1,1.3623675E0,1.381606E0,1.8356703E1,2.3995228E0,1.595718E1,1.1538048E0,1.2457181E0],"tree_param":{"num_deleted":"0","num_feature":"120","num_nodes":"11","size_leaf_vector":"1"}},{"base_weights":[3.4440782E-2,-5.430838E-2,3.6958227E-1,6.3286436E-1,-3.5522187E-1,-1.7594906E-2,8.612273E-1,-5.4101754E-2,1.22745305E-1,-5.3217787E-2,4.8522693E-1,9.7150433E-1,3.7240255E-1,8.178039E-2,-5.0772827E-2,-1.0480605E-3,8.889636E-2,7.300529E-1,1.03136495E-1,-5.7453252E-2,8.199658E-2,1.9542862E-2,9.926395E-2],"categories":[],"categories_nodes":[],"categories_segments":[],"categories_sizes":[],"default_left":[0,0,0,0,0,0,0,0,0,0,0,0,0,0,0,0,0,0,0,0,0,0,0],"id":61,"left_children":[1,-1,3,5,7,9,11,-1,13,-1,15,17,19,-1,-1,-1,-1,21,-1,-1,-1,-1,-1],"loss_changes":[9.809844E0,0E0,6.141491E0,3.5007572E0,7.7107954E-1,1.6350589E0,9.038372E-1,0E0,1.1331336E0,0E0,6.4095813E-1,1.294527E-1,1.4762037E0,0E0,0E0,0E0,0E0,4.237417E-1,0E0,0E0,0E0,0E0,0E0],"parents":[2147483647,0,0,2,2,3,3,4,4,5,5,6,6,8,8,10,10,11,11,12,12,17,17],"right_children":[2,-1,4,6,8,10,12,-1,14,-1,16,18,20,-1,-1,-1,-1,22,-1,-1,-1,-1,-1],"split_conditions":[1E0,-5.430838E-2,1E0,1E0,1E0,1E0,1E0,-5.4101754E-2,1E0,-5.3217787E-2,1E0,1E0,1E0,8.178039E-2,-5.0772827E-2,-1.0480605E-3,8.889636E-2,1E0,1.03136495E-1,-5.7453252E-2,8.199658E-2,1.9542862E-2,9.926395E-2],"split_indices":[80,0,107,82,18,118,33,0,3,0,88,99,90,0,0,0,0,89,0,0,0,0,0],"split_type":[0,0,0,0,0,0,0,0,0,0,0,0,0,0,0,0,0,0,0,0,0,0,0],"sum_hessian":[5.0479427E1,1.8513844E1,3.1965586E1,2.3457449E1,8.508137E0,6.119426E0,1.7338022E1,6.1171017E0,2.3910346E0,3.0214574E0,3.0979683E0,1.4066033E1,3.2719893E0,1.1231347E0,1.2679E0,1.4343181E0,1.6636504E0,3.056605E0,1.1009429E1,1.0410377E0,2.2309515E0,1.0642416E0,1.9923635E0],"tree_param":{"num_deleted":"0","num_feature":"120","num_nodes":"23","size_leaf_vector":"1"}},{"base_weights":[-5.832255E-2,-5.119305E-1,7.1587676E-1,-5.429509E-2,-2.7090704E-1,-5.201867E-2,8.259976E-1,-5.2821714E-2,2.2405025E-2,4.119002E-1,9.039543E-1,2.3878564E-3,8.145131E-2,1.0086242E-1,6.364632E-1,-5.778862E-2,1.0502868E-1],"categories":[],"categories_nodes":[],"categories_segments":[],"categories_sizes":[],"default_left":[0,0,0,0,0,0,0,0,0,0,0,0,0,0,0,0,0],"id":62,"left_children":[1,3,5,-1,7,-1,9,-1,-1,11,13,-1,-1,-1,15,-1,-1],"loss_changes":[1.6726114E1,2.0977306E-1,2.438487E0,0E0,4.732748E-1,0E0,4.8566723E-1,0E0,0E0,4.2766523E-1,3.1512642E-1,0E0,0E0,0E0,2.1117048E0,0E0,0E0],"parents":[2147483647,0,0,1,1,2,2,4,4,6,6,9,9,10,10,14,14],"right_children":[2,4,6,-1,8,-1,10,-1,-1,12,14,-1,-1,-1,16,-1,-1],"split_conditions":[1E0,1E0,1E0,-5.429509E-2,1E0,-5.201867E-2,1E0,-5.2821714E-2,2.2405025E-2,1E0,1E0,2.3878564E-3,8.145131E-2,1.0086242E-1,1E0,-5.778862E-2,1.0502868E-1],"split_indices":[101,117,107,0,36,0,111,0,0,90,34,0,0,0,26,0,0],"split_type":[0,0,0,0,0,0,0,0,0,0,0,0,0,0,0,0,0],"sum_hessian":[4.742356E1,2.9924496E1,1.7499063E1,2.640131E1,3.5231872E0,1.4010007E0,1.6098063E1,2.3136737E0,1.2095135E0,2.6499891E0,1.3448073E1,1.4033904E0,1.2465987E0,9.466676E0,3.9813976E0,1.001853E0,2.9795446E0],"tree_param":{"num_deleted":"0","num_feature":"120","num_nodes":"17","size_leaf_vector":"1"}},{"base_weights":[1.6087322E-2,1.6368158E-1,-3.4595883E-1,2.5678295E-1,-5.26773E-2,-4.5940152E-1,2.5718749E-2,3.6182243E-1,-5.2586336E-2,-2.9456478E-1,-5.3429674E-2,5.413722E-1,-4.2500418E-2,-5.2957922E-2,1.7152626E-2,6.6669595E-1,-3.4328304E-2,1.5543948E-1,-5.271889E-2,8.3144546E-1,3.0152708E-1,-5.3294238E-2,6.74728E-2,4.3934694E-1,-5.257672E-2,9.6361496E-2,5.0103444E-1,5.3657186E-1,-5.2410163E-2,1.2623395E-1,8.7385505E-2,7.7388234E-2,8.552213E-3,1.5901139E-2,1.09911256E-1,6.751556E-2,-5.1109653E-2],"categories":[],"categories_nodes":[],"categories_segments":[],"categories_sizes":[],"default_left":[0,0,0,0,0,0,0,0,0,0,0,0,0,0,0,0,0,0,0,0,0,0,0,0,0,0,0,0,0,0,0,0,0,0,0,0,0],"id":63,"left_children":[1,3,5,7,-1,9,-1,11,-1,13,-1,15,17,-1,-1,19,21,23,-1,25,27,-1,-1,29,-1,-1,31,33,-1,35,-1,-1,-1,-1,-1,-1,-1],"loss_changes":[2.6295254E0,2.2602174E0,9.870118E-1,2.5563877E0,0E0,1.328044E-1,0E0,1.9821312E0,0E0,4.4524968E-1,0E0,1.3653727E0,8.216858E-1,0E0,0E0,9.0863705E-1,1.2636751E0,1.2024051E0,0E0,4.1628504E-1,9.949313E-1,0E0,0E0,5.8193856E-1,0E0,0E0,3.6159372E-1,8.1667984E-1,0E0,9.615845E-1,0E0,0E0,0E0,0E0,0E0,0E0,0E0],"parents":[2147483647,0,0,1,1,2,2,3,3,5,5,7,7,9,9,11,11,12,12,15,15,16,16,17,17,19,19,20,20,23,23,26,26,27,27,29,29],"right_children":[2,4,6,8,-1,10,-1,12,-1,14,-1,16,18,-1,-1,20,22,24,-1,26,28,-1,-1,30,-1,-1,32,34,-1,36,-1,-1,-1,-1,-1,-1,-1],"split_conditions":[1E0,1E0,1E0,1E0,-5.26773E-2,1E0,2.5718749E-2,1E0,-5.2586336E-2,1E0,-5.3429674E-2,1E0,1E0,-5.2957922E-2,1.7152626E-2,1E0,1E0,1E0,-5.271889E-2,1E0,1E0,-5.3294238E-2,6.74728E-2,1E0,-5.257672E-2,9.6361496E-2,1E0,1E0,-5.2410163E-2,1E0,8.7385505E-2,7.7388234E-2,8.552213E-3,1.5901139E-2,1.09911256E-1,6.751556E-2,-5.1109653E-2],"split_indices":[32,40,105,61,0,29,0,86,0,119,0,111,108,0,0,8,23,36,0,82,36,0,0,27,0,0,119,71,0,82,0,0,0,0,0,0,0],"split_type":[0,0,0,0,0,0,0,0,0,0,0,0,0,0,0,0,0,0,0,0,0,0,0,0,0,0,0,0,0,0,0,0,0,0,0,0,0],"sum_hessian":[4.9002964E1,3.4850395E1,1.4152567E1,3.0764853E1,4.085544E0,1.1932144E1,2.2204227E0,2.7171867E1,3.5929844E0,3.8818645E0,8.05028E0,1.879263E1,8.379238E0,2.5715866E0,1.3102779E0,1.5420047E1,3.3725834E0,5.9977655E0,2.3814723E0,1.0538025E1,4.8820214E0,1.9947189E0,1.3778645E0,4.2584643E0,1.7393013E0,7.3901935E0,3.1478314E0,3.8274195E0,1.0546017E0,2.5499701E0,1.708494E0,1.8480523E0,1.2997793E0,2.3670158E0,1.4604037E0,1.3668184E0,1.1831517E0],"tree_param":{"num_deleted":"0","num_feature":"120","num_nodes":"37","size_leaf_vector":"1"}},{"base_weights":[-1.1425529E-1,-4.558852E-1,6.57712E-1,-5.0822663E-1,4.694181E-2,8.9741284E-1,-2.4512461E-1,-5.4161377E-2,-3.2113272E-1,6.490977E-1,9.699985E-2,-5.3649075E-2,2.060808E-2,-5.2529193E-2,3.312627E-2,1.4628144E-2,9.969569E-2],"categories":[],"categories_nodes":[],"categories_segments":[],"categories_sizes":[],"default_left":[0,0,0,0,0,0,0,0,0,0,0,0,0,0,0,0,0],"id":64,"left_children":[1,3,5,7,-1,9,11,-1,13,15,-1,-1,-1,-1,-1,-1,-1],"loss_changes":[1.157222E1,1.4961028E0,2.9364963E0,1.6262531E-1,0E0,1.2923622E-1,3.9282966E-1,0E0,6.3137305E-1,4.6016896E-1,0E0,0E0,0E0,0E0,0E0,0E0,0E0],"parents":[2147483647,0,0,1,1,2,2,3,3,5,5,6,6,8,8,9,9],"right_children":[2,4,6,8,-1,10,12,-1,14,16,-1,-1,-1,-1,-1,-1,-1],"split_conditions":[1E0,1E0,1E0,1E0,4.694181E-2,1E0,1E0,-5.4161377E-2,1E0,1E0,9.699985E-2,-5.3649075E-2,2.060808E-2,-5.2529193E-2,3.312627E-2,1.4628144E-2,9.969569E-2],"split_indices":[0,10,72,58,0,17,104,0,97,34,0,0,0,0,0,0,0],"split_type":[0,0,0,0,0,0,0,0,0,0,0,0,0,0,0,0,0],"sum_hessian":[4.366583E1,3.0298388E1,1.3367441E1,2.8718925E1,1.5794628E0,1.0563468E1,2.8039732E0,2.4209267E1,4.509659E0,2.6142793E0,7.9491887E0,1.6922805E0,1.1116927E0,3.4496238E0,1.0600351E0,1.1271222E0,1.4871571E0],"tree_param":{"num_deleted":"0","num_feature":"120","num_nodes":"17","size_leaf_vector":"1"}},{"base_weights":[1.3526686E-1,-4.6034908E-1,5.222952E-1,-5.384488E-2,-2.6214302E-1,6.709008E-1,-5.2758515E-2,7.971327E-2,-5.302467E-2,8.148479E-1,-2.9618138E-1,7.590787E-2,-5.2212466E-2,8.867569E-1,5.1402956E-1,2.3730015E-2,-5.3507622E-2,7.208692E-1,9.277343E-2,-1.3114764E-2,8.4477656E-2,5.8912975E-3,9.9009335E-2],"categories":[],"categories_nodes":[],"categories_segments":[],"categories_sizes":[],"default_left":[0,0,0,0,0,0,0,0,0,0,0,0,0,0,0,0,0,0,0,0,0,0,0],"id":65,"left_children":[1,3,5,-1,7,9,-1,11,-1,13,15,-1,-1,17,19,-1,-1,21,-1,-1,-1,-1,-1],"loss_changes":[1.212755E1,3.0682993E-1,5.008027E0,0E0,5.5920494E-1,3.9169893E0,0E0,1.1633902E0,0E0,4.8152924E-1,4.837929E-1,0E0,0E0,6.587124E-2,1.0650352E0,0E0,0E0,7.634933E-1,0E0,0E0,0E0,0E0,0E0],"parents":[2147483647,0,0,1,1,2,2,4,4,5,5,7,7,9,9,10,10,13,13,14,14,17,17],"right_children":[2,4,6,-1,8,10,-1,12,-1,14,16,-1,-1,18,20,-1,-1,22,-1,-1,-1,-1,-1],"split_conditions":[1E0,1E0,1E0,-5.384488E-2,1E0,1E0,-5.2758515E-2,1E0,-5.302467E-2,1E0,1E0,7.590787E-2,-5.2212466E-2,1E0,1E0,2.3730015E-2,-5.3507622E-2,1E0,9.277343E-2,-1.3114764E-2,8.4477656E-2,5.8912975E-3,9.9009335E-2],"split_indices":[21,32,3,0,80,87,0,16,0,118,118,0,0,32,35,0,0,99,0,0,0,0,0],"split_type":[0,0,0,0,0,0,0,0,0,0,0,0,0,0,0,0,0,0,0,0,0,0,0],"sum_hessian":[5.240518E1,2.0633059E1,3.1772123E1,1.4677844E1,5.955215E0,2.7864176E1,3.9079473E0,2.6484592E0,3.3067555E0,2.4267744E1,3.596433E0,1.2318256E0,1.4166335E0,1.9428646E1,4.8390965E0,1.1125778E0,2.4838552E0,4.216852E0,1.5211795E1,1.6604534E0,3.1786432E0,1.254421E0,2.9624314E0],"tree_param":{"num_deleted":"0","num_feature":"120","num_nodes":"23","size_leaf_vector":"1"}},{"base_weights":[-6.073963E-2,-5.4036703E-2,8.906167E-2],"categories":[],"categories_nodes":[],"categories_segments":[],"categories_sizes":[],"default_left":[0,0,0],"id":66,"left_children":[1,-1,-1],"loss_changes":[2.02788E1,0E0,0E0],"parents":[2147483647,0,0],"right_children":[2,-1,-1],"split_conditions":[1E0,-5.4036703E-2,8.906167E-2],"split_indices":[40,0,0],"split_type":[0,0,0],"sum_hessian":[4.423668E1,2.943845E1,1.4798229E1],"tree_param":{"num_deleted":"0","num_feature":"120","num_nodes":"3","size_leaf_vector":"1"}},{"base_weights":[1.5737932E-2,-5.095757E-1,7.61964E-1,-5.399394E-2,1.1370016E-2,-5.233583E-2,8.562908E-1,5.0287414E-1,9.0739764E-2,1.33348545E-2,8.374246E-2],"categories":[],"categories_nodes":[],"categories_segments":[],"categories_sizes":[],"default_left":[0,0,0,0,0,0,0,0,0,0,0],"id":67,"left_children":[1,3,5,-1,-1,-1,7,9,-1,-1,-1],"loss_changes":[1.8658186E1,5.348077E-1,2.4287663E0,0E0,0E0,0E0,